-3.395082354545593262e-01
-1.212529465556144714e-02
2.303805947303771973e-01
1.940047144889831543e-01
-2.869653105735778809e-01
-2.748399972915649414e-01
-7.275176793336868286e-02
-9.296059608459472656e-02
-1.212529465556144714e-02
-2.829235494136810303e-01
1.778376549482345581e-01
-2.020882442593574524e-02
5.658470839262008667e-02
-3.678005933761596680e-01
-2.950488328933715820e-01
1.535870730876922607e-01
-2.182553112506866455e-01
1.455035358667373657e-01
-2.142135351896286011e-01
-1.940047144889831543e-01
-8.083529770374298096e-02
4.445941448211669922e-01
1.697541177272796631e-01
1.576288342475891113e-01
9.700235724449157715e-02
2.303805947303771973e-01
1.455035358667373657e-01
2.344223558902740479e-01
6.466823816299438477e-02
-1.980464756488800049e-01
2.344223558902740479e-01
-8.891882747411727905e-02
3.637588396668434143e-02
-8.487705886363983154e-02
-1.131694167852401733e-01
-2.344223558902740479e-01
1.455035358667373657e-01
3.233411908149719238e-01
-2.829235494136810303e-01
-2.546311914920806885e-01
-4.850117862224578857e-02
-2.425058931112289429e-01
-1.778376549482345581e-01
-8.083529770374298096e-03
2.869653105735778809e-01
3.152576684951782227e-01
-2.425058931112289429e-02
2.910070717334747314e-01
-1.050858870148658752e-01
-3.192994296550750732e-01
6.466823816299438477e-02
7.679353654384613037e-02
-9.700235724449157715e-02
-3.556753098964691162e-01
-9.296059608459472656e-02
2.829235494136810303e-01
2.061300128698348999e-01
-1.980464756488800049e-01
-2.829235419631004333e-02
-2.788817882537841797e-01
-8.083529770374298096e-03
2.465476542711257935e-01
-1.414617747068405151e-01
-4.041764885187149048e-03
-3.758841454982757568e-01
3.678005933761596680e-01
-1.657123565673828125e-01
-6.062647327780723572e-02
-2.222970724105834961e-01
2.465476542711257935e-01
3.475917875766754150e-01
-2.263388335704803467e-01
-2.061300128698348999e-01
-2.627147138118743896e-01
-2.788817882537841797e-01
-2.263388335704803467e-01
7.679353654384613037e-02
3.475917875766754150e-01
8.891882747411727905e-02
2.142135351896286011e-01
1.091276556253433228e-01
1.091276556253433228e-01
-2.586729526519775391e-01
1.455035358667373657e-01
1.455035358667373657e-01
1.616705954074859619e-01
4.445941448211669922e-01
-1.535870730876922607e-01
-2.384641319513320923e-01
1.212529465556144714e-01
1.293364763259887695e-01
6.870999932289123535e-02
3.556753098964691162e-01
-2.222970724105834961e-01
-3.880094289779663086e-01
-2.101717740297317505e-01
3.112159073352813721e-01
4.850117862224578857e-02
-1.252947151660919189e-01
-6.062647327780723572e-02
-5.254294350743293762e-02
-8.487705886363983154e-02
6.062647327780723572e-02
2.950488328933715820e-01
1.657123565673828125e-01
-2.627147138118743896e-01
-3.920511901378631592e-01
3.233411908149719238e-02
-2.465476542711257935e-01
3.152576684951782227e-01
2.182553112506866455e-01
-1.131694167852401733e-01
2.020882368087768555e-01
1.374199986457824707e-01
-3.395082354545593262e-01
4.122600257396697998e-01
-1.980464756488800049e-01
0.000000000000000000e+00
-1.212529465556144714e-02
-4.001347124576568604e-01
-2.425058931112289429e-02
-1.050858870148658752e-01
-1.535870730876922607e-01
8.487705886363983154e-02
4.850117862224578857e-02
-3.880094289779663086e-01
-2.020882368087768555e-01
-1.737958937883377075e-01
1.697541177272796631e-01
-3.233411908149719238e-01
4.163017868995666504e-01
-1.576288342475891113e-01
2.546311914920806885e-01
-1.737958937883377075e-01
-9.296059608459472656e-02
3.152576684951782227e-01
-1.616705954074859619e-01
3.314247131347656250e-01
-6.466823816299438477e-02
-2.020882368087768555e-01
-1.859211921691894531e-01
-1.252947151660919189e-01
3.758841454982757568e-01
-3.799259066581726074e-01
6.870999932289123535e-02
1.535870730876922607e-01
-4.445941448211669922e-01
1.737958937883377075e-01
-4.445941373705863953e-02
2.505894303321838379e-01
2.344223558902740479e-01
-2.101717740297317505e-01
2.869653105735778809e-01
4.041764885187149048e-03
-6.062647327780723572e-02
3.637588396668434143e-02
6.062647327780723572e-02
3.395082354545593262e-01
4.850117862224578857e-02
4.850117862224578857e-02
-2.222970724105834961e-01
3.839676678180694580e-01
-7.679353654384613037e-02
-4.041764885187149048e-02
5.254294350743293762e-02
2.222970724105834961e-01
4.203435480594635010e-01
-2.667564749717712402e-01
1.091276556253433228e-01
-1.131694167852401733e-01
-2.303805947303771973e-01
-6.466823816299438477e-02
5.254294350743293762e-02
-6.466823816299438477e-02
-4.041764885187149048e-02
-1.940047144889831543e-01
6.870999932289123535e-02
1.616705954074859619e-01
-1.899629533290863037e-01
2.869653105735778809e-01
3.112159073352813721e-01
1.455035358667373657e-01
-4.041764885187149048e-02
-6.062647327780723572e-02
-2.829235419631004333e-02
1.697541177272796631e-01
-2.505894303321838379e-01
4.163017868995666504e-01
-2.142135351896286011e-01
-2.990905940532684326e-01
-1.252947151660919189e-01
8.083529770374298096e-03
2.182553112506866455e-01
2.869653105735778809e-01
3.637588396668434143e-02
8.891882747411727905e-02
-1.657123565673828125e-01
-6.062647327780723572e-02
1.940047144889831543e-01
3.880094289779663086e-01
6.466823816299438477e-02
-4.850117862224578857e-02
-3.516335487365722656e-01
5.658470839262008667e-02
-6.466823816299438477e-02
-2.869653105735778809e-01
1.333782374858856201e-01
-2.950488328933715820e-01
4.203435480594635010e-01
-1.212529465556144714e-02
3.233411908149719238e-01
-3.637588396668434143e-02
-2.505894303321838379e-01
-4.041764885187149048e-02
-1.091276556253433228e-01
-2.425058931112289429e-01
-1.737958937883377075e-01
7.679353654384613037e-02
2.829235419631004333e-02
2.101717740297317505e-01
-1.697541177272796631e-01
-2.425058931112289429e-01
-8.487705886363983154e-02
3.233411908149719238e-02
8.891882747411727905e-02
-1.778376549482345581e-01
-2.869653105735778809e-01
-2.303805947303771973e-01
7.679353654384613037e-02
1.333782374858856201e-01
3.314247131347656250e-01
-7.679353654384613037e-02
-1.980464756488800049e-01
-1.859211921691894531e-01
3.880094289779663086e-01
-3.233411908149719238e-01
1.212529465556144714e-01
-1.091276556253433228e-01
1.293364763259887695e-01
2.748399972915649414e-01
1.212529465556144714e-01
8.487705886363983154e-02
-1.980464756488800049e-01
-1.980464756488800049e-01
2.222970724105834961e-01
-2.020882368087768555e-01
-1.818794161081314087e-01
-2.829235494136810303e-01
-3.233411908149719238e-02
5.658470839262008667e-02
1.535870730876922607e-01
-9.700235724449157715e-02
-8.487705886363983154e-02
-7.275176793336868286e-02
-2.263388335704803467e-01
7.275176793336868286e-02
-4.041764885187149048e-02
-2.020882442593574524e-02
-1.050858870148658752e-01
3.839676678180694580e-01
-2.505894303321838379e-01
-1.010441184043884277e-01
1.657123565673828125e-01
-1.293364763259887695e-01
2.910070717334747314e-01
-8.487705886363983154e-02
1.697541177272796631e-01
-4.082182645797729492e-01
1.940047144889831543e-01
-1.616705954074859619e-01
3.435500264167785645e-01
-2.182553112506866455e-01
-6.870999932289123535e-02
4.041764885187149048e-03
3.314247131347656250e-01
9.700235724449157715e-02
1.697541177272796631e-01
-1.293364763259887695e-01
-1.899629533290863037e-01
2.263388335704803467e-01
6.062647327780723572e-02
-5.658470839262008667e-02
6.062647327780723572e-02
2.465476542711257935e-01
1.212529465556144714e-01
1.495452970266342163e-01
4.850117862224578857e-02
-2.101717740297317505e-01
-9.700235724449157715e-02
2.222970724105834961e-01
-1.980464756488800049e-01
3.637588396668434143e-02
2.263388335704803467e-01
-2.101717740297317505e-01
2.748399972915649414e-01
3.839676678180694580e-01
-1.374199986457824707e-01
-7.275176793336868286e-02
1.940047144889831543e-01
3.314247131347656250e-01
1.737958937883377075e-01
-2.142135351896286011e-01
-1.616705954074859619e-01
-5.254294350743293762e-02
-2.869653105735778809e-01
-1.212529465556144714e-02
-2.505894303321838379e-01
-3.152576684951782227e-01
-1.172111779451370239e-01
-3.637588322162628174e-01
-1.293364763259887695e-01
1.212529465556144714e-01
1.455035358667373657e-01
-8.891882747411727905e-02
1.172111779451370239e-01
9.296059608459472656e-02
-3.071741461753845215e-01
2.990905940532684326e-01
2.748399972915649414e-01
6.870999932289123535e-02
-1.697541177272796631e-01
-1.818794161081314087e-01
-8.487705886363983154e-02
-1.657123565673828125e-01
1.576288342475891113e-01
-3.960929512977600098e-01
5.658470839262008667e-02
2.020882368087768555e-01
2.990905940532684326e-01
-3.516335487365722656e-01
6.062647327780723572e-02
-3.799259066581726074e-01
-2.990905940532684326e-01
3.475917875766754150e-01
-1.212529465556144714e-02
-3.556753098964691162e-01
-2.788817882537841797e-01
1.333782374858856201e-01
4.445941373705863953e-02
1.697541177272796631e-01
-9.296059608459472656e-02
1.657123565673828125e-01
-1.212529465556144714e-02
1.374199986457824707e-01
-3.192994296550750732e-01
-3.920511901378631592e-01
-2.667564749717712402e-01
-8.083529770374298096e-02
-2.020882368087768555e-01
-2.182553112506866455e-01
-8.083529770374298096e-03
2.061300128698348999e-01
1.980464756488800049e-01
3.839676678180694580e-01
-2.788817882537841797e-01
1.212529465556144714e-02
3.273829519748687744e-01
5.658470839262008667e-02
9.296059608459472656e-02
3.031323552131652832e-01
2.303805947303771973e-01
-2.465476542711257935e-01
-1.455035358667373657e-01
-4.850117862224578857e-02
3.637588396668434143e-02
3.637588322162628174e-01
-1.980464756488800049e-01
6.870999932289123535e-02
2.020882368087768555e-01
-2.546311914920806885e-01
-1.172111779451370239e-01
2.384641319513320923e-01
-2.142135351896286011e-01
2.061300128698348999e-01
1.293364763259887695e-01
-3.395082354545593262e-01
3.960929512977600098e-01
-3.637588396668434143e-02
1.212529465556144714e-02
3.152576684951782227e-01
5.254294350743293762e-02
7.275176793336868286e-02
-1.495452970266342163e-01
-3.678005933761596680e-01
1.576288342475891113e-01
1.535870730876922607e-01
-8.083529770374298096e-02
2.384641319513320923e-01
-7.679353654384613037e-02
2.546311914920806885e-01
-6.466823816299438477e-02
-2.950488328933715820e-01
-1.010441184043884277e-01
2.586729526519775391e-01
-2.586729526519775391e-01
8.083529770374298096e-02
2.142135351896286011e-01
1.172111779451370239e-01
9.296059608459472656e-02
-2.182553112506866455e-01
1.091276556253433228e-01
1.980464756488800049e-01
2.505894303321838379e-01
-3.273829519748687744e-01
-3.475917875766754150e-01
-2.788817882537841797e-01
-1.940047144889831543e-01
-1.131694167852401733e-01
-1.899629533290863037e-01
1.657123565673828125e-01
-3.960929512977600098e-01
2.505894303321838379e-01
-8.083529770374298096e-03
1.495452970266342163e-01
1.333782374858856201e-01
3.475917875766754150e-01
1.778376549482345581e-01
-1.535870730876922607e-01
0.000000000000000000e+00
4.041764885187149048e-03
-3.071741461753845215e-01
-3.597170710563659668e-01
1.576288342475891113e-01
-1.091276556253433228e-01
1.010441184043884277e-01
1.212529465556144714e-01
2.344223558902740479e-01
-1.212529465556144714e-02
-3.718423843383789062e-01
7.275176793336868286e-02
-2.061300128698348999e-01
3.637588396668434143e-02
-2.222970724105834961e-01
-4.688447117805480957e-01
-8.083529770374298096e-02
1.818794161081314087e-01
-1.859211921691894531e-01
1.333782374858856201e-01
-6.062647327780723572e-02
-1.657123565673828125e-01
0.000000000000000000e+00
-1.172111779451370239e-01
1.212529465556144714e-01
-1.495452970266342163e-01
1.414617747068405151e-01
-2.990905940532684326e-01
1.212529465556144714e-01
1.737958937883377075e-01
-1.657123565673828125e-01
-4.001347124576568604e-01
2.748399972915649414e-01
1.940047144889831543e-01
-2.748399972915649414e-01
1.212529465556144714e-01
3.354664742946624756e-01
-2.707982361316680908e-01
-9.296059608459472656e-02
1.940047144889831543e-01
7.679353654384613037e-02
-4.850117862224578857e-02
1.616705954074859619e-02
2.505894303321838379e-01
1.333782374858856201e-01
-2.061300128698348999e-01
-1.980464756488800049e-01
2.425058931112289429e-02
-2.182553112506866455e-01
-1.091276556253433228e-01
-4.850117862224578857e-02
3.233411908149719238e-02
2.748399972915649414e-01
2.101717740297317505e-01
6.870999932289123535e-02
1.576288342475891113e-01
-3.597170710563659668e-01
-4.850117862224578857e-02
1.980464756488800049e-01
-6.062647327780723572e-02
1.778376549482345581e-01
-1.899629533290863037e-01
1.050858870148658752e-01
-6.466823816299438477e-02
3.112159073352813721e-01
1.899629533290863037e-01
-1.010441184043884277e-01
3.475917875766754150e-01
-6.466823816299438477e-02
1.737958937883377075e-01
2.505894303321838379e-01
-8.891882747411727905e-02
2.142135351896286011e-01
-2.707982361316680908e-01
-2.101717740297317505e-01
2.222970724105834961e-01
7.275176793336868286e-02
-2.142135351896286011e-01
1.859211921691894531e-01
8.487705886363983154e-02
8.083529770374298096e-03
-1.172111779451370239e-01
1.495452970266342163e-01
-2.627147138118743896e-01
-3.799259066581726074e-01
-2.303805947303771973e-01
1.616705954074859619e-02
-8.083529770374298096e-03
2.950488328933715820e-01
-4.243853092193603516e-01
-4.041764885187149048e-03
2.425058931112289429e-02
2.627147138118743896e-01
2.546311914920806885e-01
-2.910070717334747314e-01
-1.252947151660919189e-01
-1.293364763259887695e-01
2.707982361316680908e-01
1.050858870148658752e-01
1.940047144889831543e-01
-1.131694167852401733e-01
-1.657123565673828125e-01
1.293364763259887695e-01
3.556753098964691162e-01
1.172111779451370239e-01
-1.252947151660919189e-01
1.940047144889831543e-01
2.990905940532684326e-01
-1.576288342475891113e-01
-2.707982361316680908e-01
3.192994296550750732e-01
2.101717740297317505e-01
2.950488328933715820e-01
1.212529465556144714e-01
-2.667564749717712402e-01
-1.616705954074859619e-02
-1.616705954074859619e-02
3.637588322162628174e-01
1.374199986457824707e-01
-2.020882442593574524e-02
9.700235724449157715e-02
-4.001347124576568604e-01
-8.891882747411727905e-02
-2.869653105735778809e-01
-1.778376549482345581e-01
1.293364763259887695e-01
-1.980464756488800049e-01
-2.667564749717712402e-01
-2.829235494136810303e-01
2.788817882537841797e-01
-3.031323552131652832e-01
-1.980464756488800049e-01
-2.546311914920806885e-01
-1.455035358667373657e-01
5.658470839262008667e-02
-1.091276556253433228e-01
-2.748399972915649414e-01
2.950488328933715820e-01
-2.869653105735778809e-01
-2.344223558902740479e-01
0.000000000000000000e+00
-1.050858870148658752e-01
-8.891882747411727905e-02
-1.859211921691894531e-01
2.990905940532684326e-01
2.425058931112289429e-01
-2.586729526519775391e-01
-6.466823816299438477e-02
-2.910070717334747314e-01
1.010441184043884277e-01
2.425058931112289429e-02
2.020882368087768555e-01
2.869653105735778809e-01
2.020882442593574524e-02
-1.616705954074859619e-01
-1.899629533290863037e-01
-3.597170710563659668e-01
-8.083529770374298096e-03
-1.091276556253433228e-01
6.466823816299438477e-02
6.870999932289123535e-02
-2.546311914920806885e-01
-1.010441184043884277e-01
-2.950488328933715820e-01
-4.445941373705863953e-02
2.788817882537841797e-01
-8.083529770374298096e-03
-3.516335487365722656e-01
-4.850117862224578857e-02
-1.293364763259887695e-01
2.182553112506866455e-01
2.667564749717712402e-01
-2.182553112506866455e-01
-2.425058931112289429e-02
-1.172111779451370239e-01
3.152576684951782227e-01
9.296059608459472656e-02
1.697541177272796631e-01
1.293364763259887695e-01
-1.576288342475891113e-01
-1.091276556253433228e-01
-3.233411908149719238e-02
-1.293364763259887695e-01
-4.365106225013732910e-01
1.172111779451370239e-01
1.293364763259887695e-01
-1.212529465556144714e-02
8.083529770374298096e-02
1.616705954074859619e-01
-1.293364763259887695e-01
-3.516335487365722656e-01
-1.616705954074859619e-01
2.950488328933715820e-01
-8.891882747411727905e-02
3.314247131347656250e-01
6.466823816299438477e-02
-3.637588322162628174e-01
-3.516335487365722656e-01
1.414617747068405151e-01
4.041764885187149048e-03
5.254294350743293762e-02
1.455035358667373657e-01
-4.041764885187149048e-02
1.737958937883377075e-01
3.031323552131652832e-01
3.637588396668434143e-02
2.990905940532684326e-01
2.950488328933715820e-01
7.275176793336868286e-02
-1.576288342475891113e-01
-2.020882368087768555e-01
2.061300128698348999e-01
3.395082354545593262e-01
-2.425058931112289429e-02
-1.576288342475891113e-01
-2.546311914920806885e-01
-4.850117862224578857e-02
-6.466823816299438477e-02
1.293364763259887695e-01
2.142135351896286011e-01
1.616705954074859619e-01
9.296059608459472656e-02
9.296059608459472656e-02
-7.275176793336868286e-02
-3.435500264167785645e-01
-3.354664742946624756e-01
-2.425058931112289429e-01
-1.212529465556144714e-02
-8.083529770374298096e-03
3.758841454982757568e-01
2.546311914920806885e-01
-8.083529770374298096e-03
2.344223558902740479e-01
1.616705954074859619e-02
1.535870730876922607e-01
2.303805947303771973e-01
2.303805947303771973e-01
-2.061300128698348999e-01
-4.405523836612701416e-01
2.061300128698348999e-01
3.678005933761596680e-01
1.616705954074859619e-02
-2.182553112506866455e-01
-2.546311914920806885e-01
1.293364763259887695e-01
2.263388335704803467e-01
1.050858870148658752e-01
-1.131694167852401733e-01
1.737958937883377075e-01
1.293364763259887695e-01
1.172111779451370239e-01
1.293364763259887695e-01
3.071741461753845215e-01
-2.546311914920806885e-01
1.252947151660919189e-01
1.818794161081314087e-01
-6.466823816299438477e-02
-1.859211921691894531e-01
9.700235724449157715e-02
-1.980464756488800049e-01
1.091276556253433228e-01
-4.445941448211669922e-01
2.020882368087768555e-01
1.212529465556144714e-01
-2.384641319513320923e-01
-2.020882368087768555e-01
1.455035358667373657e-01
-1.657123565673828125e-01
3.273829519748687744e-01
-2.020882442593574524e-02
-9.700235724449157715e-02
5.133041143417358398e-01
-1.212529465556144714e-01
-1.616705954074859619e-02
3.233411908149719238e-02
-2.910070717334747314e-01
2.384641319513320923e-01
2.910070717334747314e-01
4.850117862224578857e-02
2.748399972915649414e-01
-2.020882368087768555e-01
-1.212529465556144714e-01
7.679353654384613037e-02
-2.182553112506866455e-01
2.020882442593574524e-02
1.616705954074859619e-01
-3.516335487365722656e-01
1.940047144889831543e-01
-4.850117862224578857e-02
-3.354664742946624756e-01
-1.980464756488800049e-01
1.657123565673828125e-01
5.658470839262008667e-02
-3.637588322162628174e-01
-4.284270703792572021e-01
-8.487705886363983154e-02
-2.222970724105834961e-01
-1.576288342475891113e-01
2.222970724105834961e-01
1.374199986457824707e-01
-1.172111779451370239e-01
-5.658470839262008667e-02
4.850117862224578857e-02
-9.296059608459472656e-02
-8.891882747411727905e-02
2.222970724105834961e-01
-4.405523836612701416e-01
1.212529465556144714e-02
-8.083529770374298096e-03
2.425058931112289429e-01
2.020882368087768555e-01
-1.050858870148658752e-01
-1.697541177272796631e-01
2.303805947303771973e-01
-8.083529770374298096e-02
3.718423843383789062e-01
-2.020882368087768555e-01
1.495452970266342163e-01
3.152576684951782227e-01
1.091276556253433228e-01
2.505894303321838379e-01
-1.616705954074859619e-01
-3.152576684951782227e-01
-2.505894303321838379e-01
2.263388335704803467e-01
1.212529465556144714e-01
-1.859211921691894531e-01
2.465476542711257935e-01
2.263388335704803467e-01
3.880094289779663086e-01
-8.083529770374298096e-02
-3.839676678180694580e-01
-2.707982361316680908e-01
-3.597170710563659668e-01
7.679353654384613037e-02
-9.296059608459472656e-02
7.275176793336868286e-02
-2.182553112506866455e-01
3.233411908149719238e-01
2.829235419631004333e-02
1.050858870148658752e-01
-3.435500264167785645e-01
2.425058931112289429e-02
1.212529465556144714e-02
3.637588396668434143e-02
-2.222970724105834961e-01
-5.658470839262008667e-02
3.758841454982757568e-01
4.041764885187149048e-03
1.980464756488800049e-01
1.737958937883377075e-01
-1.737958937883377075e-01
2.222970724105834961e-01
-8.487705886363983154e-02
-2.182553112506866455e-01
-2.061300128698348999e-01
-4.850117862224578857e-02
-1.414617747068405151e-01
-4.041764885187149048e-02
-2.586729526519775391e-01
3.435500264167785645e-01
4.526776671409606934e-01
2.263388335704803467e-01
1.616705954074859619e-02
2.061300128698348999e-01
-3.475917875766754150e-01
3.233411908149719238e-02
1.212529465556144714e-02
1.293364763259887695e-01
-9.296059608459472656e-02
3.435500264167785645e-01
4.041764885187149048e-03
7.679353654384613037e-02
-1.131694167852401733e-01
1.818794161081314087e-01
1.576288342475891113e-01
2.910070717334747314e-01
-1.212529465556144714e-02
-3.678005933761596680e-01
-5.658470839262008667e-02
-9.296059608459472656e-02
2.303805947303771973e-01
-3.354664742946624756e-01
-1.091276556253433228e-01
2.020882368087768555e-01
1.333782374858856201e-01
-5.658470839262008667e-02
-4.203435480594635010e-01
-3.233411908149719238e-02
-7.679353654384613037e-02
2.505894303321838379e-01
3.233411908149719238e-01
8.487705886363983154e-02
1.859211921691894531e-01
3.112159073352813721e-01
-1.576288342475891113e-01
3.233411908149719238e-02
8.083529770374298096e-03
1.293364763259887695e-01
1.010441184043884277e-01
1.616705954074859619e-02
9.296059608459472656e-02
6.466823816299438477e-02
-2.990905940532684326e-01
1.697541177272796631e-01
-3.799259066581726074e-01
4.122600257396697998e-01
-2.465476542711257935e-01
-4.041764885187149048e-02
-1.980464756488800049e-01
2.020882368087768555e-01
-2.222970724105834961e-01
1.455035358667373657e-01
2.546311914920806885e-01
-2.586729526519775391e-01
-2.546311914920806885e-01
2.627147138118743896e-01
1.697541177272796631e-01
2.465476542711257935e-01
6.870999932289123535e-02
6.466823816299438477e-02
-2.950488328933715820e-01
-8.891882747411727905e-02
-3.071741461753845215e-01
3.880094289779663086e-01
5.658470839262008667e-02
-6.466823816299438477e-02
-2.667564749717712402e-01
6.062647327780723572e-02
1.616705954074859619e-01
8.891882747411727905e-02
2.182553112506866455e-01
-1.333782374858856201e-01
-6.870999932289123535e-02
-1.131694167852401733e-01
3.475917875766754150e-01
2.869653105735778809e-01
-6.062647327780723572e-02
9.296059608459472656e-02
2.263388335704803467e-01
4.041764736175537109e-01
3.152576684951782227e-01
-2.222970724105834961e-01
-1.657123565673828125e-01
2.869653105735778809e-01
2.061300128698348999e-01
-1.899629533290863037e-01
1.293364763259887695e-01
2.707982361316680908e-01
-2.707982361316680908e-01
-2.910070717334747314e-01
-2.263388335704803467e-01
7.275176793336868286e-02
4.041764885187149048e-03
2.344223558902740479e-01
-3.718423843383789062e-01
-3.233411908149719238e-02
-7.679353654384613037e-02
2.061300128698348999e-01
-8.083529770374298096e-02
-2.303805947303771973e-01
2.222970724105834961e-01
-3.799259066581726074e-01
2.425058931112289429e-02
2.950488328933715820e-01
1.374199986457824707e-01
-2.020882442593574524e-02
-1.131694167852401733e-01
3.152576684951782227e-01
1.576288342475891113e-01
-8.083529770374298096e-02
1.899629533290863037e-01
2.829235419631004333e-02
4.041764885187149048e-03
6.466823816299438477e-02
5.254294350743293762e-02
-1.940047144889831543e-01
1.333782374858856201e-01
-1.414617747068405151e-01
5.658470839262008667e-02
2.182553112506866455e-01
4.688447117805480957e-01
1.414617747068405151e-01
-3.839676678180694580e-01
-2.505894303321838379e-01
4.850117862224578857e-02
-2.222970724105834961e-01
6.466823816299438477e-02
-3.556753098964691162e-01
-2.505894303321838379e-01
-1.616705954074859619e-01
4.041764885187149048e-02
-2.425058931112289429e-01
-2.990905940532684326e-01
-3.031323552131652832e-01
-1.455035358667373657e-01
-3.354664742946624756e-01
3.475917875766754150e-01
-3.354664742946624756e-01
2.142135351896286011e-01
-1.010441184043884277e-01
-6.062647327780723572e-02
-2.990905940532684326e-01
-2.950488328933715820e-01
-3.920511901378631592e-01
-6.870999932289123535e-02
2.101717740297317505e-01
-3.637588396668434143e-02
1.172111779451370239e-01
3.233411908149719238e-02
2.829235494136810303e-01
1.212529465556144714e-01
8.083529770374298096e-03
2.303805947303771973e-01
-1.010441184043884277e-01
1.172111779451370239e-01
1.212529465556144714e-01
-6.870999932289123535e-02
-1.010441184043884277e-01
-1.414617747068405151e-01
-2.627147138118743896e-01
1.899629533290863037e-01
1.455035358667373657e-01
-1.050858870148658752e-01
-8.487705886363983154e-02
-1.333782374858856201e-01
1.616705954074859619e-02
8.083529770374298096e-03
-2.627147138118743896e-01
-1.212529465556144714e-02
2.263388335704803467e-01
2.020882442593574524e-02
2.748399972915649414e-01
-1.737958937883377075e-01
-2.263388335704803467e-01
2.142135351896286011e-01
-4.082182645797729492e-01
-1.737958937883377075e-01
1.252947151660919189e-01
-2.142135351896286011e-01
-1.535870730876922607e-01
2.020882368087768555e-01
-2.829235419631004333e-02
-7.679353654384613037e-02
-2.425058931112289429e-01
-1.131694167852401733e-01
-3.435500264167785645e-01
-2.263388335704803467e-01
2.707982361316680908e-01
6.466823816299438477e-02
1.333782374858856201e-01
-2.505894303321838379e-01
1.616705954074859619e-01
1.778376549482345581e-01
-8.083529770374298096e-02
-8.083529770374298096e-03
2.788817882537841797e-01
-9.700235724449157715e-02
1.535870730876922607e-01
6.062647327780723572e-02
-1.212529465556144714e-02
-1.778376549482345581e-01
-1.657123565673828125e-01
2.990905940532684326e-01
1.737958937883377075e-01
2.667564749717712402e-01
-2.829235494136810303e-01
-1.293364763259887695e-01
2.788817882537841797e-01
-4.041764885187149048e-03
-2.101717740297317505e-01
-1.455035358667373657e-01
-1.980464756488800049e-01
-5.254294350743293762e-02
-5.254294350743293762e-02
4.041764885187149048e-02
-1.980464756488800049e-01
2.950488328933715820e-01
4.001347124576568604e-01
-1.576288342475891113e-01
2.020882442593574524e-02
1.010441184043884277e-01
4.041764885187149048e-02
-1.212529465556144714e-01
-2.829235419631004333e-02
9.700235724449157715e-02
-1.010441184043884277e-01
-1.293364763259887695e-01
-1.899629533290863037e-01
-3.314247131347656250e-01
-1.859211921691894531e-01
-2.869653105735778809e-01
-2.142135351896286011e-01
3.233411908149719238e-02
-5.254294350743293762e-02
6.466823816299438477e-02
2.707982361316680908e-01
-2.384641319513320923e-01
-1.010441184043884277e-01
2.950488328933715820e-01
6.870999932289123535e-02
2.546311914920806885e-01
-5.658470839262008667e-02
2.910070717334747314e-01
-2.020882442593574524e-02
8.083529770374298096e-03
-1.455035358667373657e-01
-2.910070717334747314e-01
-1.212529465556144714e-01
2.344223558902740479e-01
-1.010441184043884277e-01
-1.737958937883377075e-01
4.082182645797729492e-01
-6.466823816299438477e-02
2.990905940532684326e-01
1.859211921691894531e-01
2.101717740297317505e-01
-7.275176793336868286e-02
2.182553112506866455e-01
2.465476542711257935e-01
8.891882747411727905e-02
1.737958937883377075e-01
1.131694167852401733e-01
1.455035358667373657e-01
-5.254294350743293762e-02
-1.414617747068405151e-01
9.700235724449157715e-02
1.131694167852401733e-01
3.637588322162628174e-01
-1.778376549482345581e-01
1.172111779451370239e-01
-4.041764885187149048e-02
-3.233411908149719238e-01
1.495452970266342163e-01
-3.475917875766754150e-01
-3.071741461753845215e-01
4.567194283008575439e-01
-2.829235494136810303e-01
-3.597170710563659668e-01
-1.616705954074859619e-02
4.850117862224578857e-02
1.778376549482345581e-01
-2.465476542711257935e-01
-1.050858870148658752e-01
-4.850117862224578857e-02
1.374199986457824707e-01
4.041764885187149048e-02
-4.041764885187149048e-03
-3.718423843383789062e-01
5.658470839262008667e-02
-1.212529465556144714e-02
2.950488328933715820e-01
-3.758841454982757568e-01
8.487705886363983154e-02
-5.658470839262008667e-02
1.657123565673828125e-01
-3.071741461753845215e-01
5.254294350743293762e-02
1.010441184043884277e-01
1.737958937883377075e-01
-5.254294350743293762e-02
2.222970724105834961e-01
1.212529465556144714e-01
-5.658470839262008667e-02
-2.344223558902740479e-01
-1.212529465556144714e-02
-1.414617747068405151e-01
-2.950488328933715820e-01
2.020882442593574524e-02
-1.010441184043884277e-01
4.890535473823547363e-01
2.142135351896286011e-01
-1.131694167852401733e-01
2.344223558902740479e-01
2.222970724105834961e-01
8.083529770374298096e-03
1.495452970266342163e-01
-1.172111779451370239e-01
-2.061300128698348999e-01
-4.850117862224578857e-02
4.041764885187149048e-02
-8.083529770374298096e-03
-2.829235419631004333e-02
-1.091276556253433228e-01
-8.083529770374298096e-03
-4.001347124576568604e-01
-3.314247131347656250e-01
2.303805947303771973e-01
4.486359059810638428e-01
-2.465476542711257935e-01
6.466823816299438477e-02
-2.465476542711257935e-01
9.296059608459472656e-02
3.314247131347656250e-01
3.233411908149719238e-02
-2.182553112506866455e-01
-6.466823816299438477e-02
-3.354664742946624756e-01
1.091276556253433228e-01
-1.091276556253433228e-01
-2.748399972915649414e-01
9.296059608459472656e-02
1.212529465556144714e-01
-3.678005933761596680e-01
-2.142135351896286011e-01
1.252947151660919189e-01
2.101717740297317505e-01
1.778376549482345581e-01
-2.748399972915649414e-01
8.487705886363983154e-02
-1.778376549482345581e-01
-3.233411908149719238e-01
-2.222970724105834961e-01
8.083529770374298096e-02
4.445941373705863953e-02
-3.112159073352813721e-01
3.354664742946624756e-01
-2.222970724105834961e-01
-3.637588322162628174e-01
-2.384641319513320923e-01
3.233411908149719238e-02
-3.718423843383789062e-01
-1.616705954074859619e-02
3.071741461753845215e-01
-6.870999932289123535e-02
3.637588396668434143e-02
-3.637588396668434143e-02
8.487705886363983154e-02
2.020882368087768555e-01
1.818794161081314087e-01
1.293364763259887695e-01
3.031323552131652832e-01
1.495452970266342163e-01
-1.778376549482345581e-01
