2.599143385887145996e-01
3.754318356513977051e-01
-1.299571692943572998e-01
-2.743540406227111816e-01
-1.203307211399078369e-01
-5.294551700353622437e-02
-5.775874480605125427e-02
1.925291419029235840e-01
-3.658053874969482422e-01
2.599143385887145996e-01
-2.406614422798156738e-01
-2.406614273786544800e-02
4.813228733837604523e-03
2.839804887771606445e-01
-3.321127891540527344e-01
-1.010778024792671204e-01
2.887937240302562714e-02
2.310349792242050171e-01
-2.310349792242050171e-01
1.925291493535041809e-02
-1.829026937484741211e-01
-2.695408165454864502e-01
1.492100954055786133e-01
6.738520413637161255e-02
1.540233194828033447e-01
3.224863111972808838e-01
2.551011145114898682e-01
2.069688290357589722e-01
-3.080466389656066895e-01
-4.572567343711853027e-01
5.294551700353622437e-02
1.251439452171325684e-01
-3.850582838058471680e-01
3.080466389656066895e-01
-3.369260206818580627e-02
-2.262217551469802856e-01
1.251439452171325684e-01
1.780894696712493896e-01
8.182489126920700073e-02
-2.069688290357589722e-01
-4.813228733837604523e-03
-2.069688290357589722e-01
8.663811534643173218e-02
1.925291419029235840e-01
-3.850582987070083618e-02
-3.609921634197235107e-01
3.128598630428314209e-01
-3.032334148883819580e-01
-8.663811534643173218e-02
2.358482033014297485e-01
-2.117820680141448975e-01
5.294551700353622437e-02
2.310349792242050171e-01
5.294551700353622437e-02
-6.738520413637161255e-02
3.417392373085021973e-01
4.813228547573089600e-02
1.251439452171325684e-01
-9.145134687423706055e-02
-4.283773601055145264e-01
-5.775874480605125427e-02
-2.502878904342651367e-01
-1.732762306928634644e-01
-3.032334148883819580e-01
2.021556049585342407e-01
-1.829026937484741211e-01
7.219842821359634399e-02
-9.145134687423706055e-02
6.257197260856628418e-02
1.588365435600280762e-01
-1.155174896121025085e-01
2.406614422798156738e-01
-1.010778024792671204e-01
-5.775874480605125427e-02
-1.395836323499679565e-01
-2.454746663570404053e-01
1.925291493535041809e-02
-2.984201908111572266e-01
2.791672646999359131e-01
1.492100954055786133e-01
-2.214085161685943604e-01
-1.203307211399078369e-01
-2.743540406227111816e-01
-1.925291419029235840e-01
-1.492100954055786133e-01
8.182489126920700073e-02
2.069688290357589722e-01
3.609921634197235107e-01
-3.369260206818580627e-02
-6.257197260856628418e-02
-6.257197260856628418e-02
1.010778024792671204e-01
3.128598630428314209e-01
-2.791672646999359131e-01
-3.706186115741729736e-01
8.182489126920700073e-02
-1.540233194828033447e-01
-6.738520413637161255e-02
-1.829026937484741211e-01
-3.561789393424987793e-01
-4.331905841827392578e-01
-1.443968564271926880e-01
-6.160932779312133789e-01
-3.417392373085021973e-01
2.647275924682617188e-01
-1.010778024792671204e-01
2.262217551469802856e-01
-1.732762306928634644e-01
-5.775874480605125427e-02
1.443968620151281357e-02
-1.443968564271926880e-01
-2.887937240302562714e-02
3.032334148883819580e-01
-1.588365435600280762e-01
3.128598630428314209e-01
-3.850582987070083618e-02
-1.925291419029235840e-01
1.395836323499679565e-01
1.780894696712493896e-01
2.887937128543853760e-01
2.358482033014297485e-01
-3.706186115741729736e-01
-1.347704082727432251e-01
5.775874480605125427e-02
-2.791672646999359131e-01
7.219842821359634399e-02
4.813228547573089600e-02
-2.358482033014297485e-01
-1.058910340070724487e-01
-1.829026937484741211e-01
9.145134687423706055e-02
-3.272995650768280029e-01
1.443968620151281357e-02
7.701165974140167236e-02
1.732762306928634644e-01
-3.802450597286224365e-01
1.443968564271926880e-01
-1.684630066156387329e-01
-3.417392373085021973e-01
1.973423808813095093e-01
-2.117820680141448975e-01
2.743540406227111816e-01
1.443968564271926880e-01
-1.877159178256988525e-01
-2.069688290357589722e-01
-1.347704082727432251e-01
-1.347704082727432251e-01
2.406614273786544800e-02
-5.775874480605125427e-02
-3.802450597286224365e-01
-3.417392373085021973e-01
-3.032334148883819580e-01
1.299571692943572998e-01
1.925291493535041809e-02
-2.406614422798156738e-01
-7.701165974140167236e-02
3.369260206818580627e-02
1.684630066156387329e-01
-2.551011145114898682e-01
-1.251439452171325684e-01
-1.877159178256988525e-01
-2.743540406227111816e-01
-2.454746663570404053e-01
4.813228547573089600e-02
-7.701165974140167236e-02
1.010778024792671204e-01
-2.743540406227111816e-01
3.706186115741729736e-01
-1.925291419029235840e-01
1.925291493535041809e-02
5.150154829025268555e-01
8.663811534643173218e-02
-3.417392373085021973e-01
2.021556049585342407e-01
-1.973423808813095093e-01
-1.203307211399078369e-01
1.925291419029235840e-01
1.058910340070724487e-01
3.802450597286224365e-01
-1.347704082727432251e-01
-2.021556049585342407e-01
-2.406614273786544800e-02
9.145134687423706055e-02
3.321127891540527344e-01
-1.732762306928634644e-01
-1.203307211399078369e-01
-3.224863111972808838e-01
-3.417392373085021973e-01
-3.994979858398437500e-01
-2.117820680141448975e-01
-2.936069667339324951e-01
7.219842821359634399e-02
5.294551700353622437e-02
2.743540406227111816e-01
3.609921634197235107e-01
-2.165952920913696289e-01
4.813228547573089600e-02
1.684630066156387329e-01
-1.395836323499679565e-01
-1.732762306928634644e-01
3.706186115741729736e-01
-2.695408165454864502e-01
2.695408165454864502e-01
7.219842821359634399e-02
8.182489126920700073e-02
3.465524613857269287e-01
-2.791672646999359131e-01
2.695408165454864502e-01
-2.984201908111572266e-01
1.347704082727432251e-01
-2.887937240302562714e-02
2.406614422798156738e-01
-1.443968620151281357e-02
-3.898715376853942871e-01
7.219842821359634399e-02
1.780894696712493896e-01
-5.775874480605125427e-02
-3.465524613857269287e-01
-5.775874480605125427e-02
7.701165974140167236e-02
3.369260206818580627e-02
1.684630066156387329e-01
-2.887937240302562714e-02
4.813228733837604523e-03
-8.182489126920700073e-02
1.684630066156387329e-01
3.369260206818580627e-02
2.069688290357589722e-01
-1.492100954055786133e-01
-1.443968620151281357e-02
2.936069667339324951e-01
1.443968620151281357e-02
-3.176730871200561523e-01
7.219842821359634399e-02
4.668831825256347656e-01
0.000000000000000000e+00
1.395836323499679565e-01
-2.502878904342651367e-01
-4.813228547573089600e-02
2.647275924682617188e-01
-2.021556049585342407e-01
-1.058910340070724487e-01
-1.155174896121025085e-01
-7.701165974140167236e-02
-8.663811534643173218e-02
3.321127891540527344e-01
1.443968620151281357e-02
-1.010778024792671204e-01
2.791672646999359131e-01
1.203307211399078369e-01
-1.443968564271926880e-01
3.128598630428314209e-01
-2.887937240302562714e-02
3.465524613857269287e-01
2.454746663570404053e-01
2.406614273786544800e-02
9.145134687423706055e-02
-1.588365435600280762e-01
-2.839804887771606445e-01
-2.791672646999359131e-01
1.492100954055786133e-01
2.310349792242050171e-01
8.663811534643173218e-02
-3.272995650768280029e-01
-1.155174896121025085e-01
-1.636497825384140015e-01
-1.732762306928634644e-01
2.791672646999359131e-01
-2.551011145114898682e-01
3.080466389656066895e-01
8.182489126920700073e-02
-1.395836323499679565e-01
-1.058910340070724487e-01
-1.925291419029235840e-01
-3.369260132312774658e-01
6.738520413637161255e-02
-3.128598630428314209e-01
-1.299571692943572998e-01
-7.701165974140167236e-02
-2.165952920913696289e-01
-2.791672646999359131e-01
2.358482033014297485e-01
2.406614422798156738e-01
3.321127891540527344e-01
1.829026937484741211e-01
1.058910340070724487e-01
3.032334148883819580e-01
2.310349792242050171e-01
-4.813228547573089600e-02
4.331905767321586609e-02
3.417392373085021973e-01
1.540233194828033447e-01
-2.069688290357589722e-01
1.973423808813095093e-01
2.358482033014297485e-01
-8.182489126920700073e-02
-3.513656854629516602e-01
-1.925291493535041809e-02
-1.732762306928634644e-01
3.658053874969482422e-01
-2.406614273786544800e-02
-2.695408165454864502e-01
1.203307211399078369e-01
1.443968564271926880e-01
1.347704082727432251e-01
2.214085161685943604e-01
-3.224863111972808838e-01
1.732762306928634644e-01
-1.732762306928634644e-01
1.636497825384140015e-01
-9.626457095146179199e-02
3.272995650768280029e-01
-8.663811534643173218e-02
-7.219842821359634399e-02
-2.647275924682617188e-01
1.925291419029235840e-01
-3.658053874969482422e-01
1.203307211399078369e-01
2.791672646999359131e-01
2.695408165454864502e-01
1.251439452171325684e-01
-6.257197260856628418e-02
1.395836323499679565e-01
9.626457095146179199e-02
-2.936069667339324951e-01
6.257197260856628418e-02
-3.272995650768280029e-01
1.877159178256988525e-01
3.850582838058471680e-01
-1.155174896121025085e-01
1.636497825384140015e-01
2.358482033014297485e-01
4.235641360282897949e-01
3.224863111972808838e-01
-2.214085161685943604e-01
1.540233194828033447e-01
-2.839804887771606445e-01
1.107042580842971802e-01
-2.165952920913696289e-01
-1.925291493535041809e-02
2.262217551469802856e-01
-2.502878904342651367e-01
-1.347704082727432251e-01
-5.775874480605125427e-02
2.021556049585342407e-01
9.626457467675209045e-03
3.128598630428314209e-01
-3.080466389656066895e-01
8.663811534643173218e-02
3.465524613857269287e-01
-2.887937240302562714e-02
-6.738520413637161255e-02
-1.058910340070724487e-01
2.117820680141448975e-01
7.701165974140167236e-02
9.145134687423706055e-02
6.738520413637161255e-02
-2.069688290357589722e-01
-3.080466389656066895e-01
-2.165952920913696289e-01
2.310349792242050171e-01
-2.069688290357589722e-01
-1.010778024792671204e-01
8.182489126920700073e-02
1.443968564271926880e-01
1.395836323499679565e-01
1.107042580842971802e-01
-2.117820680141448975e-01
-1.492100954055786133e-01
2.262217551469802856e-01
8.663811534643173218e-02
1.925291419029235840e-01
2.454746663570404053e-01
2.069688290357589722e-01
-2.069688290357589722e-01
-2.310349792242050171e-01
-9.145134687423706055e-02
-2.887937240302562714e-02
-4.813228547573089600e-02
-4.331905767321586609e-02
1.155174896121025085e-01
1.973423808813095093e-01
-2.310349792242050171e-01
1.684630066156387329e-01
-3.465524613857269287e-01
0.000000000000000000e+00
-2.117820680141448975e-01
2.310349792242050171e-01
-2.406614422798156738e-01
-1.540233194828033447e-01
9.626457095146179199e-02
2.695408165454864502e-01
2.984201908111572266e-01
-9.626457467675209045e-03
-2.358482033014297485e-01
-1.684630066156387329e-01
2.984201908111572266e-01
-4.139376580715179443e-01
1.251439452171325684e-01
-6.257197260856628418e-02
-4.813228733837604523e-03
-3.369260206818580627e-02
-7.701165974140167236e-02
-1.443968564271926880e-01
1.540233194828033447e-01
-3.850582987070083618e-02
2.406614273786544800e-02
3.176730871200561523e-01
8.182489126920700073e-02
-3.994979858398437500e-01
-2.021556049585342407e-01
2.502878904342651367e-01
1.058910340070724487e-01
4.813228733837604523e-03
-1.203307211399078369e-01
-3.321127891540527344e-01
3.561789393424987793e-01
-2.165952920913696289e-01
-2.165952920913696289e-01
1.203307211399078369e-01
2.069688290357589722e-01
-1.058910340070724487e-01
-3.032334148883819580e-01
-2.406614273786544800e-02
-4.813228547573089600e-02
-1.299571692943572998e-01
-3.321127891540527344e-01
2.406614422798156738e-01
-2.406614273786544800e-02
2.165952920913696289e-01
4.476302862167358398e-01
2.695408165454864502e-01
-9.626457095146179199e-02
-4.813228547573089600e-02
-3.417392373085021973e-01
-2.262217551469802856e-01
-3.369260206818580627e-02
4.331905767321586609e-02
-1.492100954055786133e-01
2.695408165454864502e-01
2.454746663570404053e-01
-2.406614273786544800e-02
3.561789393424987793e-01
4.091244339942932129e-01
-1.203307211399078369e-01
2.406614422798156738e-01
2.647275924682617188e-01
3.609921634197235107e-01
-1.492100954055786133e-01
2.214085161685943604e-01
1.203307211399078369e-01
2.358482033014297485e-01
-3.369260206818580627e-02
-1.588365435600280762e-01
-1.925291493535041809e-02
-2.310349792242050171e-01
-4.813228547573089600e-02
3.850582987070083618e-02
-3.272995650768280029e-01
1.251439452171325684e-01
-2.069688290357589722e-01
2.117820680141448975e-01
-3.706186115741729736e-01
2.406614273786544800e-02
2.310349792242050171e-01
-3.513656854629516602e-01
-4.283773601055145264e-01
-2.310349792242050171e-01
-1.155174896121025085e-01
-9.626457095146179199e-02
3.609921634197235107e-01
-1.732762306928634644e-01
1.925291419029235840e-01
-2.984201908111572266e-01
-2.165952920913696289e-01
-2.887937128543853760e-01
-2.743540406227111816e-01
-2.647275924682617188e-01
-2.406614273786544800e-02
2.502878904342651367e-01
3.369260206818580627e-02
1.299571692943572998e-01
3.706186115741729736e-01
-1.010778024792671204e-01
3.032334148883819580e-01
-2.117820680141448975e-01
-8.182489126920700073e-02
-2.936069667339324951e-01
-2.743540406227111816e-01
-1.877159178256988525e-01
-2.791672646999359131e-01
3.850582838058471680e-01
7.219842821359634399e-02
1.588365435600280762e-01
-2.406614273786544800e-02
2.021556049585342407e-01
-1.058910340070724487e-01
-3.513656854629516602e-01
1.443968620151281357e-02
2.069688290357589722e-01
-7.219842821359634399e-02
4.331905767321586609e-02
1.443968564271926880e-01
1.251439452171325684e-01
-2.743540406227111816e-01
-1.299571692943572998e-01
-9.626457467675209045e-03
3.224863111972808838e-01
5.053890347480773926e-01
-1.492100954055786133e-01
-8.182489126920700073e-02
3.994979858398437500e-01
-2.406614273786544800e-02
-1.877159178256988525e-01
-2.406614422798156738e-01
2.310349792242050171e-01
1.155174896121025085e-01
1.973423808813095093e-01
-1.732762306928634644e-01
-5.294551700353622437e-02
-4.813228547573089600e-02
3.272995650768280029e-01
-2.791672646999359131e-01
1.155174896121025085e-01
-2.647275924682617188e-01
-8.663811534643173218e-02
1.588365435600280762e-01
-1.203307211399078369e-01
-2.695408165454864502e-01
-9.626457467675209045e-03
1.395836323499679565e-01
2.936069667339324951e-01
-3.994979858398437500e-01
1.540233194828033447e-01
-1.684630066156387329e-01
1.010778024792671204e-01
-2.743540406227111816e-01
1.588365435600280762e-01
-3.417392373085021973e-01
-1.732762306928634644e-01
-2.887937128543853760e-01
1.492100954055786133e-01
-2.406614273786544800e-02
-2.551011145114898682e-01
-5.294551700353622437e-02
2.839804887771606445e-01
-2.551011145114898682e-01
2.791672646999359131e-01
2.454746663570404053e-01
-9.626457467675209045e-03
-2.214085161685943604e-01
1.251439452171325684e-01
1.010778024792671204e-01
-1.395836323499679565e-01
-2.310349792242050171e-01
-3.080466389656066895e-01
-1.299571692943572998e-01
4.813228547573089600e-02
3.128598630428314209e-01
2.310349792242050171e-01
3.128598630428314209e-01
4.813228547573089600e-02
2.551011145114898682e-01
-7.701165974140167236e-02
-1.299571692943572998e-01
2.647275924682617188e-01
2.502878904342651367e-01
-1.299571692943572998e-01
-5.775874480605125427e-02
-4.476302862167358398e-01
4.813228733837604523e-03
-1.780894696712493896e-01
0.000000000000000000e+00
-1.492100954055786133e-01
-1.492100954055786133e-01
3.369260132312774658e-01
