-2.252752631902694702e-01
2.446955442428588867e-01
7.768112421035766602e-02
-2.058549821376800537e-01
1.786665916442871094e-01
-1.048695221543312073e-01
2.718839421868324280e-02
-3.107245080173015594e-02
-6.214490160346031189e-02
-2.252752631902694702e-01
-2.019709348678588867e-01
1.747825294733047485e-01
-1.009854674339294434e-01
3.573331832885742188e-01
4.893910884857177734e-01
7.379706948995590210e-02
-2.485796064138412476e-01
1.281738579273223877e-01
1.864347010850906372e-01
-2.990723252296447754e-01
1.048695221543312073e-01
1.670144200325012207e-01
4.000577926635742188e-01
-1.242898032069206238e-01
-1.009854674339294434e-01
6.602896004915237427e-02
-6.991301476955413818e-02
-2.485796064138412476e-01
-2.524636685848236084e-01
1.864347010850906372e-01
-4.272462055087089539e-02
1.670144200325012207e-01
1.942028105258941650e-02
1.553622484207153320e-01
1.126376315951347351e-01
5.826084688305854797e-02
1.437100917100906372e-01
-2.097390443086624146e-01
1.942028105258941650e-01
-3.107244968414306641e-01
-4.660867750644683838e-01
0.000000000000000000e+00
1.553622540086507797e-02
2.175071537494659424e-01
-1.553622484207153320e-01
-1.786665916442871094e-01
3.107244968414306641e-01
-1.048695221543312073e-01
2.757680118083953857e-01
1.825506538152694702e-01
-2.913042306900024414e-01
1.553622484207153320e-01
1.747825294733047485e-01
-1.980868726968765259e-01
-8.544924110174179077e-02
9.710140526294708252e-02
1.864347010850906372e-01
-1.864347010850906372e-01
-6.602896004915237427e-02
3.340288400650024414e-01
-9.321735054254531860e-02
3.184926211833953857e-01
3.223766684532165527e-01
-1.942028105258941650e-01
-3.184926211833953857e-01
2.951882779598236084e-01
1.009854674339294434e-01
2.990723252296447754e-01
-5.826084688305854797e-02
1.398260295391082764e-01
1.747825294733047485e-01
1.825506538152694702e-01
-2.757680118083953857e-01
-1.165216881781816483e-02
1.281738579273223877e-01
2.252752631902694702e-01
7.768112421035766602e-02
-4.039418697357177734e-01
-1.631303727626800537e-01
-3.107244968414306641e-01
-3.884056210517883301e-02
2.446955442428588867e-01
-2.252752631902694702e-01
2.252752631902694702e-01
-2.757680118083953857e-01
-4.078259170055389404e-01
-9.321735054254531860e-02
2.446955442428588867e-01
3.107244968414306641e-01
-2.485796064138412476e-01
1.242898032069206238e-01
2.757680118083953857e-01
2.485796064138412476e-01
5.826084688305854797e-02
1.359419673681259155e-01
2.097390443086624146e-01
-4.272462055087089539e-02
-3.495650589466094971e-01
-3.301447927951812744e-01
-1.786665916442871094e-01
-4.660867527127265930e-02
-1.514782011508941650e-01
1.204057484865188599e-01
1.670144200325012207e-01
-1.165216881781816483e-02
1.475941389799118042e-01
1.670144200325012207e-01
2.252752631902694702e-01
1.087535768747329712e-01
-1.320579200983047485e-01
2.874201834201812744e-01
-5.049273371696472168e-02
-1.942028105258941650e-02
-1.903187632560729980e-01
-2.058549821376800537e-01
-2.602317631244659424e-01
-1.553622484207153320e-01
1.747825294733047485e-01
-1.825506538152694702e-01
-1.631303727626800537e-01
1.087535768747329712e-01
1.204057484865188599e-01
2.951882779598236084e-01
-1.320579200983047485e-01
5.437678843736648560e-02
-2.446955442428588867e-01
-1.281738579273223877e-01
-3.029564023017883301e-01
-1.320579200983047485e-01
-2.330433875322341919e-01
2.330433763563632965e-02
-3.884056210517883301e-02
1.126376315951347351e-01
4.233621358871459961e-01
4.233621358871459961e-01
2.718839347362518311e-01
1.048695221543312073e-01
-3.689853549003601074e-01
3.146085739135742188e-01
3.107245080173015594e-02
7.768112700432538986e-03
-1.708984822034835815e-01
-1.165216881781816483e-02
-2.874201834201812744e-01
3.068404495716094971e-01
-2.408114969730377197e-01
-2.369274348020553589e-01
1.942028105258941650e-02
-2.408114969730377197e-01
1.631303727626800537e-01
-1.009854674339294434e-01
-1.359419673681259155e-01
1.242898032069206238e-01
2.835361063480377197e-01
-1.825506538152694702e-01
1.398260295391082764e-01
2.563477158546447754e-01
3.379129171371459961e-01
-2.602317631244659424e-01
-1.942028105258941650e-02
-1.864347010850906372e-01
3.456810116767883301e-01
-1.942028105258941650e-01
1.281738579273223877e-01
-3.884056210517883301e-02
-8.544924110174179077e-02
-7.379706948995590210e-02
-8.156518638134002686e-02
2.097390443086624146e-01
0.000000000000000000e+00
6.214490160346031189e-02
-3.301447927951812744e-01
3.223766684532165527e-01
4.117099642753601074e-01
2.990723252296447754e-01
4.000577926635742188e-01
-9.710140526294708252e-02
-1.514782011508941650e-01
2.835361063480377197e-01
-1.242898032069206238e-01
2.913042306900024414e-01
-2.369274348020553589e-01
-3.184926211833953857e-01
2.330433875322341919e-01
-9.321735054254531860e-02
-7.768112421035766602e-02
2.990723252296447754e-01
3.301447927951812744e-01
2.485796064138412476e-01
-4.272462055087089539e-02
-2.951882779598236084e-01
3.845215737819671631e-01
-1.359419673681259155e-01
-1.437100917100906372e-01
5.049273371696472168e-02
-2.913042306900024414e-01
2.485796064138412476e-01
2.330433875322341919e-01
-2.990723252296447754e-01
-3.767534792423248291e-01
-8.156518638134002686e-02
1.165216937661170959e-01
7.768112700432538986e-03
-2.097390443086624146e-01
8.544924110174179077e-02
-2.796520590782165527e-01
-2.757680118083953857e-01
-1.553622484207153320e-01
3.340288400650024414e-01
2.563477158546447754e-01
-1.553622484207153320e-01
-1.942028105258941650e-02
1.204057484865188599e-01
-3.495650738477706909e-02
-2.252752631902694702e-01
2.097390443086624146e-01
2.446955442428588867e-01
-3.884056210517883301e-02
-3.884056350216269493e-03
4.932751655578613281e-01
3.806375265121459961e-01
-2.058549821376800537e-01
3.961737453937530518e-01
1.204057484865188599e-01
-1.825506538152694702e-01
1.903187632560729980e-01
-2.563477158546447754e-01
2.796520590782165527e-01
-2.175071537494659424e-01
2.524636685848236084e-01
2.019709348678588867e-01
-1.553622540086507797e-02
3.029564023017883301e-01
-1.708984822034835815e-01
-1.942028105258941650e-02
-2.369274348020553589e-01
1.553622540086507797e-02
-9.321735054254531860e-02
1.553622540086507797e-02
7.768112700432538986e-03
6.214490160346031189e-02
3.728694021701812744e-01
1.398260295391082764e-01
-1.631303727626800537e-01
-1.747825294733047485e-01
-3.495650589466094971e-01
2.524636685848236084e-01
-7.379706948995590210e-02
1.204057484865188599e-01
7.768112421035766602e-02
-1.670144200325012207e-01
2.446955442428588867e-01
2.563477158546447754e-01
1.087535768747329712e-01
-1.398260295391082764e-01
-1.553622540086507797e-02
-8.933329582214355469e-02
-3.495650589466094971e-01
3.884056350216269493e-03
-7.768112700432538986e-03
7.768112700432538986e-03
1.126376315951347351e-01
-3.107245080173015594e-02
-1.281738579273223877e-01
-1.126376315951347351e-01
-2.602317631244659424e-01
2.990723252296447754e-01
6.602896004915237427e-02
3.417969644069671631e-01
-1.281738579273223877e-01
-8.156518638134002686e-02
-2.679998874664306641e-01
-2.602317631244659424e-01
1.514782011508941650e-01
-3.884056210517883301e-01
-1.204057484865188599e-01
2.291593253612518311e-01
2.408114969730377197e-01
1.553622540086507797e-02
-8.933329582214355469e-02
5.826084688305854797e-02
-4.660867527127265930e-02
-4.660867527127265930e-02
1.087535768747329712e-01
-2.913042306900024414e-01
-1.359419673681259155e-01
1.165216937661170959e-01
-1.592463105916976929e-01
