9.590705856680870056e-03
-5.946237593889236450e-02
2.685397677123546600e-02
7.864378392696380615e-02
2.109955251216888428e-02
7.097122073173522949e-02
7.480750232934951782e-02
-4.603538662195205688e-02
7.864378392696380615e-02
-8.248007297515869141e-02
-9.398891776800155640e-02
1.342698838561773300e-02
4.603538662195205688e-02
5.370795354247093201e-02
-6.138051673769950867e-02
-1.016614809632301331e-01
6.713493913412094116e-02
5.754423514008522034e-02
3.069025836884975433e-02
1.918141171336174011e-02
-8.248007297515869141e-02
4.411724582314491272e-02
7.097122073173522949e-02
8.248007297515869141e-02
8.631635457277297974e-02
5.754423327744007111e-03
1.918141171336174011e-02
5.946237593889236450e-02
-8.248007297515869141e-02
7.672564592212438583e-03
1.457787305116653442e-01
1.918141148053109646e-03
-3.069025836884975433e-02
-1.918141171336174011e-02
-1.534512918442487717e-02
1.150884665548801422e-02
-3.452654182910919189e-02
2.301769331097602844e-02
5.754423327744007111e-03
9.590705856680870056e-03
-7.480750232934951782e-02
-5.754423327744007111e-03
-3.452654182910919189e-02
5.370795354247093201e-02
9.974333643913269043e-02
-2.877211757004261017e-02
1.534512918442487717e-02
-2.109955251216888428e-02
2.493583410978317261e-02
1.150884665548801422e-02
1.342698838561773300e-02
-7.864378392696380615e-02
-3.260840103030204773e-02
-7.480750232934951782e-02
-2.877211757004261017e-02
4.987166821956634521e-02
-1.016614809632301331e-01
-1.342698838561773300e-02
3.836282342672348022e-02
1.726327091455459595e-02
7.672564592212438583e-03
7.288936525583267212e-02
-1.726327091455459595e-02
-1.131703257560729980e-01
7.672564592212438583e-03
-7.672564592212438583e-03
1.342698782682418823e-01
-1.131703257560729980e-01
3.452654182910919189e-02
-1.150884665548801422e-02
-6.713493913412094116e-02
9.590705856680870056e-03
5.562609434127807617e-02
9.590705856680870056e-03
-8.631635457277297974e-02
1.150884665548801422e-02
1.726327091455459595e-02
-5.370795354247093201e-02
-2.685397677123546600e-02
-8.248007297515869141e-02
-2.493583410978317261e-02
9.782519936561584473e-02
1.150884665548801422e-02
-3.836282342672348022e-02
-8.248007297515869141e-02
-7.672564592212438583e-03
-3.260840103030204773e-02
-6.521680206060409546e-02
-5.178981274366378784e-02
1.534512918442487717e-02
4.795352742075920105e-02
-7.672564685344696045e-02
2.109955251216888428e-02
-1.150884665548801422e-02
1.534512918442487717e-02
-4.603538662195205688e-02
1.035796254873275757e-01
4.603538662195205688e-02
-1.150884665548801422e-02
4.028096422553062439e-02
-9.207077324390411377e-02
-7.672564592212438583e-03
2.301769331097602844e-02
3.836282296106219292e-03
5.178981274366378784e-02
-2.109955251216888428e-02
-9.974333643913269043e-02
-7.288936525583267212e-02
-6.713493913412094116e-02
7.672564685344696045e-02
-1.189247518777847290e-01
-5.562609434127807617e-02
-7.288936525583267212e-02
9.398891776800155640e-02
9.590705856680870056e-03
4.028096422553062439e-02
-5.370795354247093201e-02
3.836282342672348022e-02
-1.208428889513015747e-01
6.521680206060409546e-02
3.836282342672348022e-02
6.521680206060409546e-02
-2.109955251216888428e-02
-9.590705484151840210e-02
4.219910502433776855e-02
-1.342698838561773300e-02
4.795352742075920105e-02
7.672564592212438583e-03
7.672564685344696045e-02
-1.150884665548801422e-02
-3.836282342672348022e-02
5.754423327744007111e-03
7.480750232934951782e-02
-1.342698838561773300e-02
7.864378392696380615e-02
-4.028096422553062439e-02
-7.097122073173522949e-02
5.754423514008522034e-02
1.054977625608444214e-01
1.534512918442487717e-02
9.974333643913269043e-02
-1.918141148053109646e-03
-6.329865753650665283e-02
2.493583410978317261e-02
1.150884665548801422e-02
2.877211757004261017e-02
9.398891776800155640e-02
5.946237593889236450e-02
2.493583410978317261e-02
9.590705856680870056e-03
-3.069025836884975433e-02
9.974333643913269043e-02
-9.590705856680870056e-03
-1.227610334753990173e-01
-4.795352742075920105e-02
-2.493583410978317261e-02
0.000000000000000000e+00
-4.028096422553062439e-02
1.170066073536872864e-01
-3.069025836884975433e-02
3.836282342672348022e-02
4.028096422553062439e-02
-6.905308365821838379e-02
3.836282296106219292e-03
5.754423327744007111e-03
4.603538662195205688e-02
7.672564592212438583e-03
6.713493913412094116e-02
-1.150884665548801422e-02
2.493583410978317261e-02
1.150884665548801422e-02
-8.439821004867553711e-02
1.342698838561773300e-02
-8.823449164628982544e-02
-2.493583410978317261e-02
0.000000000000000000e+00
9.590705856680870056e-03
9.590705856680870056e-03
-3.069025836884975433e-02
-1.150884665548801422e-02
9.015263617038726807e-02
-8.631635457277297974e-02
5.178981274366378784e-02
-1.285154521465301514e-01
-7.672564685344696045e-02
9.590705856680870056e-03
4.028096422553062439e-02
8.439821004867553711e-02
-5.562609434127807617e-02
-1.342698838561773300e-02
1.150884665548801422e-02
-3.836282296106219292e-03
6.713493913412094116e-02
1.918141171336174011e-02
4.987166821956634521e-02
1.189247518777847290e-01
-8.056192845106124878e-02
4.219910502433776855e-02
-6.138051673769950867e-02
3.836282342672348022e-02
-5.754423327744007111e-03
-9.590705856680870056e-03
-2.685397677123546600e-02
-7.672564592212438583e-03
-1.918141171336174011e-02
2.685397677123546600e-02
-5.754423514008522034e-02
9.590705856680870056e-03
7.672564685344696045e-02
-2.685397677123546600e-02
3.644468262791633606e-02
7.288936525583267212e-02
1.534512918442487717e-02
-6.138051673769950867e-02
-5.754423514008522034e-02
-2.877211757004261017e-02
-4.603538662195205688e-02
6.521680206060409546e-02
-4.028096422553062439e-02
5.178981274366378784e-02
-7.864378392696380615e-02
8.056192845106124878e-02
-4.028096422553062439e-02
4.411724582314491272e-02
2.109955251216888428e-02
4.795352742075920105e-02
1.054977625608444214e-01
1.534512918442487717e-02
-1.918141171336174011e-02
5.946237593889236450e-02
4.028096422553062439e-02
1.016614809632301331e-01
-3.452654182910919189e-02
9.207077324390411377e-02
-1.035796254873275757e-01
-6.713493913412094116e-02
2.493583410978317261e-02
-7.288936525583267212e-02
-1.150884665548801422e-02
-9.590705856680870056e-03
-1.918141148053109646e-03
-1.016614809632301331e-01
-2.877211757004261017e-02
-5.754423327744007111e-03
1.150884665548801422e-02
1.246791779994964600e-01
3.644468262791633606e-02
-5.946237593889236450e-02
7.288936525583267212e-02
-1.342698838561773300e-02
-1.726327091455459595e-02
4.603538662195205688e-02
9.782519936561584473e-02
-1.918141171336174011e-02
3.452654182910919189e-02
7.097122073173522949e-02
9.782519936561584473e-02
6.329865753650665283e-02
-9.015263617038726807e-02
5.370795354247093201e-02
9.207077324390411377e-02
1.342698838561773300e-02
-9.590705856680870056e-03
-2.877211757004261017e-02
-1.381061673164367676e-01
-2.685397677123546600e-02
1.150884665548801422e-02
6.138051673769950867e-02
-5.946237593889236450e-02
-7.672564685344696045e-02
5.562609434127807617e-02
-7.480750232934951782e-02
-1.534512918442487717e-02
5.754423327744007111e-03
6.905308365821838379e-02
-1.150884665548801422e-02
4.219910502433776855e-02
1.016614809632301331e-01
4.219910502433776855e-02
4.028096422553062439e-02
1.918141171336174011e-02
-1.457787305116653442e-01
-1.285154521465301514e-01
-1.726327091455459595e-02
2.685397677123546600e-02
-1.534512918442487717e-02
4.603538662195205688e-02
-5.562609434127807617e-02
-4.219910502433776855e-02
9.207077324390411377e-02
7.672564685344696045e-02
-6.138051673769950867e-02
8.631635457277297974e-02
-6.138051673769950867e-02
-1.342698838561773300e-02
1.342698838561773300e-02
9.590705856680870056e-03
1.342698838561773300e-02
1.918141171336174011e-02
-2.109955251216888428e-02
-6.905308365821838379e-02
4.028096422553062439e-02
-4.411724582314491272e-02
6.521680206060409546e-02
-6.713493913412094116e-02
-9.590705484151840210e-02
7.864378392696380615e-02
1.726327091455459595e-02
8.248007297515869141e-02
-5.754423514008522034e-02
4.987166821956634521e-02
9.590705484151840210e-02
5.754423327744007111e-03
-1.534512918442487717e-02
1.726327091455459595e-01
-4.411724582314491272e-02
-1.534512918442487717e-02
-3.836282296106219292e-03
9.398891776800155640e-02
2.109955251216888428e-02
7.672564592212438583e-03
-8.823449164628982544e-02
9.590705484151840210e-02
4.603538662195205688e-02
9.974333643913269043e-02
6.138051673769950867e-02
1.265973150730133057e-01
9.590705856680870056e-03
5.754423514008522034e-02
3.069025836884975433e-02
6.329865753650665283e-02
-4.603538662195205688e-02
-9.590705856680870056e-03
7.672564685344696045e-02
3.260840103030204773e-02
6.713493913412094116e-02
-7.672564685344696045e-02
-1.918141171336174011e-02
-3.260840103030204773e-02
7.672564592212438583e-03
-1.342698838561773300e-02
-4.987166821956634521e-02
-3.836282296106219292e-03
1.534512918442487717e-02
-2.109955251216888428e-02
-6.905308365821838379e-02
8.823449164628982544e-02
2.109955251216888428e-02
-4.219910502433776855e-02
5.754423327744007111e-03
-3.069025836884975433e-02
4.028096422553062439e-02
5.754423514008522034e-02
-3.836282342672348022e-02
4.219910502433776855e-02
1.170066073536872864e-01
-1.726327091455459595e-02
7.672564592212438583e-03
7.864378392696380615e-02
1.726327091455459595e-02
-9.015263617038726807e-02
-3.644468262791633606e-02
3.644468262791633606e-02
5.178981274366378784e-02
1.918141148053109646e-03
-1.381061673164367676e-01
4.987166821956634521e-02
6.905308365821838379e-02
-5.178981274366378784e-02
-7.288936525583267212e-02
2.685397677123546600e-02
1.726327091455459595e-02
7.288936525583267212e-02
1.035796254873275757e-01
4.795352742075920105e-02
-4.795352742075920105e-02
1.208428889513015747e-01
-1.131703257560729980e-01
-6.905308365821838379e-02
1.918141171336174011e-02
-3.452654182910919189e-02
3.836282296106219292e-03
4.219910502433776855e-02
-5.370795354247093201e-02
-3.644468262791633606e-02
9.590705484151840210e-02
1.285154521465301514e-01
-4.795352742075920105e-02
-1.285154521465301514e-01
7.672564592212438583e-03
-6.521680206060409546e-02
7.097122073173522949e-02
3.836282296106219292e-03
3.069025836884975433e-02
0.000000000000000000e+00
-7.097122073173522949e-02
-1.170066073536872864e-01
7.864378392696380615e-02
1.918141148053109646e-03
-9.590705856680870056e-03
-9.782519936561584473e-02
2.493583410978317261e-02
-2.109955251216888428e-02
2.493583410978317261e-02
-8.056192845106124878e-02
2.301769331097602844e-02
1.476968675851821899e-01
4.219910502433776855e-02
-3.260840103030204773e-02
8.439821004867553711e-02
-3.069025836884975433e-02
1.726327091455459595e-02
1.342698838561773300e-02
9.590705856680870056e-03
-1.918141148053109646e-03
-9.398891776800155640e-02
1.074159070849418640e-01
-1.342698838561773300e-02
3.644468262791633606e-02
-6.329865753650665283e-02
-4.028096422553062439e-02
1.150884702801704407e-01
1.534512918442487717e-02
9.590705856680870056e-03
-2.685397677123546600e-02
-1.150884665548801422e-02
4.219910502433776855e-02
1.534512918442487717e-02
-1.726327091455459595e-02
2.109955251216888428e-02
-1.534512918442487717e-02
7.288936525583267212e-02
-8.056192845106124878e-02
-3.836282296106219292e-03
1.726327091455459595e-02
-7.672564685344696045e-02
7.480750232934951782e-02
-5.946237593889236450e-02
-3.644468262791633606e-02
4.987166821956634521e-02
-2.301769331097602844e-02
1.170066073536872864e-01
8.631635457277297974e-02
-4.028096422553062439e-02
-5.178981274366378784e-02
5.754423327744007111e-03
5.754423327744007111e-03
9.590705484151840210e-02
-2.301769331097602844e-02
-8.439821004867553711e-02
-7.864378392696380615e-02
6.329865753650665283e-02
7.864378392696380615e-02
-4.987166821956634521e-02
4.411724582314491272e-02
-1.054977625608444214e-01
-3.836282296106219292e-03
7.672564592212438583e-03
-1.054977625608444214e-01
7.672564592212438583e-03
5.178981274366378784e-02
1.342698838561773300e-02
1.074159070849418640e-01
1.035796254873275757e-01
3.644468262791633606e-02
-4.219910502433776855e-02
-8.056192845106124878e-02
-4.603538662195205688e-02
1.054977625608444214e-01
4.411724582314491272e-02
1.534512918442487717e-02
1.342698838561773300e-02
-1.726327091455459595e-02
6.713493913412094116e-02
1.726327091455459595e-02
-1.726327091455459595e-02
1.726327091455459595e-02
-7.672564685344696045e-02
4.411724582314491272e-02
1.534512918442487717e-02
6.905308365821838379e-02
-1.016614809632301331e-01
5.370795354247093201e-02
1.170066073536872864e-01
3.069025836884975433e-02
3.260840103030204773e-02
-1.918141148053109646e-03
6.521680206060409546e-02
1.918141148053109646e-03
2.301769331097602844e-02
-3.452654182910919189e-02
-7.097122073173522949e-02
0.000000000000000000e+00
1.035796254873275757e-01
3.069025836884975433e-02
9.398891776800155640e-02
2.301769331097602844e-02
9.590705856680870056e-03
7.480750232934951782e-02
5.754423514008522034e-02
3.836282296106219292e-03
8.248007297515869141e-02
5.754423514008522034e-02
6.138051673769950867e-02
5.946237593889236450e-02
-1.457787305116653442e-01
1.918141171336174011e-02
-1.016614809632301331e-01
2.301769331097602844e-02
3.069025836884975433e-02
1.016614809632301331e-01
1.726327091455459595e-02
7.864378392696380615e-02
1.074159070849418640e-01
-4.028096422553062439e-02
-5.178981274366378784e-02
5.754423514008522034e-02
4.795352742075920105e-02
5.562609434127807617e-02
-3.644468262791633606e-02
2.301769331097602844e-02
0.000000000000000000e+00
-7.672564592212438583e-03
-7.288936525583267212e-02
5.754423327744007111e-03
-2.493583410978317261e-02
4.987166821956634521e-02
-3.836282296106219292e-03
7.672564592212438583e-03
-4.987166821956634521e-02
6.905308365821838379e-02
-1.918141148053109646e-03
-1.726327091455459595e-02
1.496150046586990356e-01
8.439821004867553711e-02
1.783871203660964966e-01
-4.795352742075920105e-02
-1.534512918442487717e-02
-9.398891776800155640e-02
3.836282342672348022e-02
4.795352742075920105e-02
-4.411724582314491272e-02
-9.207077324390411377e-02
4.987166821956634521e-02
-2.493583410978317261e-02
8.439821004867553711e-02
-1.265973150730133057e-01
-4.603538662195205688e-02
3.069025836884975433e-02
-6.521680206060409546e-02
6.521680206060409546e-02
-4.603538662195205688e-02
7.480750232934951782e-02
4.028096422553062439e-02
8.631635457277297974e-02
-7.864378392696380615e-02
2.685397677123546600e-02
4.219910502433776855e-02
6.713493913412094116e-02
-9.207077324390411377e-02
-5.946237593889236450e-02
-1.438605934381484985e-01
-5.754423327744007111e-03
2.685397677123546600e-02
-1.918141171336174011e-02
-7.672564592212438583e-03
1.131703257560729980e-01
8.248007297515869141e-02
3.452654182910919189e-02
2.109955251216888428e-02
4.603538662195205688e-02
-3.644468262791633606e-02
-4.795352742075920105e-02
-8.248007297515869141e-02
4.987166821956634521e-02
5.754423327744007111e-03
-6.905308365821838379e-02
-9.398891776800155640e-02
-5.946237593889236450e-02
-2.877211757004261017e-02
7.097122073173522949e-02
-2.877211757004261017e-02
-5.754423514008522034e-02
2.685397677123546600e-02
9.590705484151840210e-02
-1.534512918442487717e-02
-2.109955251216888428e-02
3.644468262791633606e-02
-2.877211757004261017e-02
-5.562609434127807617e-02
0.000000000000000000e+00
3.644468262791633606e-02
3.069025836884975433e-02
-2.685397677123546600e-02
1.783871203660964966e-01
2.301769331097602844e-02
6.521680206060409546e-02
1.918141148053109646e-03
2.685397677123546600e-02
3.836282296106219292e-03
1.035796254873275757e-01
-6.138051673769950867e-02
-1.342698838561773300e-02
-1.131703257560729980e-01
-1.150884665548801422e-02
9.590705856680870056e-03
1.918141148053109646e-03
5.562609434127807617e-02
2.685397677123546600e-02
-2.301769331097602844e-02
1.515331566333770752e-01
-5.562609434127807617e-02
-9.974333643913269043e-02
2.877211757004261017e-02
-6.138051673769950867e-02
-6.521680206060409546e-02
-1.400243043899536133e-01
-1.918141148053109646e-03
-1.342698838561773300e-02
1.534512918442487717e-02
7.480750232934951782e-02
-9.590705484151840210e-02
-1.726327091455459595e-02
1.016614809632301331e-01
-9.398891776800155640e-02
-2.877211757004261017e-02
-7.480750232934951782e-02
4.411724582314491272e-02
5.754423327744007111e-03
6.329865753650665283e-02
-6.329865753650665283e-02
1.093340441584587097e-01
-5.754423514008522034e-02
-9.590705484151840210e-02
3.836282342672348022e-02
-7.480750232934951782e-02
-1.918141148053109646e-03
8.439821004867553711e-02
3.452654182910919189e-02
-4.603538662195205688e-02
-4.987166821956634521e-02
-5.178981274366378784e-02
-3.836282342672348022e-02
-4.795352742075920105e-02
-1.093340441584587097e-01
-2.109955251216888428e-02
-9.974333643913269043e-02
1.342698838561773300e-02
1.918141148053109646e-03
-5.370795354247093201e-02
5.178981274366378784e-02
-1.534512918442487717e-02
-7.864378392696380615e-02
1.304336041212081909e-01
2.685397677123546600e-02
-5.562609434127807617e-02
-8.631635457277297974e-02
5.754423327744007111e-03
5.754423514008522034e-02
-3.452654182910919189e-02
5.754423514008522034e-02
5.946237593889236450e-02
9.398891776800155640e-02
1.285154521465301514e-01
4.219910502433776855e-02
1.035796254873275757e-01
-6.521680206060409546e-02
-2.493583410978317261e-02
-1.918141148053109646e-03
-1.611238569021224976e-01
3.644468262791633606e-02
-1.726327091455459595e-02
-3.452654182910919189e-02
4.219910502433776855e-02
3.069025836884975433e-02
1.342698838561773300e-02
1.534512918442487717e-02
8.631635457277297974e-02
1.342698782682418823e-01
1.361880153417587280e-01
-3.644468262791633606e-02
5.754423327744007111e-03
1.150884665548801422e-02
5.562609434127807617e-02
-1.918141171336174011e-02
1.918141148053109646e-03
-2.493583410978317261e-02
-6.521680206060409546e-02
-3.644468262791633606e-02
1.726327091455459595e-01
-1.342698838561773300e-02
-6.713493913412094116e-02
-2.685397677123546600e-02
-6.138051673769950867e-02
6.905308365821838379e-02
-7.097122073173522949e-02
-1.381061673164367676e-01
4.795352742075920105e-02
4.028096422553062439e-02
2.685397677123546600e-02
7.672564592212438583e-03
3.836282342672348022e-02
-1.150884665548801422e-02
-4.219910502433776855e-02
-1.534512918442487717e-02
1.534512918442487717e-02
-4.603538662195205688e-02
-4.795352742075920105e-02
-6.521680206060409546e-02
-9.207077324390411377e-02
-2.877211757004261017e-02
6.329865753650665283e-02
-1.342698838561773300e-02
3.836282296106219292e-03
-6.905308365821838379e-02
-7.864378392696380615e-02
6.905308365821838379e-02
-5.370795354247093201e-02
6.329865753650665283e-02
3.836282296106219292e-03
1.342698838561773300e-02
1.342698838561773300e-02
2.685397677123546600e-02
-1.150884665548801422e-02
2.877211757004261017e-02
-1.534512918442487717e-02
-7.097122073173522949e-02
1.150884665548801422e-02
-1.726327091455459595e-02
3.452654182910919189e-02
-5.754423327744007111e-03
1.170066073536872864e-01
-7.288936525583267212e-02
9.590705856680870056e-03
7.480750232934951782e-02
-6.905308365821838379e-02
4.987166821956634521e-02
-3.644468262791633606e-02
9.782519936561584473e-02
-2.109955251216888428e-02
5.754423514008522034e-02
-8.631635457277297974e-02
-1.112521886825561523e-01
7.672564592212438583e-03
-8.823449164628982544e-02
-3.260840103030204773e-02
-2.877211757004261017e-02
-4.987166821956634521e-02
-9.590705856680870056e-03
2.493583410978317261e-02
1.189247518777847290e-01
9.590705856680870056e-03
5.562609434127807617e-02
3.836282342672348022e-02
-7.288936525583267212e-02
-5.754423327744007111e-03
4.795352742075920105e-02
-9.015263617038726807e-02
7.864378392696380615e-02
-4.411724582314491272e-02
-5.754423327744007111e-03
2.301769331097602844e-02
3.452654182910919189e-02
2.493583410978317261e-02
9.015263617038726807e-02
3.836282296106219292e-03
1.342698838561773300e-02
3.069025836884975433e-02
6.138051673769950867e-02
-1.150884665548801422e-02
-9.782519936561584473e-02
2.301769331097602844e-02
-6.329865753650665283e-02
-5.946237593889236450e-02
-1.054977625608444214e-01
4.603538662195205688e-02
2.109955251216888428e-02
-8.248007297515869141e-02
-1.361880153417587280e-01
-1.918141171336174011e-02
-9.207077324390411377e-02
-3.836282296106219292e-03
3.644468262791633606e-02
8.056192845106124878e-02
-9.590705484151840210e-02
8.056192845106124878e-02
-8.823449164628982544e-02
-4.219910502433776855e-02
4.028096422553062439e-02
8.248007297515869141e-02
-7.097122073173522949e-02
-9.207077324390411377e-02
4.411724582314491272e-02
-7.288936525583267212e-02
9.782519936561584473e-02
2.877211757004261017e-02
1.534512937068939209e-01
2.109955251216888428e-02
3.644468262791633606e-02
-1.112521886825561523e-01
-5.562609434127807617e-02
-1.457787305116653442e-01
-5.754423327744007111e-03
8.248007297515869141e-02
3.452654182910919189e-02
-6.138051673769950867e-02
-6.713493913412094116e-02
-2.493583410978317261e-02
1.726327091455459595e-02
-7.864378392696380615e-02
7.672564685344696045e-02
1.150884665548801422e-02
-3.069025836884975433e-02
-2.109955251216888428e-02
-6.138051673769950867e-02
4.219910502433776855e-02
-2.301769331097602844e-02
-3.260840103030204773e-02
1.112521886825561523e-01
1.131703257560729980e-01
4.411724582314491272e-02
-6.329865753650665283e-02
-5.754423514008522034e-02
7.480750232934951782e-02
-6.138051673769950867e-02
7.288936525583267212e-02
-8.823449164628982544e-02
-5.754423514008522034e-02
-5.754423327744007111e-03
-7.288936525583267212e-02
7.672564592212438583e-03
6.138051673769950867e-02
6.713493913412094116e-02
6.329865753650665283e-02
7.097122073173522949e-02
4.795352742075920105e-02
-1.323517411947250366e-01
3.836282342672348022e-02
-1.035796254873275757e-01
-8.248007297515869141e-02
-4.411724582314491272e-02
-3.069025836884975433e-02
6.713493913412094116e-02
-5.754423327744007111e-03
2.109955251216888428e-02
5.178981274366378784e-02
-2.493583410978317261e-02
1.534512937068939209e-01
-7.480750232934951782e-02
1.918141148053109646e-03
-6.521680206060409546e-02
7.672564592212438583e-03
1.054977625608444214e-01
-4.795352742075920105e-02
-7.672564685344696045e-02
-1.342698838561773300e-02
-5.178981274366378784e-02
5.370795354247093201e-02
-1.227610334753990173e-01
1.918141171336174011e-02
-1.342698838561773300e-02
-9.590705856680870056e-03
1.342698838561773300e-02
-1.342698782682418823e-01
5.370795354247093201e-02
1.342698838561773300e-02
5.946237593889236450e-02
-1.534512918442487717e-02
6.329865753650665283e-02
-4.219910502433776855e-02
-4.411724582314491272e-02
7.672564685344696045e-02
-4.219910502433776855e-02
9.590705856680870056e-03
-1.918141148053109646e-03
2.877211757004261017e-02
-5.754423327744007111e-03
4.987166821956634521e-02
3.836282342672348022e-02
4.028096422553062439e-02
-1.150884665548801422e-02
-9.207077324390411377e-02
1.342698838561773300e-02
-1.342698838561773300e-02
-7.864378392696380615e-02
1.534512918442487717e-02
1.208428889513015747e-01
-2.109955251216888428e-02
-5.754423514008522034e-02
-7.672564592212438583e-03
2.685397677123546600e-02
5.370795354247093201e-02
1.150884665548801422e-02
8.056192845106124878e-02
-7.480750232934951782e-02
-9.974333643913269043e-02
-3.836282296106219292e-03
8.056192845106124878e-02
9.207077324390411377e-02
8.631635457277297974e-02
4.219910502433776855e-02
1.534512918442487717e-02
-1.054977625608444214e-01
-6.138051673769950867e-02
1.457787305116653442e-01
6.329865753650665283e-02
3.069025836884975433e-02
9.782519936561584473e-02
1.918141171336174011e-02
-1.112521886825561523e-01
-7.097122073173522949e-02
-6.713493913412094116e-02
-1.515331566333770752e-01
-8.248007297515869141e-02
-4.028096422553062439e-02
-8.439821004867553711e-02
-5.178981274366378784e-02
-8.056192845106124878e-02
1.534512918442487717e-02
-5.178981274366378784e-02
-5.178981274366378784e-02
9.015263617038726807e-02
7.672564685344696045e-02
7.288936525583267212e-02
1.227610334753990173e-01
2.493583410978317261e-02
-8.248007297515869141e-02
2.301769331097602844e-02
2.301769331097602844e-02
7.672564592212438583e-03
6.138051673769950867e-02
0.000000000000000000e+00
2.493583410978317261e-02
-2.493583410978317261e-02
-1.074159070849418640e-01
1.150884665548801422e-02
-5.370795354247093201e-02
5.370795354247093201e-02
-3.452654182910919189e-02
-6.138051673769950867e-02
-7.288936525583267212e-02
-4.603538662195205688e-02
2.493583410978317261e-02
-1.150884665548801422e-02
9.974333643913269043e-02
-4.987166821956634521e-02
2.685397677123546600e-02
5.370795354247093201e-02
-9.398891776800155640e-02
-2.301769331097602844e-02
7.288936525583267212e-02
8.248007297515869141e-02
1.150884665548801422e-02
5.178981274366378784e-02
-3.836282342672348022e-02
1.918141171336174011e-02
7.864378392696380615e-02
-2.685397677123546600e-02
4.028096422553062439e-02
5.754423327744007111e-03
-3.836282342672348022e-02
5.562609434127807617e-02
1.342698838561773300e-02
-5.370795354247093201e-02
1.054977625608444214e-01
3.836282342672348022e-02
-8.056192845106124878e-02
2.301769331097602844e-02
-1.342698838561773300e-02
-2.877211757004261017e-02
1.150884665548801422e-02
-1.726327091455459595e-01
-4.219910502433776855e-02
-6.521680206060409546e-02
5.946237593889236450e-02
-5.562609434127807617e-02
9.590705484151840210e-02
3.836282296106219292e-03
-8.248007297515869141e-02
-1.534512918442487717e-02
-1.131703257560729980e-01
4.411724582314491272e-02
1.534512918442487717e-02
5.178981274366378784e-02
-9.590705856680870056e-03
-1.342698838561773300e-02
-2.685397677123546600e-02
3.260840103030204773e-02
0.000000000000000000e+00
5.754423327744007111e-03
-1.035796254873275757e-01
6.329865753650665283e-02
-3.836282342672348022e-02
3.836282296106219292e-03
-8.056192845106124878e-02
-5.946237593889236450e-02
1.208428889513015747e-01
-4.987166821956634521e-02
-5.754423514008522034e-02
1.918141148053109646e-03
1.841415464878082275e-01
-9.015263617038726807e-02
1.534512937068939209e-01
3.644468262791633606e-02
-9.974333643913269043e-02
1.726327091455459595e-02
-3.836282296106219292e-03
7.864378392696380615e-02
0.000000000000000000e+00
8.631635457277297974e-02
-1.361880153417587280e-01
-2.493583410978317261e-02
-5.562609434127807617e-02
-6.713493913412094116e-02
-1.112521886825561523e-01
1.918141171336174011e-02
-3.260840103030204773e-02
4.219910502433776855e-02
-9.590705856680870056e-03
-1.534512918442487717e-02
-1.131703257560729980e-01
-5.178981274366378784e-02
-6.329865753650665283e-02
0.000000000000000000e+00
1.074159070849418640e-01
4.219910502433776855e-02
-1.093340441584587097e-01
-3.836282342672348022e-02
7.672564592212438583e-03
-6.905308365821838379e-02
7.864378392696380615e-02
-5.178981274366378784e-02
2.301769331097602844e-02
-1.918141148053109646e-03
-9.974333643913269043e-02
-8.631635457277297974e-02
7.097122073173522949e-02
-5.370795354247093201e-02
1.304336041212081909e-01
1.553694307804107666e-01
6.138051673769950867e-02
1.918141148053109646e-03
1.131703257560729980e-01
-6.138051673769950867e-02
-8.631635457277297974e-02
-7.480750232934951782e-02
8.631635457277297974e-02
1.035796254873275757e-01
-5.946237593889236450e-02
3.260840103030204773e-02
1.074159070849418640e-01
8.823449164628982544e-02
1.035796254873275757e-01
-9.207077324390411377e-02
-3.260840103030204773e-02
-1.534512918442487717e-02
-8.823449164628982544e-02
-1.918141171336174011e-02
-5.946237593889236450e-02
2.301769331097602844e-02
-4.028096422553062439e-02
4.987166821956634521e-02
-5.754423327744007111e-03
1.534512918442487717e-02
8.823449164628982544e-02
-1.918141171336174011e-02
-1.918141171336174011e-02
-3.836282296106219292e-03
-4.795352742075920105e-02
-7.672564592212438583e-03
1.534512918442487717e-02
-9.974333643913269043e-02
-1.918141148053109646e-03
-4.603538662195205688e-02
-1.342698782682418823e-01
7.672564592212438583e-03
-1.131703257560729980e-01
-5.562609434127807617e-02
-7.864378392696380615e-02
1.918141148053109646e-03
6.138051673769950867e-02
2.493583410978317261e-02
-7.288936525583267212e-02
-3.644468262791633606e-02
-6.521680206060409546e-02
-6.138051673769950867e-02
-6.329865753650665283e-02
1.016614809632301331e-01
1.035796254873275757e-01
-9.015263617038726807e-02
-2.109955251216888428e-02
6.329865753650665283e-02
-6.521680206060409546e-02
-7.672564592212438583e-03
7.672564592212438583e-03
-7.097122073173522949e-02
-2.877211757004261017e-02
-1.150884665548801422e-02
1.726327091455459595e-02
-1.150884665548801422e-02
-6.905308365821838379e-02
3.452654182910919189e-02
2.877211757004261017e-02
1.918141148053109646e-03
-1.534512918442487717e-02
-7.480750232934951782e-02
9.974333643913269043e-02
-5.946237593889236450e-02
-1.726327091455459595e-02
-6.905308365821838379e-02
2.685397677123546600e-02
8.248007297515869141e-02
1.131703257560729980e-01
-9.590705856680870056e-03
-1.054977625608444214e-01
-1.361880153417587280e-01
-1.150884665548801422e-02
-5.946237593889236450e-02
-5.370795354247093201e-02
1.131703257560729980e-01
-6.329865753650665283e-02
-4.219910502433776855e-02
-7.672564592212438583e-03
-6.329865753650665283e-02
8.439821004867553711e-02
1.342698838561773300e-02
-5.370795354247093201e-02
1.534512918442487717e-02
-1.150884665548801422e-02
-6.713493913412094116e-02
6.329865753650665283e-02
1.611238569021224976e-01
2.301769331097602844e-02
-5.562609434127807617e-02
6.521680206060409546e-02
-4.028096422553062439e-02
-8.823449164628982544e-02
-2.493583410978317261e-02
7.288936525583267212e-02
2.301769331097602844e-02
3.836282296106219292e-03
-3.069025836884975433e-02
4.795352742075920105e-02
2.493583410978317261e-02
7.672564592212438583e-03
-9.590705484151840210e-02
1.457787305116653442e-01
-3.836282296106219292e-03
1.726327091455459595e-02
-1.726327091455459595e-02
-5.562609434127807617e-02
-4.603538662195205688e-02
-1.342698838561773300e-02
8.631635457277297974e-02
-3.452654182910919189e-02
6.713493913412094116e-02
1.918141148053109646e-03
3.452654182910919189e-02
-1.342698838561773300e-02
-6.329865753650665283e-02
8.439821004867553711e-02
-2.685397677123546600e-02
-4.028096422553062439e-02
4.603538662195205688e-02
4.987166821956634521e-02
8.631635457277297974e-02
4.603538662195205688e-02
-1.342698838561773300e-02
-5.178981274366378784e-02
-2.685397677123546600e-02
4.603538662195205688e-02
-8.248007297515869141e-02
-1.918141148053109646e-03
-1.150884665548801422e-02
-9.782519936561584473e-02
-6.521680206060409546e-02
6.521680206060409546e-02
6.138051673769950867e-02
7.672564685344696045e-02
-7.288936525583267212e-02
-4.603538662195205688e-02
-4.219910502433776855e-02
1.342698838561773300e-02
2.493583410978317261e-02
-4.219910502433776855e-02
3.069025836884975433e-02
1.035796254873275757e-01
2.301769331097602844e-02
-6.905308365821838379e-02
-1.093340441584587097e-01
-1.534512918442487717e-02
9.590705856680870056e-03
-2.301769331097602844e-02
8.248007297515869141e-02
6.138051673769950867e-02
6.905308365821838379e-02
8.056192845106124878e-02
1.054977625608444214e-01
-3.260840103030204773e-02
0.000000000000000000e+00
4.411724582314491272e-02
2.877211757004261017e-02
-1.342698838561773300e-02
-4.795352742075920105e-02
2.301769331097602844e-02
1.496150046586990356e-01
-2.301769331097602844e-02
9.207077324390411377e-02
-5.754423327744007111e-03
-9.590705856680870056e-03
6.329865753650665283e-02
-1.054977625608444214e-01
1.726327091455459595e-02
-6.905308365821838379e-02
-7.480750232934951782e-02
3.836282342672348022e-02
-7.097122073173522949e-02
2.685397677123546600e-02
-1.150884665548801422e-02
-1.150884702801704407e-01
-8.439821004867553711e-02
-4.219910502433776855e-02
3.260840103030204773e-02
-3.836282342672348022e-02
-5.754423327744007111e-03
-1.342698838561773300e-02
-1.189247518777847290e-01
-5.754423327744007111e-03
-6.905308365821838379e-02
-9.590705484151840210e-02
-1.112521886825561523e-01
-9.590705484151840210e-02
-7.864378392696380615e-02
-9.590705856680870056e-03
-1.150884665548801422e-02
2.301769331097602844e-02
7.672564685344696045e-02
3.260840103030204773e-02
-2.877211757004261017e-02
-6.521680206060409546e-02
-5.754423327744007111e-03
3.452654182910919189e-02
2.109955251216888428e-02
9.207077324390411377e-02
7.672564592212438583e-03
-9.207077324390411377e-02
-1.150884665548801422e-02
-5.370795354247093201e-02
4.603538662195205688e-02
-4.028096422553062439e-02
1.285154521465301514e-01
9.590705856680870056e-03
6.521680206060409546e-02
-1.285154521465301514e-01
-1.726327091455459595e-02
-3.644468262791633606e-02
7.672564592212438583e-03
-1.726327091455459595e-02
3.836282296106219292e-03
-7.480750232934951782e-02
-6.329865753650665283e-02
6.521680206060409546e-02
1.534512918442487717e-02
1.534512918442487717e-02
-8.439821004867553711e-02
9.590705484151840210e-02
-9.590705856680870056e-03
-2.877211757004261017e-02
-5.370795354247093201e-02
-1.150884665548801422e-02
-2.877211757004261017e-02
-7.480750232934951782e-02
2.877211757004261017e-02
3.452654182910919189e-02
6.521680206060409546e-02
-1.150884665548801422e-02
-5.562609434127807617e-02
-5.370795354247093201e-02
-7.480750232934951782e-02
-6.713493913412094116e-02
6.713493913412094116e-02
1.323517411947250366e-01
6.329865753650665283e-02
3.836282296106219292e-03
-7.672564685344696045e-02
-5.370795354247093201e-02
-6.905308365821838379e-02
1.726327091455459595e-02
4.219910502433776855e-02
6.905308365821838379e-02
7.672564685344696045e-02
-6.905308365821838379e-02
1.112521886825561523e-01
3.260840103030204773e-02
-5.754423514008522034e-02
-1.918141148053109646e-03
1.745508462190628052e-01
-4.219910502433776855e-02
2.109955251216888428e-02
3.836282342672348022e-02
3.069025836884975433e-02
-3.644468262791633606e-02
2.148318141698837280e-01
7.864378392696380615e-02
1.150884665548801422e-02
5.370795354247093201e-02
-2.301769331097602844e-02
-4.028096422553062439e-02
-3.836282296106219292e-03
3.644468262791633606e-02
-5.754423327744007111e-03
6.713493913412094116e-02
2.685397677123546600e-02
1.208428889513015747e-01
-2.877211757004261017e-02
-3.644468262791633606e-02
6.905308365821838379e-02
-3.644468262791633606e-02
-7.672564592212438583e-03
-5.178981274366378784e-02
8.631635457277297974e-02
7.097122073173522949e-02
-1.918141148053109646e-03
8.056192845106124878e-02
-3.069025836884975433e-02
-2.877211757004261017e-02
2.493583410978317261e-02
-3.452654182910919189e-02
1.208428889513015747e-01
3.260840103030204773e-02
3.644468262791633606e-02
-3.452654182910919189e-02
4.987166821956634521e-02
9.974333643913269043e-02
-4.603538662195205688e-02
5.562609434127807617e-02
1.553694307804107666e-01
-5.562609434127807617e-02
-1.150884702801704407e-01
4.411724582314491272e-02
-5.370795354247093201e-02
1.515331566333770752e-01
-6.329865753650665283e-02
5.370795354247093201e-02
-8.248007297515869141e-02
4.987166821956634521e-02
-2.685397677123546600e-02
-3.069025836884975433e-02
1.150884702801704407e-01
1.093340441584587097e-01
-2.877211757004261017e-02
7.672564685344696045e-02
-1.323517411947250366e-01
0.000000000000000000e+00
3.836282342672348022e-02
-2.685397677123546600e-02
-7.288936525583267212e-02
-5.946237593889236450e-02
1.342698838561773300e-02
-1.323517411947250366e-01
1.534512918442487717e-02
-3.452654182910919189e-02
1.342698838561773300e-02
5.754423514008522034e-02
7.288936525583267212e-02
9.974333643913269043e-02
5.370795354247093201e-02
-6.138051673769950867e-02
1.170066073536872864e-01
1.918141171336174011e-02
-2.109955251216888428e-02
-7.864378392696380615e-02
1.131703257560729980e-01
2.685397677123546600e-02
5.754423327744007111e-03
7.288936525583267212e-02
1.342698838561773300e-02
-7.288936525583267212e-02
-1.054977625608444214e-01
-2.301769331097602844e-02
-1.131703257560729980e-01
1.189247518777847290e-01
-4.028096422553062439e-02
-1.227610334753990173e-01
-7.672564592212438583e-03
-4.603538662195205688e-02
-1.476968675851821899e-01
1.150884665548801422e-02
1.016614809632301331e-01
4.987166821956634521e-02
-8.631635457277297974e-02
6.329865753650665283e-02
-4.411724582314491272e-02
2.685397677123546600e-02
-1.918141171336174011e-02
-3.836282296106219292e-03
2.052410989999771118e-01
-1.534512918442487717e-02
-6.521680206060409546e-02
1.342698838561773300e-02
-1.457787305116653442e-01
9.590705856680870056e-03
-2.109955251216888428e-02
-5.562609434127807617e-02
-6.329865753650665283e-02
5.754423514008522034e-02
1.918141171336174011e-02
1.150884702801704407e-01
6.329865753650665283e-02
-5.754423327744007111e-03
-2.301769331097602844e-02
-5.946237593889236450e-02
6.138051673769950867e-02
1.534512918442487717e-02
-1.918141171336174011e-02
7.672564592212438583e-03
-6.905308365821838379e-02
7.672564592212438583e-03
6.138051673769950867e-02
-1.016614809632301331e-01
1.342698838561773300e-02
5.370795354247093201e-02
1.304336041212081909e-01
-3.836282342672348022e-02
4.603538662195205688e-02
7.864378392696380615e-02
9.207077324390411377e-02
2.685397677123546600e-02
1.476968675851821899e-01
1.841415464878082275e-01
-8.823449164628982544e-02
-6.138051673769950867e-02
7.672564592212438583e-03
-9.590705856680870056e-03
-1.553694307804107666e-01
7.672564592212438583e-03
-6.521680206060409546e-02
3.069025836884975433e-02
1.918141148053109646e-03
3.452654182910919189e-02
1.438605934381484985e-01
-5.754423327744007111e-03
-3.069025836884975433e-02
1.534512918442487717e-02
-1.342698782682418823e-01
-7.864378392696380615e-02
-1.227610334753990173e-01
4.987166821956634521e-02
3.644468262791633606e-02
-2.301769331097602844e-02
7.288936525583267212e-02
1.534512918442487717e-02
-7.672564592212438583e-03
1.438605934381484985e-01
-3.069025836884975433e-02
-1.918141171336174011e-02
5.370795354247093201e-02
2.301769331097602844e-02
-1.918141171336174011e-02
-1.534512918442487717e-02
7.672564592212438583e-03
-2.685397677123546600e-02
8.631635457277297974e-02
-8.439821004867553711e-02
3.836282342672348022e-02
-7.672564592212438583e-03
-3.452654182910919189e-02
5.754423514008522034e-02
-3.452654182910919189e-02
-2.301769331097602844e-02
-1.918141148053109646e-03
7.288936525583267212e-02
9.590705856680870056e-03
-1.918141171336174011e-02
-1.726327091455459595e-02
5.370795354247093201e-02
-7.864378392696380615e-02
1.726327091455459595e-02
4.987166821956634521e-02
1.534512918442487717e-02
8.056192845106124878e-02
1.131703257560729980e-01
2.493583410978317261e-02
3.452654182910919189e-02
-7.672564685344696045e-02
-3.644468262791633606e-02
-9.015263617038726807e-02
1.534512918442487717e-02
0.000000000000000000e+00
4.987166821956634521e-02
7.864378392696380615e-02
1.918141171336174011e-02
7.672564592212438583e-03
3.644468262791633606e-02
7.288936525583267212e-02
5.370795354247093201e-02
8.823449164628982544e-02
-1.534512918442487717e-02
1.150884702801704407e-01
-1.112521886825561523e-01
-1.150884702801704407e-01
-3.260840103030204773e-02
1.611238569021224976e-01
5.178981274366378784e-02
-1.304336041212081909e-01
1.227610334753990173e-01
3.260840103030204773e-02
-3.452654182910919189e-02
-1.112521886825561523e-01
-5.754423327744007111e-03
3.452654182910919189e-02
8.631635457277297974e-02
-1.208428889513015747e-01
-1.150884665548801422e-02
-3.836282342672348022e-02
-3.836282296106219292e-03
-1.189247518777847290e-01
6.329865753650665283e-02
0.000000000000000000e+00
8.823449164628982544e-02
2.685397677123546600e-02
-1.189247518777847290e-01
-4.219910502433776855e-02
6.329865753650665283e-02
4.795352742075920105e-02
-4.603538662195205688e-02
2.685397677123546600e-02
-9.207077324390411377e-02
6.521680206060409546e-02
2.877211757004261017e-02
9.974333643913269043e-02
1.074159070849418640e-01
-6.713493913412094116e-02
1.726327091455459595e-01
8.056192845106124878e-02
4.411724582314491272e-02
-5.562609434127807617e-02
-1.918141171336174011e-02
3.452654182910919189e-02
-3.836282342672348022e-02
-2.301769331097602844e-02
3.452654182910919189e-02
-2.109955251216888428e-02
1.150884665548801422e-02
5.946237593889236450e-02
-3.260840103030204773e-02
-4.795352742075920105e-02
2.877211757004261017e-02
8.439821004867553711e-02
3.452654182910919189e-02
-3.452654182910919189e-02
3.452654182910919189e-02
7.864378392696380615e-02
7.672564685344696045e-02
-3.836282296106219292e-03
7.097122073173522949e-02
-8.248007297515869141e-02
-9.782519936561584473e-02
-3.069025836884975433e-02
-7.288936525583267212e-02
-3.452654182910919189e-02
1.016614809632301331e-01
1.745508462190628052e-01
3.260840103030204773e-02
-8.439821004867553711e-02
-4.028096422553062439e-02
-1.918141171336174011e-02
-2.493583410978317261e-02
-3.836282342672348022e-02
-5.370795354247093201e-02
5.946237593889236450e-02
8.439821004867553711e-02
-1.035796254873275757e-01
8.056192845106124878e-02
3.644468262791633606e-02
-9.015263617038726807e-02
-1.918141148053109646e-03
1.150884665548801422e-02
-4.219910502433776855e-02
1.726327091455459595e-02
8.631635457277297974e-02
-3.452654182910919189e-02
-3.836282342672348022e-02
-8.439821004867553711e-02
9.974333643913269043e-02
2.436039298772811890e-01
-8.056192845106124878e-02
1.150884665548801422e-02
2.493583410978317261e-02
-4.987166821956634521e-02
0.000000000000000000e+00
-1.285154521465301514e-01
1.726327091455459595e-02
-8.439821004867553711e-02
-1.131703257560729980e-01
2.877211757004261017e-02
-2.301769331097602844e-02
7.672564685344696045e-02
-1.093340441584587097e-01
-5.754423514008522034e-02
7.097122073173522949e-02
-1.534512918442487717e-02
-7.672564592212438583e-03
3.644468262791633606e-02
-6.329865753650665283e-02
-2.301769331097602844e-02
-8.439821004867553711e-02
1.342698838561773300e-02
-5.562609434127807617e-02
2.109955251216888428e-02
-4.795352742075920105e-02
6.905308365821838379e-02
7.097122073173522949e-02
-1.342698838561773300e-02
4.411724582314491272e-02
-9.207077324390411377e-02
8.631635457277297974e-02
7.672564685344696045e-02
-5.370795354247093201e-02
6.521680206060409546e-02
-2.877211757004261017e-02
8.439821004867553711e-02
3.069025836884975433e-02
-1.918141148053109646e-03
-3.452654182910919189e-02
8.248007297515869141e-02
-9.590705856680870056e-03
-4.987166821956634521e-02
2.301769331097602844e-02
-8.439821004867553711e-02
1.918141148053109646e-03
-5.754423327744007111e-03
-1.035796254873275757e-01
5.754423514008522034e-02
-1.054977625608444214e-01
-6.905308365821838379e-02
5.370795354247093201e-02
9.015263617038726807e-02
-1.918141148053109646e-03
-3.260840103030204773e-02
1.323517411947250366e-01
5.178981274366378784e-02
-5.370795354247093201e-02
-5.754423327744007111e-03
-9.974333643913269043e-02
1.227610334753990173e-01
9.590705856680870056e-03
-8.248007297515869141e-02
1.150884665548801422e-02
5.370795354247093201e-02
1.726327091455459595e-02
7.864378392696380615e-02
3.452654182910919189e-02
-1.054977625608444214e-01
2.493583410978317261e-02
-8.248007297515869141e-02
-2.877211757004261017e-02
-1.534512918442487717e-02
4.795352742075920105e-02
-1.342698838561773300e-02
1.342698838561773300e-02
-6.905308365821838379e-02
2.493583410978317261e-02
1.342698838561773300e-02
-3.836282296106219292e-03
-9.974333643913269043e-02
-1.918141148053109646e-03
6.713493913412094116e-02
9.974333643913269043e-02
-5.946237593889236450e-02
5.178981274366378784e-02
-5.754423514008522034e-02
-2.109955251216888428e-02
3.452654182910919189e-02
6.329865753650665283e-02
4.987166821956634521e-02
9.398891776800155640e-02
-2.685397677123546600e-02
-2.301769331097602844e-02
3.260840103030204773e-02
9.398891776800155640e-02
-1.918141171336174011e-02
-5.178981274366378784e-02
9.398891776800155640e-02
3.069025836884975433e-02
2.493583410978317261e-02
-2.129136621952056885e-01
5.178981274366378784e-02
-3.836282296106219292e-03
-6.713493913412094116e-02
1.170066073536872864e-01
-9.590705856680870056e-03
-9.398891776800155640e-02
6.138051673769950867e-02
8.056192845106124878e-02
2.493583410978317261e-02
-1.726327091455459595e-02
8.439821004867553711e-02
7.672564592212438583e-03
8.823449164628982544e-02
2.685397677123546600e-02
-9.974333643913269043e-02
1.150884665548801422e-02
-8.248007297515869141e-02
7.288936525583267212e-02
-3.260840103030204773e-02
1.918141171336174011e-02
-3.644468262791633606e-02
1.074159070849418640e-01
2.493583410978317261e-02
1.150884665548801422e-02
-9.015263617038726807e-02
8.056192845106124878e-02
-1.918141148053109646e-03
-4.219910502433776855e-02
1.726327091455459595e-02
3.836282296106219292e-03
2.493583410978317261e-02
1.342698838561773300e-02
-3.644468262791633606e-02
8.248007297515869141e-02
-4.411724582314491272e-02
3.836282296106219292e-03
7.672564685344696045e-02
6.329865753650665283e-02
1.918141171336174011e-02
-1.170066073536872864e-01
-8.439821004867553711e-02
-2.493583410978317261e-02
4.603538662195205688e-02
8.823449164628982544e-02
1.150884665548801422e-02
-8.248007297515869141e-02
-1.534512918442487717e-02
-5.370795354247093201e-02
5.754423514008522034e-02
3.644468262791633606e-02
5.370795354247093201e-02
6.713493913412094116e-02
7.097122073173522949e-02
-1.035796254873275757e-01
-3.836282296106219292e-03
-8.056192845106124878e-02
-7.672564685344696045e-02
-1.074159070849418640e-01
1.918141148053109646e-03
3.260840103030204773e-02
5.370795354247093201e-02
9.590705856680870056e-03
4.603538662195205688e-02
1.150884665548801422e-02
3.260840103030204773e-02
7.288936525583267212e-02
-3.452654182910919189e-02
3.260840103030204773e-02
-2.685397677123546600e-02
-3.644468262791633606e-02
8.439821004867553711e-02
2.685397677123546600e-02
1.074159070849418640e-01
-5.370795354247093201e-02
8.823449164628982544e-02
-4.219910502433776855e-02
-4.795352742075920105e-02
3.452654182910919189e-02
7.097122073173522949e-02
6.905308365821838379e-02
-1.534512918442487717e-02
5.754423514008522034e-02
2.493583410978317261e-02
-5.370795354247093201e-02
1.918141148053109646e-03
2.493583410978317261e-02
-8.056192845106124878e-02
5.562609434127807617e-02
-1.208428889513015747e-01
-4.795352742075920105e-02
3.836282296106219292e-03
2.493583410978317261e-02
-1.189247518777847290e-01
0.000000000000000000e+00
2.493583410978317261e-02
2.685397677123546600e-02
-5.370795354247093201e-02
3.836282342672348022e-02
9.015263617038726807e-02
-3.644468262791633606e-02
7.864378392696380615e-02
-1.918141171336174011e-02
-2.685397677123546600e-02
4.028096422553062439e-02
4.219910502433776855e-02
-7.480750232934951782e-02
9.590705856680870056e-03
1.208428889513015747e-01
6.521680206060409546e-02
-1.476968675851821899e-01
-4.987166821956634521e-02
-1.918141148053109646e-03
-1.150884665548801422e-02
-9.590705856680870056e-03
8.631635457277297974e-02
1.304336041212081909e-01
-2.301769331097602844e-02
3.069025836884975433e-02
3.644468262791633606e-02
5.562609434127807617e-02
7.288936525583267212e-02
-4.603538662195205688e-02
-5.754423514008522034e-02
-1.016614809632301331e-01
-1.918141148053109646e-03
5.562609434127807617e-02
-7.672564592212438583e-03
3.260840103030204773e-02
2.877211757004261017e-02
1.918141171336174011e-02
1.208428889513015747e-01
1.918141148053109646e-03
9.782519936561584473e-02
-2.109955251216888428e-02
9.398891776800155640e-02
-1.515331566333770752e-01
1.323517411947250366e-01
2.685397677123546600e-02
9.590705484151840210e-02
2.493583410978317261e-02
-3.452654182910919189e-02
-5.178981274366378784e-02
5.946237593889236450e-02
-2.685397677123546600e-02
-4.411724582314491272e-02
8.248007297515869141e-02
1.361880153417587280e-01
1.112521886825561523e-01
7.288936525583267212e-02
6.329865753650665283e-02
-1.975685358047485352e-01
1.170066073536872864e-01
-4.603538662195205688e-02
-1.918141171336174011e-02
2.109955251216888428e-02
-3.452654182910919189e-02
-5.754423514008522034e-02
-1.534512918442487717e-02
5.370795354247093201e-02
-4.411724582314491272e-02
-4.028096422553062439e-02
1.112521886825561523e-01
9.590705856680870056e-03
1.918141148053109646e-03
4.603538662195205688e-02
-8.823449164628982544e-02
1.381061673164367676e-01
-4.603538662195205688e-02
-2.301769331097602844e-02
-1.150884702801704407e-01
-1.918141148053109646e-03
-1.611238569021224976e-01
0.000000000000000000e+00
1.131703257560729980e-01
2.493583410978317261e-02
5.178981274366378784e-02
7.097122073173522949e-02
6.521680206060409546e-02
5.754423327744007111e-03
-5.754423514008522034e-02
-1.726327091455459595e-02
-1.150884665548801422e-02
9.590705856680870056e-03
5.946237593889236450e-02
-5.370795354247093201e-02
2.109955251216888428e-02
-9.590705484151840210e-02
0.000000000000000000e+00
6.521680206060409546e-02
1.918141171336174011e-02
1.534512918442487717e-02
1.131703257560729980e-01
-7.288936525583267212e-02
-6.329865753650665283e-02
1.534512918442487717e-02
-6.329865753650665283e-02
1.726327091455459595e-02
8.248007297515869141e-02
7.672564592212438583e-03
-7.288936525583267212e-02
-5.754423514008522034e-02
6.329865753650665283e-02
-3.836282342672348022e-02
7.288936525583267212e-02
-7.864378392696380615e-02
7.864378392696380615e-02
3.260840103030204773e-02
0.000000000000000000e+00
-4.411724582314491272e-02
3.452654182910919189e-02
-1.726327091455459595e-02
1.342698838561773300e-02
4.795352742075920105e-02
1.342698838561773300e-02
5.178981274366378784e-02
5.562609434127807617e-02
4.411724582314491272e-02
7.480750232934951782e-02
4.987166821956634521e-02
-3.836282342672348022e-02
7.672564685344696045e-02
1.726327091455459595e-02
2.493583410978317261e-02
-1.918141148053109646e-03
1.975685358047485352e-01
-1.035796254873275757e-01
5.178981274366378784e-02
1.074159070849418640e-01
3.452654182910919189e-02
-3.836282342672348022e-02
1.726327091455459595e-02
-3.836282296106219292e-03
4.795352742075920105e-02
6.713493913412094116e-02
-9.398891776800155640e-02
-1.918141171336174011e-02
2.685397677123546600e-02
4.987166821956634521e-02
-1.342698838561773300e-02
-8.056192845106124878e-02
5.178981274366378784e-02
-6.521680206060409546e-02
-4.028096422553062439e-02
-4.987166821956634521e-02
-4.987166821956634521e-02
-5.754423514008522034e-02
-1.093340441584587097e-01
-1.726327091455459595e-02
4.028096422553062439e-02
-9.590705856680870056e-03
8.823449164628982544e-02
5.562609434127807617e-02
-1.150884665548801422e-02
6.329865753650665283e-02
8.631635457277297974e-02
5.754423327744007111e-03
-4.987166821956634521e-02
6.905308365821838379e-02
-1.496150046586990356e-01
-2.109955251216888428e-02
8.631635457277297974e-02
-1.342698782682418823e-01
-5.178981274366378784e-02
6.329865753650665283e-02
-1.170066073536872864e-01
2.301769331097602844e-02
-3.644468262791633606e-02
-3.836282342672348022e-02
-6.329865753650665283e-02
-7.864378392696380615e-02
2.685397677123546600e-02
4.219910502433776855e-02
1.304336041212081909e-01
8.631635457277297974e-02
-9.590705856680870056e-03
-6.521680206060409546e-02
9.590705856680870056e-03
-1.342698838561773300e-02
-7.672564592212438583e-03
6.138051673769950867e-02
8.823449164628982544e-02
8.439821004867553711e-02
3.069025836884975433e-02
-6.521680206060409546e-02
3.836282342672348022e-02
2.109955251216888428e-02
-3.644468262791633606e-02
3.836282342672348022e-02
-9.015263617038726807e-02
5.946237593889236450e-02
-1.150884665548801422e-02
-1.016614809632301331e-01
3.069025836884975433e-02
-6.521680206060409546e-02
4.219910502433776855e-02
-5.754423327744007111e-03
-7.097122073173522949e-02
-1.150884702801704407e-01
-1.074159070849418640e-01
-9.015263617038726807e-02
-8.439821004867553711e-02
1.150884665548801422e-02
-9.782519936561584473e-02
7.672564592212438583e-03
2.685397677123546600e-02
6.138051673769950867e-02
5.178981274366378784e-02
0.000000000000000000e+00
5.754423514008522034e-02
1.265973150730133057e-01
-1.342698838561773300e-02
-1.150884665548801422e-02
7.288936525583267212e-02
5.178981274366378784e-02
8.439821004867553711e-02
-5.178981274366378784e-02
1.918141096830368042e-01
-5.178981274366378784e-02
6.521680206060409546e-02
5.370795354247093201e-02
7.288936525583267212e-02
7.097122073173522949e-02
-2.301769331097602844e-02
-4.219910502433776855e-02
1.534512918442487717e-02
2.685397677123546600e-02
1.687964200973510742e-01
3.644468262791633606e-02
5.754423327744007111e-03
1.918141148053109646e-03
1.208428889513015747e-01
0.000000000000000000e+00
5.754423327744007111e-03
-7.480750232934951782e-02
1.361880153417587280e-01
1.246791779994964600e-01
5.178981274366378784e-02
-2.109955251216888428e-02
-8.631635457277297974e-02
-7.672564592212438583e-03
8.248007297515869141e-02
1.131703257560729980e-01
-5.754423514008522034e-02
1.093340441584587097e-01
-1.918141171336174011e-02
4.411724582314491272e-02
-5.562609434127807617e-02
-5.370795354247093201e-02
-8.248007297515869141e-02
9.398891776800155640e-02
1.227610334753990173e-01
9.398891776800155640e-02
-1.726327091455459595e-02
1.246791779994964600e-01
1.342698838561773300e-02
-5.370795354247093201e-02
1.170066073536872864e-01
3.644468262791633606e-02
1.016614809632301331e-01
-4.603538662195205688e-02
5.562609434127807617e-02
-4.603538662195205688e-02
-5.754423514008522034e-02
-5.562609434127807617e-02
-5.178981274366378784e-02
1.918141171336174011e-02
7.672564592212438583e-03
-5.562609434127807617e-02
2.877211757004261017e-02
-1.726327091455459595e-02
-2.877211757004261017e-02
1.918141171336174011e-02
4.795352742075920105e-02
-1.726327091455459595e-02
1.342698838561773300e-02
2.109955251216888428e-02
5.178981274366378784e-02
-2.493583410978317261e-02
-5.754423514008522034e-02
-5.562609434127807617e-02
-7.672564592212438583e-03
4.987166821956634521e-02
1.918141171336174011e-02
-4.795352742075920105e-02
-3.452654182910919189e-02
7.672564592212438583e-03
2.109955251216888428e-02
1.726327091455459595e-02
4.219910502433776855e-02
2.493583410978317261e-02
-5.946237593889236450e-02
-4.795352742075920105e-02
-4.219910502433776855e-02
-4.411724582314491272e-02
-5.946237593889236450e-02
3.836282342672348022e-02
1.918141171336174011e-02
-1.726327091455459595e-02
-5.754423514008522034e-02
-2.493583410978317261e-02
-5.754423514008522034e-02
-2.493583410978317261e-02
4.411724582314491272e-02
2.685397677123546600e-02
2.109955251216888428e-02
-6.329865753650665283e-02
3.069025836884975433e-02
-1.534512918442487717e-02
-6.138051673769950867e-02
-1.342698838561773300e-02
-3.260840103030204773e-02
3.644468262791633606e-02
-3.836282342672348022e-02
-1.726327091455459595e-02
1.150884665548801422e-02
-5.754423327744007111e-03
-9.590705856680870056e-03
0.000000000000000000e+00
4.028096422553062439e-02
-5.754423327744007111e-03
5.178981274366378784e-02
3.260840103030204773e-02
2.109955251216888428e-02
-1.918141171336174011e-02
5.178981274366378784e-02
-2.685397677123546600e-02
3.452654182910919189e-02
-3.260840103030204773e-02
-4.987166821956634521e-02
7.672564592212438583e-03
3.452654182910919189e-02
3.260840103030204773e-02
-3.069025836884975433e-02
1.150884665548801422e-02
-4.795352742075920105e-02
5.178981274366378784e-02
-1.726327091455459595e-02
-5.946237593889236450e-02
-1.726327091455459595e-02
-1.726327091455459595e-02
-4.411724582314491272e-02
2.877211757004261017e-02
0.000000000000000000e+00
-4.411724582314491272e-02
-6.138051673769950867e-02
-2.301769331097602844e-02
4.987166821956634521e-02
-1.342698838561773300e-02
-5.946237593889236450e-02
4.603538662195205688e-02
-2.493583410978317261e-02
-5.178981274366378784e-02
-3.644468262791633606e-02
-4.795352742075920105e-02
-7.672564592212438583e-03
5.562609434127807617e-02
-1.534512918442487717e-02
-4.795352742075920105e-02
3.069025836884975433e-02
2.301769331097602844e-02
3.836282296106219292e-03
-2.493583410978317261e-02
-5.754423327744007111e-03
5.370795354247093201e-02
-3.836282342672348022e-02
-4.603538662195205688e-02
-1.534512918442487717e-02
-3.452654182910919189e-02
5.946237593889236450e-02
7.672564592212438583e-03
1.150884665548801422e-02
6.138051673769950867e-02
2.493583410978317261e-02
-1.342698838561773300e-02
-4.987166821956634521e-02
6.138051673769950867e-02
-9.590705856680870056e-03
-3.452654182910919189e-02
-1.918141148053109646e-03
-1.534512918442487717e-02
-3.069025836884975433e-02
2.301769331097602844e-02
-4.603538662195205688e-02
-3.644468262791633606e-02
6.329865753650665283e-02
4.987166821956634521e-02
-2.301769331097602844e-02
5.754423514008522034e-02
-5.946237593889236450e-02
2.109955251216888428e-02
1.918141148053109646e-03
3.836282342672348022e-02
-3.260840103030204773e-02
-4.219910502433776855e-02
-1.150884665548801422e-02
5.178981274366378784e-02
5.754423327744007111e-03
-5.178981274366378784e-02
3.260840103030204773e-02
3.069025836884975433e-02
2.109955251216888428e-02
-4.795352742075920105e-02
5.754423327744007111e-03
-3.069025836884975433e-02
-1.918141148053109646e-03
1.918141148053109646e-03
4.028096422553062439e-02
2.301769331097602844e-02
5.754423514008522034e-02
4.603538662195205688e-02
-6.329865753650665283e-02
-3.069025836884975433e-02
-5.562609434127807617e-02
-1.726327091455459595e-02
-4.795352742075920105e-02
-3.069025836884975433e-02
3.836282296106219292e-03
-1.726327091455459595e-02
1.726327091455459595e-02
9.590705856680870056e-03
0.000000000000000000e+00
-6.329865753650665283e-02
-3.260840103030204773e-02
-3.452654182910919189e-02
-1.726327091455459595e-02
-7.672564592212438583e-03
3.836282296106219292e-03
-3.069025836884975433e-02
-7.672564592212438583e-03
2.109955251216888428e-02
4.028096422553062439e-02
-3.836282342672348022e-02
2.109955251216888428e-02
-4.028096422553062439e-02
-4.987166821956634521e-02
-5.946237593889236450e-02
6.138051673769950867e-02
-1.534512918442487717e-02
1.918141148053109646e-03
7.672564592212438583e-03
-5.754423327744007111e-03
9.590705856680870056e-03
-2.877211757004261017e-02
-1.918141148053109646e-03
-2.685397677123546600e-02
-2.685397677123546600e-02
3.836282342672348022e-02
4.028096422553062439e-02
4.219910502433776855e-02
-3.644468262791633606e-02
-2.301769331097602844e-02
-1.726327091455459595e-02
2.685397677123546600e-02
-5.370795354247093201e-02
2.109955251216888428e-02
-2.301769331097602844e-02
-4.987166821956634521e-02
-1.534512918442487717e-02
4.603538662195205688e-02
-1.342698838561773300e-02
7.672564592212438583e-03
-5.178981274366378784e-02
-5.178981274366378784e-02
-6.138051673769950867e-02
0.000000000000000000e+00
2.301769331097602844e-02
1.726327091455459595e-02
3.452654182910919189e-02
-2.301769331097602844e-02
4.411724582314491272e-02
5.754423327744007111e-03
4.028096422553062439e-02
-3.836282296106219292e-03
-1.534512918442487717e-02
-4.987166821956634521e-02
2.493583410978317261e-02
-2.109955251216888428e-02
2.301769331097602844e-02
-5.754423327744007111e-03
2.109955251216888428e-02
3.452654182910919189e-02
5.754423514008522034e-02
2.301769331097602844e-02
-1.534512918442487717e-02
4.987166821956634521e-02
-1.342698838561773300e-02
-4.603538662195205688e-02
-2.301769331097602844e-02
1.918141171336174011e-02
-5.370795354247093201e-02
2.301769331097602844e-02
-5.754423514008522034e-02
7.672564592212438583e-03
-1.918141171336174011e-02
3.836282342672348022e-02
-4.219910502433776855e-02
-9.590705856680870056e-03
-2.877211757004261017e-02
3.836282296106219292e-03
-1.342698838561773300e-02
-5.754423514008522034e-02
4.987166821956634521e-02
-4.795352742075920105e-02
5.754423514008522034e-02
1.726327091455459595e-02
4.028096422553062439e-02
4.219910502433776855e-02
1.918141171336174011e-02
-2.685397677123546600e-02
-2.493583410978317261e-02
0.000000000000000000e+00
-7.672564592212438583e-03
2.685397677123546600e-02
5.754423327744007111e-03
5.754423327744007111e-03
5.754423327744007111e-03
4.795352742075920105e-02
-7.097122073173522949e-02
-2.493583410978317261e-02
7.288936525583267212e-02
1.246791779994964600e-01
-1.822234094142913818e-01
-1.150884665548801422e-02
-1.208428889513015747e-01
2.877211757004261017e-02
-4.219910502433776855e-02
3.452654182910919189e-02
3.452654182910919189e-02
-8.823449164628982544e-02
-7.864378392696380615e-02
8.631635457277297974e-02
-5.946237593889236450e-02
1.918141148053109646e-03
5.562609434127807617e-02
-2.493583410978317261e-02
-1.285154521465301514e-01
1.323517411947250366e-01
2.109955251216888428e-02
-4.219910502433776855e-02
-4.411724582314491272e-02
2.109955251216888428e-02
-9.974333643913269043e-02
2.109955251216888428e-02
5.754423327744007111e-03
-5.754423327744007111e-03
-1.150884702801704407e-01
5.178981274366378784e-02
4.028096422553062439e-02
2.877211757004261017e-02
9.590705484151840210e-02
-2.685397677123546600e-02
3.644468262791633606e-02
-1.112521886825561523e-01
2.301769331097602844e-02
1.342698838561773300e-02
-5.754423514008522034e-02
-1.726327091455459595e-02
5.946237593889236450e-02
-3.836282296106219292e-03
5.754423327744007111e-03
7.864378392696380615e-02
1.918141171336174011e-02
-3.069025836884975433e-02
2.877211757004261017e-02
-5.754423514008522034e-02
-7.097122073173522949e-02
1.342698838561773300e-02
-7.864378392696380615e-02
-5.754423514008522034e-02
-3.836282342672348022e-02
1.265973150730133057e-01
-2.109955251216888428e-02
-8.631635457277297974e-02
1.304336041212081909e-01
-7.288936525583267212e-02
9.590705856680870056e-03
4.795352742075920105e-02
-1.918141171336174011e-02
4.411724582314491272e-02
7.672564685344696045e-02
1.093340441584587097e-01
-1.150884702801704407e-01
4.028096422553062439e-02
-4.219910502433776855e-02
7.672564685344696045e-02
2.109955251216888428e-02
-9.015263617038726807e-02
-5.562609434127807617e-02
6.138051673769950867e-02
-7.288936525583267212e-02
1.726327091455459595e-02
1.342698838561773300e-02
1.534512918442487717e-02
5.754423327744007111e-03
-5.754423327744007111e-03
-1.035796254873275757e-01
-7.864378392696380615e-02
3.836282296106219292e-03
-7.672564685344696045e-02
-1.227610334753990173e-01
3.452654182910919189e-02
-1.534512918442487717e-02
-1.726327091455459595e-02
-5.178981274366378784e-02
1.150884665548801422e-02
-1.534512918442487717e-02
-1.170066073536872864e-01
1.534512918442487717e-02
-9.590705856680870056e-03
6.713493913412094116e-02
-6.713493913412094116e-02
1.534512918442487717e-02
-8.823449164628982544e-02
2.685397677123546600e-02
-1.534512918442487717e-02
6.905308365821838379e-02
4.987166821956634521e-02
-4.987166821956634521e-02
-2.685397677123546600e-02
-8.056192845106124878e-02
-4.411724582314491272e-02
7.288936525583267212e-02
-3.452654182910919189e-02
3.644468262791633606e-02
-1.112521886825561523e-01
7.864378392696380615e-02
-7.480750232934951782e-02
-7.672564592212438583e-03
-4.795352742075920105e-02
3.836282342672348022e-02
6.521680206060409546e-02
9.590705856680870056e-03
-1.726327091455459595e-02
5.946237593889236450e-02
8.439821004867553711e-02
-9.398891776800155640e-02
8.823449164628982544e-02
-6.329865753650665283e-02
1.918141148053109646e-03
9.590705856680870056e-03
-6.713493913412094116e-02
-1.553694307804107666e-01
-4.219910502433776855e-02
3.836282342672348022e-02
1.131703257560729980e-01
7.097122073173522949e-02
-3.836282342672348022e-02
-2.877211757004261017e-02
-4.411724582314491272e-02
-2.493583410978317261e-02
8.631635457277297974e-02
6.138051673769950867e-02
-3.452654182910919189e-02
-1.054977625608444214e-01
5.562609434127807617e-02
1.342698838561773300e-02
-4.987166821956634521e-02
-1.918141148053109646e-03
-9.398891776800155640e-02
-2.877211757004261017e-02
9.015263617038726807e-02
-1.918141171336174011e-02
-9.398891776800155640e-02
6.329865753650665283e-02
-1.189247518777847290e-01
1.150884665548801422e-02
8.439821004867553711e-02
2.493583410978317261e-02
0.000000000000000000e+00
4.795352742075920105e-02
-3.069025836884975433e-02
-2.301769331097602844e-02
3.452654182910919189e-02
-3.260840103030204773e-02
2.685397677123546600e-02
-1.726327091455459595e-02
-7.672564685344696045e-02
7.480750232934951782e-02
1.726327091455459595e-02
-4.603538662195205688e-02
-8.248007297515869141e-02
9.974333643913269043e-02
7.864378392696380615e-02
2.301769331097602844e-02
-9.207077324390411377e-02
-4.987166821956634521e-02
-1.534512937068939209e-01
1.726327091455459595e-02
5.370795354247093201e-02
5.562609434127807617e-02
4.219910502433776855e-02
-9.590705856680870056e-03
4.987166821956634521e-02
-1.726327091455459595e-02
9.590705856680870056e-03
-7.672564592212438583e-03
9.207077324390411377e-02
-8.056192845106124878e-02
6.713493913412094116e-02
-9.015263617038726807e-02
-1.342698838561773300e-02
-3.836282296106219292e-03
-5.946237593889236450e-02
-1.208428889513015747e-01
-2.877211757004261017e-02
-7.864378392696380615e-02
5.370795354247093201e-02
6.521680206060409546e-02
-5.754423327744007111e-03
-4.411724582314491272e-02
-7.480750232934951782e-02
9.590705856680870056e-03
2.685397677123546600e-02
7.672564685344696045e-02
1.342698838561773300e-02
-1.150884665548801422e-02
-8.823449164628982544e-02
4.411724582314491272e-02
1.534512918442487717e-02
2.109955251216888428e-02
6.329865753650665283e-02
1.496150046586990356e-01
8.439821004867553711e-02
0.000000000000000000e+00
-1.131703257560729980e-01
-3.069025836884975433e-02
1.265973150730133057e-01
7.480750232934951782e-02
-3.644468262791633606e-02
-2.493583410978317261e-02
1.918141148053109646e-03
9.398891776800155640e-02
-2.109955251216888428e-02
-4.987166821956634521e-02
-2.109955251216888428e-02
-1.150884665548801422e-02
-2.877211757004261017e-02
6.905308365821838379e-02
-3.452654182910919189e-02
7.480750232934951782e-02
6.905308365821838379e-02
4.411724582314491272e-02
8.823449164628982544e-02
-9.974333643913269043e-02
-7.480750232934951782e-02
-1.918141171336174011e-02
8.056192845106124878e-02
1.918141148053109646e-03
-5.562609434127807617e-02
7.672564592212438583e-03
4.603538662195205688e-02
-1.246791779994964600e-01
1.860596984624862671e-01
-1.400243043899536133e-01
5.562609434127807617e-02
-4.795352742075920105e-02
-1.112521886825561523e-01
1.150884665548801422e-02
-5.946237593889236450e-02
-1.285154521465301514e-01
-4.795352742075920105e-02
-6.138051673769950867e-02
4.219910502433776855e-02
-1.918141148053109646e-03
9.590705856680870056e-03
-2.301769331097602844e-02
-7.480750232934951782e-02
-3.069025836884975433e-02
4.028096422553062439e-02
-3.644468262791633606e-02
-3.260840103030204773e-02
-1.150884702801704407e-01
2.493583410978317261e-02
3.836282342672348022e-02
-1.342698838561773300e-02
-2.877211757004261017e-02
-4.987166821956634521e-02
-4.603538662195205688e-02
3.644468262791633606e-02
-6.138051673769950867e-02
-2.109955251216888428e-02
-7.288936525583267212e-02
-2.493583410978317261e-02
-6.521680206060409546e-02
5.946237593889236450e-02
-2.301769331097602844e-02
-4.603538662195205688e-02
4.028096422553062439e-02
1.918141171336174011e-02
4.028096422553062439e-02
-2.685397677123546600e-02
4.028096422553062439e-02
-1.342698838561773300e-02
-4.603538662195205688e-02
3.644468262791633606e-02
4.795352742075920105e-02
-1.342698838561773300e-02
-1.918141148053109646e-03
3.069025836884975433e-02
-2.301769331097602844e-02
5.754423514008522034e-02
-2.301769331097602844e-02
4.411724582314491272e-02
-5.754423514008522034e-02
-5.178981274366378784e-02
2.301769331097602844e-02
1.726327091455459595e-02
-4.028096422553062439e-02
-6.713493913412094116e-02
-2.685397677123546600e-02
-3.644468262791633606e-02
-7.672564592212438583e-03
-4.603538662195205688e-02
7.672564592212438583e-03
-2.301769331097602844e-02
-4.028096422553062439e-02
-4.219910502433776855e-02
5.562609434127807617e-02
-3.836282296106219292e-03
-4.411724582314491272e-02
2.877211757004261017e-02
-5.178981274366378784e-02
6.521680206060409546e-02
-3.260840103030204773e-02
-7.288936525583267212e-02
5.370795354247093201e-02
3.836282342672348022e-02
-4.795352742075920105e-02
2.301769331097602844e-02
7.288936525583267212e-02
-6.521680206060409546e-02
-6.329865753650665283e-02
-1.150884665548801422e-02
-3.069025836884975433e-02
4.795352742075920105e-02
2.877211757004261017e-02
-7.672564592212438583e-03
-2.877211757004261017e-02
7.672564685344696045e-02
1.534512918442487717e-02
-5.946237593889236450e-02
2.877211757004261017e-02
-1.918141148053109646e-03
-4.987166821956634521e-02
-1.150884665548801422e-02
0.000000000000000000e+00
-3.644468262791633606e-02
-5.562609434127807617e-02
-5.562609434127807617e-02
-6.521680206060409546e-02
9.590705856680870056e-03
-2.301769331097602844e-02
3.260840103030204773e-02
4.219910502433776855e-02
-5.562609434127807617e-02
1.918141171336174011e-02
1.918141148053109646e-03
1.534512918442487717e-02
-1.150884665548801422e-02
-6.521680206060409546e-02
-2.301769331097602844e-02
-4.219910502433776855e-02
4.795352742075920105e-02
-3.644468262791633606e-02
5.754423327744007111e-03
5.946237593889236450e-02
3.069025836884975433e-02
3.644468262791633606e-02
3.260840103030204773e-02
-1.342698838561773300e-02
1.726327091455459595e-02
4.219910502433776855e-02
-5.946237593889236450e-02
7.672564592212438583e-03
4.603538662195205688e-02
5.754423514008522034e-02
7.672564592212438583e-03
3.069025836884975433e-02
-4.219910502433776855e-02
4.411724582314491272e-02
-4.795352742075920105e-02
4.028096422553062439e-02
-4.219910502433776855e-02
2.493583410978317261e-02
-3.644468262791633606e-02
3.452654182910919189e-02
-4.603538662195205688e-02
-4.219910502433776855e-02
-6.521680206060409546e-02
3.836282342672348022e-02
-5.178981274366378784e-02
-5.562609434127807617e-02
4.028096422553062439e-02
-2.109955251216888428e-02
1.918141171336174011e-02
1.726327091455459595e-02
1.534512918442487717e-02
-1.918141148053109646e-03
2.109955251216888428e-02
-3.644468262791633606e-02
4.603538662195205688e-02
4.987166821956634521e-02
-2.109955251216888428e-02
-7.672564592212438583e-03
7.672564592212438583e-03
4.795352742075920105e-02
-1.918141148053109646e-03
-5.178981274366378784e-02
-7.097122073173522949e-02
-1.918141171336174011e-02
-1.342698838561773300e-02
3.644468262791633606e-02
-4.411724582314491272e-02
-1.534512918442487717e-02
-3.260840103030204773e-02
-2.493583410978317261e-02
-4.028096422553062439e-02
3.836282296106219292e-03
-3.069025836884975433e-02
-4.219910502433776855e-02
5.754423514008522034e-02
1.726327091455459595e-02
4.028096422553062439e-02
-6.329865753650665283e-02
-4.795352742075920105e-02
9.590705856680870056e-03
3.644468262791633606e-02
1.342698838561773300e-02
-4.411724582314491272e-02
-7.672564592212438583e-03
-4.411724582314491272e-02
5.562609434127807617e-02
-4.411724582314491272e-02
-5.754423514008522034e-02
-1.726327091455459595e-02
-2.301769331097602844e-02
5.370795354247093201e-02
-2.877211757004261017e-02
-6.329865753650665283e-02
3.836282296106219292e-03
3.260840103030204773e-02
-3.260840103030204773e-02
3.644468262791633606e-02
-3.644468262791633606e-02
2.685397677123546600e-02
2.301769331097602844e-02
-9.590705856680870056e-03
-3.260840103030204773e-02
2.877211757004261017e-02
-5.370795354247093201e-02
4.987166821956634521e-02
-1.342698838561773300e-02
3.260840103030204773e-02
-5.178981274366378784e-02
3.836282342672348022e-02
7.672564592212438583e-03
2.301769331097602844e-02
-4.987166821956634521e-02
3.836282342672348022e-02
-1.342698838561773300e-02
-5.370795354247093201e-02
-2.877211757004261017e-02
4.987166821956634521e-02
4.603538662195205688e-02
-4.987166821956634521e-02
-4.987166821956634521e-02
-9.590705856680870056e-03
-1.342698838561773300e-02
-5.562609434127807617e-02
2.685397677123546600e-02
-6.138051673769950867e-02
-1.918141171336174011e-02
-3.069025836884975433e-02
-7.672564592212438583e-03
5.562609434127807617e-02
1.918141148053109646e-03
4.987166821956634521e-02
-7.672564592212438583e-03
3.644468262791633606e-02
-3.069025836884975433e-02
-7.672564592212438583e-03
-1.726327091455459595e-02
3.836282296106219292e-03
-2.877211757004261017e-02
2.877211757004261017e-02
-1.342698838561773300e-02
3.260840103030204773e-02
3.836282296106219292e-03
-5.754423514008522034e-02
-2.301769331097602844e-02
3.836282296106219292e-03
-3.836282296106219292e-03
3.260840103030204773e-02
-3.836282296106219292e-03
-1.150884665548801422e-02
4.219910502433776855e-02
2.685397677123546600e-02
2.301769331097602844e-02
2.493583410978317261e-02
4.219910502433776855e-02
-1.150884665548801422e-02
-3.260840103030204773e-02
-1.342698838561773300e-02
5.562609434127807617e-02
2.685397677123546600e-02
-1.534512918442487717e-02
-4.219910502433776855e-02
3.836282342672348022e-02
7.288936525583267212e-02
-5.562609434127807617e-02
-4.795352742075920105e-02
-3.644468262791633606e-02
2.109955251216888428e-02
-1.534512918442487717e-02
-4.987166821956634521e-02
2.685397677123546600e-02
7.672564592212438583e-03
-1.342698838561773300e-02
-3.069025836884975433e-02
-5.754423514008522034e-02
-2.877211757004261017e-02
-3.069025836884975433e-02
-1.918141148053109646e-03
2.493583410978317261e-02
-4.987166821956634521e-02
2.685397677123546600e-02
-7.672564592212438583e-03
4.028096422553062439e-02
9.590705856680870056e-03
3.836282342672348022e-02
-9.782519936561584473e-02
-2.301769331097602844e-02
2.109955251216888428e-02
1.035796254873275757e-01
8.631635457277297974e-02
7.097122073173522949e-02
-3.644468262791633606e-02
5.754423327744007111e-03
-9.207077324390411377e-02
-6.713493913412094116e-02
-4.028096422553062439e-02
4.411724582314491272e-02
-8.439821004867553711e-02
-1.342698838561773300e-02
-9.015263617038726807e-02
3.836282296106219292e-03
7.288936525583267212e-02
-5.178981274366378784e-02
1.304336041212081909e-01
-4.603538662195205688e-02
9.782519936561584473e-02
4.987166821956634521e-02
4.411724582314491272e-02
4.795352742075920105e-02
1.534512918442487717e-02
-9.590705484151840210e-02
-4.411724582314491272e-02
4.219910502433776855e-02
-2.877211757004261017e-02
6.521680206060409546e-02
1.093340441584587097e-01
4.028096422553062439e-02
-4.219910502433776855e-02
-5.370795354247093201e-02
-4.603538662195205688e-02
1.400243043899536133e-01
-7.672564685344696045e-02
-4.795352742075920105e-02
3.452654182910919189e-02
-5.946237593889236450e-02
-6.521680206060409546e-02
4.028096422553062439e-02
1.534512918442487717e-02
5.946237593889236450e-02
6.713493913412094116e-02
-4.411724582314491272e-02
7.672564592212438583e-03
7.672564592212438583e-03
5.946237593889236450e-02
1.400243043899536133e-01
4.987166821956634521e-02
4.219910502433776855e-02
-3.069025836884975433e-02
8.631635457277297974e-02
6.138051673769950867e-02
-7.480750232934951782e-02
-1.918141148053109646e-03
-4.987166821956634521e-02
3.836282342672348022e-02
5.754423514008522034e-02
2.685397677123546600e-02
-1.918141148053109646e-03
3.260840103030204773e-02
-3.836282342672348022e-02
-1.342698838561773300e-02
1.189247518777847290e-01
-8.248007297515869141e-02
-9.015263617038726807e-02
1.918141171336174011e-02
-3.644468262791633606e-02
1.150884665548801422e-02
-4.028096422553062439e-02
-5.754423514008522034e-02
-4.987166821956634521e-02
9.590705484151840210e-02
1.342698838561773300e-02
2.493583410978317261e-02
1.726327091455459595e-02
-2.109955251216888428e-02
9.207077324390411377e-02
0.000000000000000000e+00
-3.836282296106219292e-03
-1.035796254873275757e-01
6.521680206060409546e-02
-6.713493913412094116e-02
-2.493583410978317261e-02
4.219910502433776855e-02
7.097122073173522949e-02
-6.713493913412094116e-02
5.946237593889236450e-02
-9.590705484151840210e-02
-3.836282296106219292e-03
-5.754423514008522034e-02
1.208428889513015747e-01
9.590705856680870056e-03
1.553694307804107666e-01
2.301769331097602844e-02
8.248007297515869141e-02
3.069025836884975433e-02
-6.905308365821838379e-02
-2.685397677123546600e-02
-4.411724582314491272e-02
9.782519936561584473e-02
-4.411724582314491272e-02
-1.150884665548801422e-02
-6.713493913412094116e-02
1.150884665548801422e-02
-1.342698838561773300e-02
4.219910502433776855e-02
-9.974333643913269043e-02
4.795352742075920105e-02
-3.836282342672348022e-02
-1.342698838561773300e-02
-1.342698838561773300e-02
-6.905308365821838379e-02
3.069025836884975433e-02
1.707145571708679199e-01
-4.603538662195205688e-02
-9.590705856680870056e-03
-7.672564592212438583e-03
-3.452654182910919189e-02
-9.590705856680870056e-03
-8.439821004867553711e-02
5.370795354247093201e-02
-5.178981274366378784e-02
-5.754423514008522034e-02
-2.685397677123546600e-02
5.178981274366378784e-02
3.644468262791633606e-02
-6.138051673769950867e-02
-5.370795354247093201e-02
3.644468262791633606e-02
1.918141171336174011e-02
1.150884665548801422e-02
3.260840103030204773e-02
5.370795354247093201e-02
3.644468262791633606e-02
8.056192845106124878e-02
2.493583410978317261e-02
3.644468262791633606e-02
1.515331566333770752e-01
-1.726327091455459595e-02
-3.260840103030204773e-02
7.672564592212438583e-03
-6.521680206060409546e-02
7.672564685344696045e-02
7.672564685344696045e-02
1.918141171336174011e-02
1.918141171336174011e-02
9.015263617038726807e-02
1.112521886825561523e-01
1.342698838561773300e-02
8.823449164628982544e-02
3.836282296106219292e-03
-3.836282296106219292e-03
1.476968675851821899e-01
1.918141171336174011e-02
-7.288936525583267212e-02
1.208428889513015747e-01
-1.342698838561773300e-02
9.590705484151840210e-02
-4.411724582314491272e-02
6.138051673769950867e-02
1.074159070849418640e-01
7.480750232934951782e-02
8.439821004867553711e-02
-1.726327091455459595e-02
-6.329865753650665283e-02
-3.260840103030204773e-02
2.685397677123546600e-02
-5.754423514008522034e-02
9.590705856680870056e-03
5.370795354247093201e-02
1.534512918442487717e-02
3.836282342672348022e-02
3.644468262791633606e-02
5.754423514008522034e-02
7.672564685344696045e-02
1.400243043899536133e-01
1.342698838561773300e-02
-1.918141171336174011e-02
-4.219910502433776855e-02
-1.150884665548801422e-02
-6.713493913412094116e-02
2.493583410978317261e-02
-1.534512918442487717e-02
-6.905308365821838379e-02
-6.329865753650665283e-02
-1.918141171336174011e-02
7.097122073173522949e-02
5.178981274366378784e-02
3.452654182910919189e-02
3.452654182910919189e-02
-9.590705856680870056e-03
1.093340441584587097e-01
-1.918141171336174011e-02
-6.138051673769950867e-02
3.644468262791633606e-02
9.590705856680870056e-03
-1.150884665548801422e-02
-5.178981274366378784e-02
-4.795352742075920105e-02
-5.754423514008522034e-02
1.150884665548801422e-02
1.342698838561773300e-02
5.562609434127807617e-02
7.864378392696380615e-02
1.726327091455459595e-02
-6.521680206060409546e-02
4.411724582314491272e-02
-1.016614809632301331e-01
2.877211757004261017e-02
-9.974333643913269043e-02
-5.370795354247093201e-02
-1.150884665548801422e-02
0.000000000000000000e+00
3.644468262791633606e-02
-2.301769331097602844e-02
9.590705484151840210e-02
-2.493583410978317261e-02
4.987166821956634521e-02
3.644468262791633606e-02
9.207077324390411377e-02
1.170066073536872864e-01
-4.028096422553062439e-02
5.178981274366378784e-02
-4.219910502433776855e-02
9.015263617038726807e-02
-4.411724582314491272e-02
-7.864378392696380615e-02
-7.672564592212438583e-03
-8.056192845106124878e-02
9.590705484151840210e-02
9.590705856680870056e-03
-4.795352742075920105e-02
-9.782519936561584473e-02
7.864378392696380615e-02
-5.370795354247093201e-02
2.109955251216888428e-02
-6.521680206060409546e-02
-8.056192845106124878e-02
-4.795352742075920105e-02
5.754423514008522034e-02
-2.877211757004261017e-02
-1.918141171336174011e-02
-4.795352742075920105e-02
-4.795352742075920105e-02
7.672564592212438583e-03
-1.918141171336174011e-02
4.603538662195205688e-02
2.109955251216888428e-02
4.795352742075920105e-02
-5.754423514008522034e-02
0.000000000000000000e+00
-1.534512918442487717e-02
-9.590705856680870056e-03
-2.493583410978317261e-02
-1.918141171336174011e-02
7.864378392696380615e-02
-6.905308365821838379e-02
6.713493913412094116e-02
-1.726327091455459595e-02
7.672564592212438583e-03
4.987166821956634521e-02
8.439821004867553711e-02
-1.323517411947250366e-01
-1.534512918442487717e-02
5.370795354247093201e-02
1.668782830238342285e-01
2.301769331097602844e-02
-1.918141171336174011e-02
7.672564685344696045e-02
1.035796254873275757e-01
-1.726327091455459595e-02
-3.452654182910919189e-02
2.685397677123546600e-02
-8.439821004867553711e-02
-4.219910502433776855e-02
-1.438605934381484985e-01
5.946237593889236450e-02
1.918141148053109646e-03
1.054977625608444214e-01
1.918141148053109646e-03
-1.342698838561773300e-02
0.000000000000000000e+00
-7.097122073173522949e-02
-1.131703257560729980e-01
-6.138051673769950867e-02
-7.288936525583267212e-02
9.207077324390411377e-02
1.707145571708679199e-01
-4.987166821956634521e-02
-1.534512918442487717e-02
2.685397677123546600e-02
8.248007297515869141e-02
-1.534512918442487717e-02
5.754423327744007111e-03
7.288936525583267212e-02
2.493583410978317261e-02
9.398891776800155640e-02
9.590705856680870056e-03
3.836282342672348022e-02
-7.480750232934951782e-02
5.946237593889236450e-02
5.754423327744007111e-03
-5.946237593889236450e-02
3.836282296106219292e-03
1.227610334753990173e-01
-3.069025836884975433e-02
-1.170066073536872864e-01
-1.592057198286056519e-01
-5.754423327744007111e-03
1.342698838561773300e-02
9.590705856680870056e-03
1.227610334753990173e-01
-5.370795354247093201e-02
-5.754423514008522034e-02
5.754423514008522034e-02
-5.178981274366378784e-02
6.138051673769950867e-02
7.480750232934951782e-02
-7.672564592212438583e-03
-3.452654182910919189e-02
9.590705856680870056e-03
7.672564592212438583e-03
-9.590705856680870056e-03
4.411724582314491272e-02
-1.918141148053109646e-03
-7.864378392696380615e-02
-1.534512918442487717e-02
0.000000000000000000e+00
6.138051673769950867e-02
9.207077324390411377e-02
-3.836282296106219292e-03
-3.069025836884975433e-02
-8.631635457277297974e-02
1.534512918442487717e-02
-5.178981274366378784e-02
1.726327091455459595e-02
-5.370795354247093201e-02
1.323517411947250366e-01
-2.493583410978317261e-02
1.342698838561773300e-02
-8.631635457277297974e-02
1.054977625608444214e-01
-1.093340441584587097e-01
6.138051673769950867e-02
-5.946237593889236450e-02
1.342698838561773300e-02
-4.411724582314491272e-02
-6.138051673769950867e-02
-1.150884702801704407e-01
-5.754423327744007111e-03
-1.572875678539276123e-01
-9.015263617038726807e-02
8.248007297515869141e-02
-7.672564592212438583e-03
-6.138051673769950867e-02
1.534512918442487717e-02
1.572875678539276123e-01
5.754423514008522034e-02
-3.836282342672348022e-02
3.260840103030204773e-02
-1.074159070849418640e-01
1.054977625608444214e-01
8.823449164628982544e-02
-4.411724582314491272e-02
-5.946237593889236450e-02
5.754423327744007111e-03
-3.836282296106219292e-03
5.370795354247093201e-02
-9.398891776800155640e-02
-5.754423514008522034e-02
7.288936525583267212e-02
-1.208428889513015747e-01
-4.411724582314491272e-02
-9.398891776800155640e-02
1.150884665548801422e-02
-1.534512918442487717e-02
2.877211757004261017e-02
-3.836282342672348022e-02
-1.150884665548801422e-02
5.754423514008522034e-02
-4.219910502433776855e-02
8.056192845106124878e-02
-8.248007297515869141e-02
1.726327091455459595e-02
4.219910502433776855e-02
5.562609434127807617e-02
-1.074159070849418640e-01
-2.301769331097602844e-02
-5.370795354247093201e-02
5.178981274366378784e-02
-1.016614809632301331e-01
7.097122073173522949e-02
7.097122073173522949e-02
-7.672564592212438583e-03
-3.069025836884975433e-02
1.016614809632301331e-01
1.150884665548801422e-02
5.370795354247093201e-02
-3.836282296106219292e-03
-1.035796254873275757e-01
-3.836282296106219292e-03
-1.918141148053109646e-03
-1.093340441584587097e-01
-6.905308365821838379e-02
-9.590705856680870056e-03
3.452654182910919189e-02
5.754423514008522034e-02
-5.178981274366378784e-02
-8.056192845106124878e-02
3.836282342672348022e-02
9.590705484151840210e-02
-1.918141148053109646e-03
-5.562609434127807617e-02
-3.260840103030204773e-02
1.918141171336174011e-02
6.329865753650665283e-02
-1.150884702801704407e-01
-1.304336041212081909e-01
-2.493583410978317261e-02
-8.823449164628982544e-02
8.631635457277297974e-02
6.905308365821838379e-02
-6.329865753650665283e-02
3.260840103030204773e-02
9.590705856680870056e-03
2.877211757004261017e-02
4.219910502433776855e-02
-1.726327091455459595e-02
4.411724582314491272e-02
-2.301769331097602844e-02
-6.521680206060409546e-02
-1.534512918442487717e-02
5.946237593889236450e-02
4.795352742075920105e-02
1.726327091455459595e-02
3.836282296106219292e-03
2.877211757004261017e-02
3.260840103030204773e-02
-1.150884665548801422e-02
8.439821004867553711e-02
1.227610334753990173e-01
5.946237593889236450e-02
-1.189247518777847290e-01
-4.603538662195205688e-02
-6.329865753650665283e-02
8.439821004867553711e-02
7.480750232934951782e-02
4.795352742075920105e-02
-1.342698838561773300e-02
3.836282342672348022e-02
4.411724582314491272e-02
2.685397677123546600e-02
-6.905308365821838379e-02
-8.823449164628982544e-02
1.918141148053109646e-03
4.411724582314491272e-02
-1.918141171336174011e-02
-5.754423327744007111e-03
1.918141148053109646e-03
-1.170066073536872864e-01
-7.672564685344696045e-02
7.864378392696380615e-02
-7.480750232934951782e-02
7.672564685344696045e-02
-6.521680206060409546e-02
1.150884665548801422e-02
-5.562609434127807617e-02
1.918141148053109646e-03
8.056192845106124878e-02
4.219910502433776855e-02
-8.823449164628982544e-02
2.301769331097602844e-02
2.109955251216888428e-02
1.189247518777847290e-01
-1.189247518777847290e-01
-7.480750232934951782e-02
-1.016614809632301331e-01
7.672564685344696045e-02
-9.590705856680870056e-03
-5.178981274366378784e-02
6.905308365821838379e-02
-3.836282296106219292e-03
1.592057198286056519e-01
-1.918141148053109646e-03
1.035796254873275757e-01
-9.207077324390411377e-02
-5.562609434127807617e-02
-9.590705484151840210e-02
1.342698838561773300e-02
-6.521680206060409546e-02
5.754423327744007111e-03
-4.987166821956634521e-02
-1.131703257560729980e-01
6.713493913412094116e-02
-8.823449164628982544e-02
-1.150884665548801422e-02
7.480750232934951782e-02
8.823449164628982544e-02
-9.015263617038726807e-02
-1.438605934381484985e-01
-2.109955251216888428e-02
6.521680206060409546e-02
-1.016614809632301331e-01
-5.370795354247093201e-02
-7.672564592212438583e-03
-9.590705856680870056e-03
-8.631635457277297974e-02
6.713493913412094116e-02
-7.672564592212438583e-03
-8.631635457277297974e-02
1.726327091455459595e-02
7.288936525583267212e-02
-3.836282296106219292e-03
5.370795354247093201e-02
2.877211757004261017e-02
0.000000000000000000e+00
-9.590705856680870056e-03
9.590705856680870056e-03
-8.248007297515869141e-02
-4.987166821956634521e-02
-4.795352742075920105e-02
1.457787305116653442e-01
3.644468262791633606e-02
-5.178981274366378784e-02
4.603538662195205688e-02
-1.918141171336174011e-02
-2.493583410978317261e-02
-9.590705856680870056e-03
4.795352742075920105e-02
1.457787305116653442e-01
-5.754423327744007111e-03
6.521680206060409546e-02
8.248007297515869141e-02
5.370795354247093201e-02
-1.054977625608444214e-01
3.836282296106219292e-03
1.918141171336174011e-02
3.260840103030204773e-02
1.131703257560729980e-01
3.452654182910919189e-02
6.329865753650665283e-02
-5.754423514008522034e-02
-1.918141171336174011e-02
-1.476968675851821899e-01
5.562609434127807617e-02
-5.946237593889236450e-02
5.370795354247093201e-02
1.381061673164367676e-01
-5.370795354247093201e-02
3.069025836884975433e-02
1.093340441584587097e-01
-8.631635457277297974e-02
1.131703257560729980e-01
-5.370795354247093201e-02
1.918141148053109646e-03
-9.015263617038726807e-02
3.836282342672348022e-02
-1.227610334753990173e-01
1.726327091455459595e-02
-1.074159070849418640e-01
1.246791779994964600e-01
3.069025836884975433e-02
-1.342698838561773300e-02
5.178981274366378784e-02
-5.946237593889236450e-02
7.097122073173522949e-02
5.370795354247093201e-02
9.398891776800155640e-02
4.987166821956634521e-02
-3.836282342672348022e-02
1.035796254873275757e-01
-7.480750232934951782e-02
-1.342698782682418823e-01
-1.918141171336174011e-02
1.035796254873275757e-01
-1.630419939756393433e-01
-3.260840103030204773e-02
5.754423327744007111e-03
-7.288936525583267212e-02
1.381061673164367676e-01
1.918141171336174011e-02
-3.836282342672348022e-02
-1.112521886825561523e-01
-7.864378392696380615e-02
3.644468262791633606e-02
-3.836282296106219292e-03
-8.056192845106124878e-02
2.685397677123546600e-02
1.342698838561773300e-02
-8.631635457277297974e-02
1.150884665548801422e-02
-3.069025836884975433e-02
-1.726327091455459595e-02
9.782519936561584473e-02
5.562609434127807617e-02
-2.109955251216888428e-02
-1.592057198286056519e-01
-9.398891776800155640e-02
-5.754423514008522034e-02
-5.370795354247093201e-02
-4.603538662195205688e-02
-7.480750232934951782e-02
1.093340441584587097e-01
-1.265973150730133057e-01
6.521680206060409546e-02
-3.069025836884975433e-02
1.189247518777847290e-01
7.672564685344696045e-02
-1.918141148053109646e-03
5.946237593889236450e-02
-1.918141171336174011e-02
6.905308365821838379e-02
-4.795352742075920105e-02
1.726327091455459595e-02
-2.877211757004261017e-02
1.150884665548801422e-02
-2.301769331097602844e-02
7.672564685344696045e-02
-2.109955251216888428e-02
2.109955251216888428e-02
7.672564592212438583e-03
1.918141171336174011e-02
-9.590705484151840210e-02
5.946237593889236450e-02
7.672564592212438583e-03
1.419424414634704590e-01
-7.672564592212438583e-03
5.946237593889236450e-02
6.521680206060409546e-02
-2.685397677123546600e-02
7.097122073173522949e-02
-2.301769331097602844e-02
-6.521680206060409546e-02
-1.342698782682418823e-01
1.074159070849418640e-01
8.823449164628982544e-02
2.877211757004261017e-02
-2.877211757004261017e-02
-5.946237593889236450e-02
-2.109955251216888428e-02
-7.864378392696380615e-02
4.603538662195205688e-02
-3.069025836884975433e-02
4.411724582314491272e-02
-8.439821004867553711e-02
2.685397677123546600e-02
-4.028096422553062439e-02
-2.301769331097602844e-02
4.219910502433776855e-02
5.178981274366378784e-02
-2.301769331097602844e-02
3.452654182910919189e-02
-1.400243043899536133e-01
1.150884665548801422e-02
1.342698838561773300e-02
-3.836282296106219292e-03
-4.987166821956634521e-02
-4.411724582314491272e-02
3.452654182910919189e-02
1.342698782682418823e-01
3.836282296106219292e-03
-1.918141171336174011e-02
-1.093340441584587097e-01
1.093340441584587097e-01
9.590705484151840210e-02
-9.015263617038726807e-02
1.342698838561773300e-02
-7.480750232934951782e-02
1.918141171336174011e-02
-3.644468262791633606e-02
1.918141148053109646e-03
4.603538662195205688e-02
-3.836282296106219292e-03
1.131703257560729980e-01
7.864378392696380615e-02
1.150884665548801422e-02
5.178981274366378784e-02
-1.342698838561773300e-02
2.109955251216888428e-02
-6.905308365821838379e-02
-1.342698782682418823e-01
-4.987166821956634521e-02
4.219910502433776855e-02
9.782519936561584473e-02
-5.946237593889236450e-02
6.521680206060409546e-02
2.685397677123546600e-02
4.219910502433776855e-02
-9.590705484151840210e-02
-1.170066073536872864e-01
6.713493913412094116e-02
3.644468262791633606e-02
-7.672564685344696045e-02
4.411724582314491272e-02
2.301769331097602844e-02
8.631635457277297974e-02
-2.493583410978317261e-02
1.476968675851821899e-01
4.795352742075920105e-02
9.782519936561584473e-02
-2.685397677123546600e-02
5.754423327744007111e-03
3.836282342672348022e-02
5.946237593889236450e-02
-3.452654182910919189e-02
-4.795352742075920105e-02
-2.685397677123546600e-02
6.329865753650665283e-02
-2.109955251216888428e-02
-4.603538662195205688e-02
-6.713493913412094116e-02
-8.439821004867553711e-02
1.150884702801704407e-01
-2.301769331097602844e-02
1.150884665548801422e-02
2.109955251216888428e-02
8.248007297515869141e-02
6.713493913412094116e-02
0.000000000000000000e+00
1.016614809632301331e-01
-5.370795354247093201e-02
-8.823449164628982544e-02
3.069025836884975433e-02
2.109955251216888428e-02
-3.644468262791633606e-02
7.288936525583267212e-02
-8.056192845106124878e-02
1.726327091455459595e-01
-1.726327091455459595e-02
1.496150046586990356e-01
-1.016614809632301331e-01
-4.219910502433776855e-02
1.150884665548801422e-02
1.054977625608444214e-01
1.093340441584587097e-01
-4.219910502433776855e-02
1.918141148053109646e-03
2.109955251216888428e-02
6.905308365821838379e-02
-2.493583410978317261e-02
-9.207077324390411377e-02
3.069025836884975433e-02
-1.592057198286056519e-01
7.672564592212438583e-03
-7.480750232934951782e-02
9.207077324390411377e-02
1.726327091455459595e-02
-1.150884702801704407e-01
6.713493913412094116e-02
-9.782519936561584473e-02
-9.398891776800155640e-02
-1.170066073536872864e-01
1.035796254873275757e-01
-1.918141171336174011e-02
-3.452654182910919189e-02
-8.056192845106124878e-02
7.288936525583267212e-02
-3.644468262791633606e-02
-2.877211757004261017e-02
-9.398891776800155640e-02
1.285154521465301514e-01
6.138051673769950867e-02
-3.260840103030204773e-02
-1.918141171336174011e-02
1.054977625608444214e-01
1.534512918442487717e-02
-6.713493913412094116e-02
6.329865753650665283e-02
2.493583410978317261e-02
-1.918141171336174011e-02
-9.015263617038726807e-02
-2.493583410978317261e-02
7.672564592212438583e-03
3.644468262791633606e-02
-3.836282296106219292e-03
-1.726327091455459595e-02
-8.823449164628982544e-02
2.877211757004261017e-02
-5.754423327744007111e-03
5.946237593889236450e-02
-8.056192845106124878e-02
-2.109955251216888428e-02
5.946237593889236450e-02
-2.493583410978317261e-02
-5.754423327744007111e-03
-8.439821004867553711e-02
-2.493583410978317261e-02
-5.754423327744007111e-03
-4.795352742075920105e-02
-1.918141171336174011e-02
1.112521886825561523e-01
-3.836282296106219292e-03
8.248007297515869141e-02
-1.918141171336174011e-02
-8.248007297515869141e-02
-3.836282342672348022e-02
-8.439821004867553711e-02
1.534512918442487717e-02
5.946237593889236450e-02
1.074159070849418640e-01
5.562609434127807617e-02
6.521680206060409546e-02
-9.590705856680870056e-03
-1.150884665548801422e-02
1.572875678539276123e-01
-1.093340441584587097e-01
-4.603538662195205688e-02
1.918141148053109646e-03
3.836282296106219292e-03
-2.685397677123546600e-02
4.603538662195205688e-02
5.370795354247093201e-02
-5.754423327744007111e-03
-1.150884665548801422e-02
-5.754423514008522034e-02
1.476968675851821899e-01
-5.562609434127807617e-02
9.207077324390411377e-02
-1.342698838561773300e-02
7.672564685344696045e-02
-9.590705856680870056e-03
-2.877211757004261017e-02
-6.713493913412094116e-02
-7.097122073173522949e-02
-1.726327091455459595e-02
-1.342698782682418823e-01
3.452654182910919189e-02
1.189247518777847290e-01
3.069025836884975433e-02
2.493583410978317261e-02
-9.590705856680870056e-03
1.572875678539276123e-01
-1.918141148053109646e-03
-3.836282342672348022e-02
2.301769331097602844e-02
-1.246791779994964600e-01
3.260840103030204773e-02
9.974333643913269043e-02
1.553694307804107666e-01
-1.035796254873275757e-01
1.150884665548801422e-02
8.056192845106124878e-02
-2.109955251216888428e-02
9.398891776800155640e-02
-1.131703257560729980e-01
-6.521680206060409546e-02
5.754423327744007111e-03
-5.370795354247093201e-02
1.208428889513015747e-01
3.836282296106219292e-03
-8.439821004867553711e-02
1.726327091455459595e-02
6.905308365821838379e-02
9.398891776800155640e-02
-6.521680206060409546e-02
1.074159070849418640e-01
-7.672564592212438583e-03
-2.685397677123546600e-02
-3.644468262791633606e-02
-4.028096422553062439e-02
-4.603538662195205688e-02
-9.782519936561584473e-02
1.918141171336174011e-02
4.028096422553062439e-02
4.795352742075920105e-02
3.644468262791633606e-02
-7.097122073173522949e-02
2.877211757004261017e-02
0.000000000000000000e+00
-9.207077324390411377e-02
3.644468262791633606e-02
3.836282342672348022e-02
1.189247518777847290e-01
7.672564592212438583e-03
1.074159070849418640e-01
-4.028096422553062439e-02
1.150884665548801422e-02
-6.713493913412094116e-02
8.056192845106124878e-02
6.713493913412094116e-02
-9.398891776800155640e-02
-1.918141171336174011e-02
1.438605934381484985e-01
-1.208428889513015747e-01
9.015263617038726807e-02
4.795352742075920105e-02
7.097122073173522949e-02
-1.918141171336174011e-02
5.754423327744007111e-03
7.672564685344696045e-02
-1.016614809632301331e-01
-4.987166821956634521e-02
-3.069025836884975433e-02
2.877211757004261017e-02
8.439821004867553711e-02
1.285154521465301514e-01
-4.795352742075920105e-02
-2.685397677123546600e-02
-4.028096422553062439e-02
0.000000000000000000e+00
1.457787305116653442e-01
-1.918141171336174011e-02
-2.301769331097602844e-02
-5.754423327744007111e-03
-3.260840103030204773e-02
-2.877211757004261017e-02
-1.918141171336174011e-02
-8.631635457277297974e-02
-6.905308365821838379e-02
-3.260840103030204773e-02
-4.795352742075920105e-02
-7.672564685344696045e-02
5.562609434127807617e-02
7.672564685344696045e-02
2.877211757004261017e-02
-1.323517411947250366e-01
-3.836282342672348022e-02
1.361880153417587280e-01
1.054977625608444214e-01
-1.918141171336174011e-02
-1.150884665548801422e-02
5.370795354247093201e-02
-4.219910502433776855e-02
9.590705856680870056e-03
-1.496150046586990356e-01
-5.370795354247093201e-02
1.227610334753990173e-01
3.644468262791633606e-02
9.590705856680870056e-03
0.000000000000000000e+00
-6.521680206060409546e-02
-8.439821004867553711e-02
-2.109955251216888428e-02
9.590705856680870056e-03
0.000000000000000000e+00
5.946237593889236450e-02
9.207077324390411377e-02
1.265973150730133057e-01
-3.836282296106219292e-03
3.452654182910919189e-02
4.795352742075920105e-02
-1.112521886825561523e-01
9.590705856680870056e-03
3.836282342672348022e-02
-2.493583410978317261e-02
9.398891776800155640e-02
-4.028096422553062439e-02
1.054977625608444214e-01
5.754423327744007111e-03
4.603538662195205688e-02
-7.480750232934951782e-02
-9.207077324390411377e-02
1.726327091455459595e-02
-1.189247518777847290e-01
4.411724582314491272e-02
2.877211757004261017e-02
2.685397677123546600e-02
3.452654182910919189e-02
-6.521680206060409546e-02
-1.074159070849418640e-01
3.836282296106219292e-03
-1.918141171336174011e-02
-4.795352742075920105e-02
-2.685397677123546600e-02
-1.534512918442487717e-02
3.644468262791633606e-02
-3.260840103030204773e-02
4.028096422553062439e-02
3.260840103030204773e-02
-3.452654182910919189e-02
1.112521886825561523e-01
-1.150884665548801422e-02
-4.987166821956634521e-02
3.836282296106219292e-03
-8.439821004867553711e-02
-6.713493913412094116e-02
9.590705484151840210e-02
-3.836282342672348022e-02
5.946237593889236450e-02
7.672564592212438583e-03
-2.301769331097602844e-02
7.672564685344696045e-02
8.248007297515869141e-02
-1.918141171336174011e-02
-1.534512918442487717e-02
-4.219910502433776855e-02
1.726327091455459595e-02
-1.918141171336174011e-02
-4.603538662195205688e-02
-9.590705856680870056e-03
-4.028096422553062439e-02
5.562609434127807617e-02
9.974333643913269043e-02
-9.015263617038726807e-02
3.452654182910919189e-02
-5.754423514008522034e-02
9.974333643913269043e-02
-4.987166821956634521e-02
9.398891776800155640e-02
-1.150884665548801422e-02
4.219910502433776855e-02
-2.109955251216888428e-02
-7.097122073173522949e-02
5.754423514008522034e-02
-5.754423327744007111e-03
1.860596984624862671e-01
-3.260840103030204773e-02
1.016614809632301331e-01
-9.590705484151840210e-02
1.918141148053109646e-03
-9.590705484151840210e-02
5.370795354247093201e-02
1.534512918442487717e-02
-9.590705856680870056e-03
1.074159070849418640e-01
1.342698838561773300e-02
-1.112521886825561523e-01
-4.795352742075920105e-02
-5.754423327744007111e-03
1.342698838561773300e-02
-5.562609434127807617e-02
-1.265973150730133057e-01
3.644468262791633606e-02
4.219910502433776855e-02
-5.562609434127807617e-02
-2.685397677123546600e-02
-3.836282342672348022e-02
-8.631635457277297974e-02
0.000000000000000000e+00
-6.329865753650665283e-02
-6.521680206060409546e-02
-5.754423514008522034e-02
9.974333643913269043e-02
3.836282342672348022e-02
4.219910502433776855e-02
-8.056192845106124878e-02
1.227610334753990173e-01
7.097122073173522949e-02
-1.918141171336174011e-02
-1.918141148053109646e-03
3.836282296106219292e-03
7.288936525583267212e-02
1.726327091455459595e-02
3.836282296106219292e-03
0.000000000000000000e+00
5.370795354247093201e-02
-3.452654182910919189e-02
-5.562609434127807617e-02
-7.672564592212438583e-03
5.946237593889236450e-02
3.644468262791633606e-02
-9.590705856680870056e-03
3.644468262791633606e-02
-3.644468262791633606e-02
5.178981274366378784e-02
-1.285154521465301514e-01
7.480750232934951782e-02
4.219910502433776855e-02
4.219910502433776855e-02
5.562609434127807617e-02
-6.329865753650665283e-02
9.590705856680870056e-03
-2.301769331097602844e-02
-4.603538662195205688e-02
4.795352742075920105e-02
0.000000000000000000e+00
-3.836282342672348022e-02
-2.685397677123546600e-02
4.411724582314491272e-02
4.603538662195205688e-02
-5.562609434127807617e-02
-9.207077324390411377e-02
3.069025836884975433e-02
-1.150884665548801422e-02
-2.493583410978317261e-02
1.534512918442487717e-02
-3.644468262791633606e-02
-1.726327091455459595e-02
2.877211757004261017e-02
-3.644468262791633606e-02
4.219910502433776855e-02
1.150884665548801422e-02
2.109955251216888428e-02
-7.288936525583267212e-02
-1.726327091455459595e-02
-2.493583410978317261e-02
8.631635457277297974e-02
-1.553694307804107666e-01
-3.644468262791633606e-02
-5.178981274366378784e-02
-7.480750232934951782e-02
8.823449164628982544e-02
3.452654182910919189e-02
-5.754423327744007111e-03
-5.370795354247093201e-02
5.754423514008522034e-02
7.864378392696380615e-02
2.877211757004261017e-02
-6.138051673769950867e-02
-6.905308365821838379e-02
3.836282342672348022e-02
3.452654182910919189e-02
