-8.379842340946197510e-02
5.088417604565620422e-02
2.901537111029028893e-03
2.096847631037235260e-02
-1.231187675148248672e-02
9.440769441425800323e-03
-1.409546099603176117e-02
-1.799739710986614227e-02
-3.991905599832534790e-02
1.409056503325700760e-02
2.298152260482311249e-02
-2.511541172862052917e-02
-3.700584545731544495e-02
-7.284253835678100586e-02
6.281354464590549469e-03
-5.179652571678161621e-02
-7.473142445087432861e-02
-9.122659452259540558e-03
1.183292712084949017e-03
2.405014634132385254e-02
5.211869627237319946e-02
-1.941393315792083740e-02
-5.304173100739717484e-03
-6.369554996490478516e-02
-6.344731152057647705e-02
1.026086136698722839e-02
-6.438078731298446655e-02
2.958296798169612885e-02
4.607876762747764587e-02
-5.725838616490364075e-02
6.328621506690979004e-02
5.656596645712852478e-02
-1.224665995687246323e-02
4.079123027622699738e-03
5.192562006413936615e-03
-2.282346971333026886e-02
1.516311429440975189e-03
6.889833137392997742e-03
-3.034453094005584717e-02
-6.571717560291290283e-02
-3.334772959351539612e-02
6.772731244564056396e-02
-3.285444108769297600e-03
2.391955815255641937e-02
4.847392812371253967e-02
-7.633241266012191772e-02
-4.013251978904008865e-03
1.981989666819572449e-02
4.025288671255111694e-02
2.570508606731891632e-02
-2.655676007270812988e-02
-7.176988292485475540e-03
-1.295884512364864349e-02
2.354053407907485962e-02
-1.494368724524974823e-02
3.381337597966194153e-02
5.379612743854522705e-02
1.583606936037540436e-02
-2.203506790101528168e-02
3.471669182181358337e-02
-2.817905880510807037e-02
-2.931091934442520142e-02
5.782590806484222412e-02
-6.731630116701126099e-02
-6.351879797875881195e-03
6.098315864801406860e-02
-5.498469248414039612e-02
-6.822725757956504822e-03
-3.675381466746330261e-02
3.362636780366301537e-03
-5.985800176858901978e-02
-5.474650114774703979e-02
-2.610486373305320740e-02
-5.433061718940734863e-02
6.014177203178405762e-02
2.078038414765615016e-05
6.211996078491210938e-02
-1.977855525910854340e-02
-2.177362702786922455e-02
2.975160442292690277e-02
-1.868480071425437927e-02
4.599241167306900024e-02
-4.818994924426078796e-02
-4.988228902220726013e-02
-6.826486438512802124e-02
-5.121209472417831421e-02
3.391786664724349976e-02
-3.221473470330238342e-02
-3.777011297643184662e-03
6.765177845954895020e-02
-2.215726114809513092e-02
4.147443547844886780e-02
5.142004415392875671e-02
-1.085051428526639938e-02
-2.890249341726303101e-02
-6.280496716499328613e-03
-2.199215628206729889e-02
1.959209144115447998e-02
3.617232292890548706e-02
1.978323049843311310e-02
