7.994824647903442383e-02
-2.368837036192417145e-02
1.776627749204635620e-01
2.961046295240521431e-03
-1.184418518096208572e-02
-2.339226603507995605e-01
-1.983900964260101318e-01
7.698720693588256836e-02
2.368837036192417145e-02
-2.280005663633346558e-01
-8.587034046649932861e-02
7.698720693588256836e-02
-2.280005663633346558e-01
1.095587164163589478e-01
-2.398447543382644653e-01
-2.961046295240521431e-03
1.095587164163589478e-01
-2.546499669551849365e-01
-1.065976694226264954e-01
-4.737674072384834290e-02
-1.776627823710441589e-02
2.368837036192417145e-02
-1.628575474023818970e-01
-7.402615994215011597e-02
1.184418518096208572e-02
1.184418499469757080e-01
-1.450912654399871826e-01
2.072732336819171906e-02
-1.895069628953933716e-01
-1.273249834775924683e-01
-2.428057938814163208e-01
-2.368836998939514160e-01
1.243639439344406128e-01
9.179243445396423340e-02
2.961046248674392700e-02
6.514301896095275879e-02
1.954290568828582764e-01
-1.273249834775924683e-01
5.625987797975540161e-02
5.922092590481042862e-03
-2.368837036192417145e-02
-1.628575474023818970e-01
-1.924680024385452271e-01
-2.664941549301147461e-01
-2.487278878688812256e-01
-1.421302258968353271e-01
7.402615994215011597e-02
-2.783383429050445557e-01
1.184418518096208572e-02
-1.687796413898468018e-01
-5.625987797975540161e-02
6.218197196722030640e-02
6.810406595468521118e-02
-1.954290568828582764e-01
-2.191174328327178955e-01
3.849360346794128418e-02
-2.457668483257293701e-01
-2.961046295240521431e-03
8.587034046649932861e-02
-1.006755754351615906e-01
-1.362081319093704224e-01
-8.587034046649932861e-02
-2.724162638187408447e-01
-1.480523198843002319e-01
9.179243445396423340e-02
-2.961046248674392700e-02
1.776627749204635620e-01
1.125197559595108032e-01
-1.302860379219055176e-01
1.095587164163589478e-01
9.771452844142913818e-02
-5.922092497348785400e-02
-5.033778771758079529e-02
4.737674072384834290e-02
-1.184418499469757080e-01
-1.480523124337196350e-02
-1.717406809329986572e-01
-2.072732448577880859e-01
-3.020267188549041748e-01
1.006755754351615906e-01
-1.658185869455337524e-01
-9.475348144769668579e-02
-4.441569373011589050e-02
-8.587034046649932861e-02
6.218197196722030640e-02
9.475348144769668579e-02
5.329883471131324768e-02
-9.179243445396423340e-02
1.776627823710441589e-02
-2.931435704231262207e-01
-6.810406595468521118e-02
-2.398447543382644653e-01
-2.072732336819171906e-02
4.737674072384834290e-02
-8.587034046649932861e-02
8.883139118552207947e-03
5.329883471131324768e-02
-4.145464673638343811e-02
-2.013511508703231812e-01
-2.072732448577880859e-01
5.922092590481042862e-03
-2.161563783884048462e-01
-2.605720758438110352e-01
-1.569354534149169922e-01
-1.539744138717651367e-01
4.441569373011589050e-02
1.214028969407081604e-01
9.179243445396423340e-02
-4.145464673638343811e-02
-7.402615994215011597e-02
4.737674072384834290e-02
-2.664941549301147461e-01
2.280005663633346558e-01
7.402615994215011597e-02
-2.220784723758697510e-01
-1.776627823710441589e-02
2.961046295240521431e-03
1.006755754351615906e-01
1.598964929580688477e-01
-7.106511294841766357e-02
-1.450912654399871826e-01
-4.737674072384834290e-02
-1.658185869455337524e-01
-9.771452844142913818e-02
-2.812994122505187988e-01
-2.961046295240521431e-03
1.332470774650573730e-01
7.698720693588256836e-02
3.849360346794128418e-02
-2.043121904134750366e-01
5.922092590481042862e-03
1.539744138717651367e-01
-1.243639439344406128e-01
4.145464673638343811e-02
6.514301896095275879e-02
-8.883138746023178101e-02
-1.421302258968353271e-01
-2.990656793117523193e-01
-6.810406595468521118e-02
9.179243445396423340e-02
1.776627823710441589e-02
-1.273249834775924683e-01
1.598964929580688477e-01
-5.329883471131324768e-02
5.922092497348785400e-02
-1.273249834775924683e-01
1.450912654399871826e-01
3.553255647420883179e-02
7.402615994215011597e-02
-2.961046295240521431e-03
-2.250395119190216064e-01
-7.106511294841766357e-02
-2.072732336819171906e-02
-3.286761343479156494e-01
-1.450912654399871826e-01
-1.747017353773117065e-01
-2.072732448577880859e-01
-1.243639439344406128e-01
-1.776627823710441589e-02
-1.776627749204635620e-01
1.510133594274520874e-01
-2.961046295240521431e-03
8.883139118552207947e-03
-2.664941735565662384e-02
8.883138746023178101e-02
-3.286761343479156494e-01
5.922092590481042862e-03
2.961046248674392700e-02
1.125197559595108032e-01
5.625987797975540161e-02
-2.961046397686004639e-01
-6.218197196722030640e-02
-7.402615994215011597e-02
-1.628575474023818970e-01
1.065976694226264954e-01
6.218197196722030640e-02
-3.109098672866821289e-01
-1.806238293647766113e-01
-1.184418518096208572e-02
-2.724162638187408447e-01
-2.161563783884048462e-01
-2.664941549301147461e-01
-1.924680024385452271e-01
3.553255647420883179e-02
-2.428057938814163208e-01
-2.812994122505187988e-01
1.243639439344406128e-01
-2.043121904134750366e-01
1.806238293647766113e-01
-8.290929347276687622e-02
-3.553255647420883179e-02
9.179243445396423340e-02
-3.790139257907867432e-01
1.480523124337196350e-02
-4.737674072384834290e-02
-2.961046295240521431e-03
-1.865459233522415161e-01
1.302860379219055176e-01
-1.569354534149169922e-01
2.961046295240521431e-03
1.598964929580688477e-01
-2.990656793117523193e-01
-1.865459233522415161e-01
-2.102342844009399414e-01
-1.776627749204635620e-01
-4.441569373011589050e-02
9.179243445396423340e-02
-1.924680024385452271e-01
-8.883139118552207947e-03
-1.539744138717651367e-01
3.553255647420883179e-02
4.737674072384834290e-02
-6.514301896095275879e-02
-1.806238293647766113e-01
-3.049877583980560303e-01
2.072732336819171906e-02
1.065976694226264954e-01
1.006755754351615906e-01
-2.961046248674392700e-02
8.883139118552207947e-03
-1.776627823710441589e-02
2.961046295240521431e-03
7.698720693588256836e-02
6.810406595468521118e-02
1.006755754351615906e-01
-2.516889274120330811e-01
-5.922092497348785400e-02
-8.883138746023178101e-02
-2.191174328327178955e-01
-1.243639439344406128e-01
-1.776627823710441589e-02
-1.717406809329986572e-01
1.065976694226264954e-01
-2.368837036192417145e-02
-1.362081319093704224e-01
-1.184418518096208572e-02
-2.812994122505187988e-01
-1.598964929580688477e-01
-5.329883471131324768e-02
1.036366224288940430e-01
5.922092497348785400e-02
-1.510133594274520874e-01
-5.625987797975540161e-02
-1.687796413898468018e-01
-3.168319463729858398e-01
-5.625987797975540161e-02
-2.961046295240521431e-03
7.698720693588256836e-02
-1.480523124337196350e-02
-1.598964929580688477e-01
-1.391691714525222778e-01
5.922092590481042862e-03
-4.737674072384834290e-02
-2.131953388452529907e-01
-6.218197196722030640e-02
-1.480523198843002319e-01
-2.398447543382644653e-01
5.625987797975540161e-02
2.961046248674392700e-02
-1.658185869455337524e-01
-2.161563783884048462e-01
-4.145464673638343811e-02
5.625987797975540161e-02
-7.106511294841766357e-02
-2.487278878688812256e-01
8.290929347276687622e-02
-2.635331153869628906e-01
-6.514301896095275879e-02
5.033778771758079529e-02
5.625987797975540161e-02
5.625987797975540161e-02
-2.664941735565662384e-02
-1.865459233522415161e-01
4.737674072384834290e-02
-2.664941735565662384e-02
7.698720693588256836e-02
7.698720693588256836e-02
1.036366224288940430e-01
2.072732336819171906e-02
-1.154808029532432556e-01
-3.553255647420883179e-02
-2.576110363006591797e-01
-6.810406595468521118e-02
-7.994824647903442383e-02
-6.218197196722030640e-02
8.290929347276687622e-02
-3.197929859161376953e-01
-1.539744138717651367e-01
-6.218197196722030640e-02
-1.421302258968353271e-01
2.961046295240521431e-03
-1.924680024385452271e-01
-2.072732336819171906e-02
-8.290929347276687622e-02
1.273249834775924683e-01
-8.883139118552207947e-03
4.737674072384834290e-02
-1.273249834775924683e-01
-1.006755754351615906e-01
-2.961046248674392700e-02
-1.421302258968353271e-01
-2.339226603507995605e-01
-1.214028969407081604e-01
1.421302258968353271e-01
1.747017353773117065e-01
-2.753773033618927002e-01
4.737674072384834290e-02
-2.546499669551849365e-01
0.000000000000000000e+00
-5.329883471131324768e-02
-5.922092497348785400e-02
-2.072732448577880859e-01
9.771452844142913818e-02
-1.717406809329986572e-01
1.006755754351615906e-01
-2.072732448577880859e-01
-1.747017353773117065e-01
-2.368837036192417145e-02
-7.994824647903442383e-02
-3.849360346794128418e-02
-6.514301896095275879e-02
9.179243445396423340e-02
-1.687796413898468018e-01
-1.184418518096208572e-02
-1.302860379219055176e-01
-1.273249834775924683e-01
-1.480523124337196350e-02
7.402615994215011597e-02
-2.131953388452529907e-01
4.145464673638343811e-02
6.218197196722030640e-02
-2.457668483257293701e-01
-1.747017353773117065e-01
-4.145464673638343811e-02
-1.095587164163589478e-01
1.421302258968353271e-01
-1.480523198843002319e-01
-1.747017353773117065e-01
5.625987797975540161e-02
-1.362081319093704224e-01
6.810406595468521118e-02
2.664941735565662384e-02
-1.510133594274520874e-01
-5.922092590481042862e-03
-2.842604517936706543e-01
8.290929347276687622e-02
-1.125197559595108032e-01
1.184418518096208572e-02
9.475348144769668579e-02
7.402615994215011597e-02
-1.687796413898468018e-01
3.849360346794128418e-02
7.698720693588256836e-02
-1.865459233522415161e-01
-4.145464673638343811e-02
0.000000000000000000e+00
-2.961046248674392700e-02
-2.487278878688812256e-01
-2.961046295240521431e-03
9.179243445396423340e-02
-1.450912654399871826e-01
5.625987797975540161e-02
1.184418499469757080e-01
-2.043121904134750366e-01
-1.776627749204635620e-01
1.154808029532432556e-01
-1.302860379219055176e-01
5.625987797975540161e-02
-2.872214913368225098e-01
-1.184418518096208572e-02
-1.332470774650573730e-01
-1.065976694226264954e-01
-1.095587164163589478e-01
-1.450912654399871826e-01
5.329883471131324768e-02
-9.771452844142913818e-02
2.664941735565662384e-02
1.480523124337196350e-02
-6.218197196722030640e-02
-6.218197196722030640e-02
5.625987797975540161e-02
2.368837036192417145e-02
0.000000000000000000e+00
-7.698720693588256836e-02
1.006755754351615906e-01
1.776627823710441589e-02
-2.013511508703231812e-01
-2.398447543382644653e-01
-1.450912654399871826e-01
-2.961046295240521431e-03
-1.095587164163589478e-01
-2.250395119190216064e-01
-1.747017353773117065e-01
-8.290929347276687622e-02
-2.250395119190216064e-01
-1.776627823710441589e-02
-2.368836998939514160e-01
-1.687796413898468018e-01
-5.033778771758079529e-02
8.883139118552207947e-03
-1.243639439344406128e-01
-1.362081319093704224e-01
-1.154808029532432556e-01
-1.835848689079284668e-01
-2.191174328327178955e-01
1.273249834775924683e-01
-3.849360346794128418e-02
1.184418499469757080e-01
-3.553255647420883179e-02
2.102342844009399414e-01
5.329883471131324768e-02
-5.329883471131324768e-02
-2.457668483257293701e-01
-1.717406809329986572e-01
2.664941735565662384e-02
-1.065976694226264954e-01
-2.161563783884048462e-01
-2.635331153869628906e-01
1.776627823710441589e-02
9.475348144769668579e-02
2.161563783884048462e-01
-5.625987797975540161e-02
-9.179243445396423340e-02
-1.480523124337196350e-02
1.184418499469757080e-01
3.553255647420883179e-02
-8.883138746023178101e-02
-1.806238293647766113e-01
-1.865459233522415161e-01
-2.309616059064865112e-01
-2.250395119190216064e-01
1.776627823710441589e-02
-1.243639439344406128e-01
-5.329883471131324768e-02
-6.218197196722030640e-02
1.391691714525222778e-01
-1.450912654399871826e-01
2.961046295240521431e-03
2.664941735565662384e-02
1.036366224288940430e-01
-2.961046295240521431e-03
-3.849360346794128418e-02
-2.694552242755889893e-01
-1.835848689079284668e-01
-2.664941735565662384e-02
-2.753773033618927002e-01
-2.428057938814163208e-01
-2.842604517936706543e-01
-6.218197196722030640e-02
-1.332470774650573730e-01
3.553255647420883179e-02
-6.514301896095275879e-02
4.441569373011589050e-02
1.332470774650573730e-01
7.402615994215011597e-02
-2.457668483257293701e-01
1.806238293647766113e-01
4.441569373011589050e-02
-2.368837036192417145e-02
-2.635331153869628906e-01
1.184418499469757080e-01
2.961046295240521431e-03
-1.835848689079284668e-01
-2.131953388452529907e-01
-1.747017353773117065e-01
-2.102342844009399414e-01
6.514301896095275879e-02
-1.421302258968353271e-01
3.849360346794128418e-02
-8.883139118552207947e-03
-2.516889274120330811e-01
-3.849360346794128418e-02
-8.883139118552207947e-03
-1.776627749204635620e-01
5.922092497348785400e-02
-2.664941735565662384e-02
-2.576110363006591797e-01
-7.994824647903442383e-02
-4.145464673638343811e-02
-1.480523198843002319e-01
-5.033778771758079529e-02
-8.883138746023178101e-02
5.329883471131324768e-02
6.810406595468521118e-02
-1.391691714525222778e-01
-2.368836998939514160e-01
-9.771452844142913818e-02
-1.332470774650573730e-01
-1.569354534149169922e-01
9.179243445396423340e-02
-4.145464673638343811e-02
6.514301896095275879e-02
7.994824647903442383e-02
-3.553255647420883179e-02
7.994824647903442383e-02
-9.771452844142913818e-02
8.883138746023178101e-02
-1.687796413898468018e-01
-1.806238293647766113e-01
9.771452844142913818e-02
-1.480523198843002319e-01
-8.883139118552207947e-03
-1.065976694226264954e-01
2.428057938814163208e-01
-1.480523198843002319e-01
-2.901825308799743652e-01
-2.339226603507995605e-01
-2.368836998939514160e-01
3.553255647420883179e-02
-2.072732448577880859e-01
5.922092497348785400e-02
1.480523124337196350e-02
-1.983900964260101318e-01
-2.220784723758697510e-01
1.065976694226264954e-01
-1.598964929580688477e-01
-4.145464673638343811e-02
-2.576110363006591797e-01
-1.184418499469757080e-01
9.475348144769668579e-02
-1.658185869455337524e-01
2.072732336819171906e-02
-7.698720693588256836e-02
1.332470774650573730e-01
-1.865459233522415161e-01
-4.145464673638343811e-02
-2.901825308799743652e-01
-2.309616059064865112e-01
-2.664941735565662384e-02
1.095587164163589478e-01
-2.309616059064865112e-01
-1.273249834775924683e-01
-4.145464673638343811e-02
9.771452844142913818e-02
-2.072732336819171906e-02
-1.036366224288940430e-01
-5.922092497348785400e-02
1.243639439344406128e-01
3.257150948047637939e-02
-1.036366224288940430e-01
-6.218197196722030640e-02
-4.737674072384834290e-02
3.849360346794128418e-02
-1.095587164163589478e-01
5.329883471131324768e-02
1.510133594274520874e-01
-1.924680024385452271e-01
-2.309616059064865112e-01
5.922092497348785400e-02
-1.006755754351615906e-01
-1.806238293647766113e-01
-5.625987797975540161e-02
-4.145464673638343811e-02
-8.587034046649932861e-02
3.553255647420883179e-02
-2.664941735565662384e-02
-1.510133594274520874e-01
-1.924680024385452271e-01
8.883138746023178101e-02
6.810406595468521118e-02
1.658185869455337524e-01
-6.810406595468521118e-02
6.218197196722030640e-02
1.214028969407081604e-01
1.421302258968353271e-01
1.184418499469757080e-01
-2.280005663633346558e-01
-1.243639439344406128e-01
1.776627823710441589e-02
-5.625987797975540161e-02
-2.398447543382644653e-01
-4.737674072384834290e-02
-1.214028969407081604e-01
-1.539744138717651367e-01
-2.102342844009399414e-01
-3.553255647420883179e-02
-2.072732448577880859e-01
1.095587164163589478e-01
-2.043121904134750366e-01
-7.402615994215011597e-02
-1.421302258968353271e-01
5.625987797975540161e-02
2.961046248674392700e-02
-9.475348144769668579e-02
-1.983900964260101318e-01
1.095587164163589478e-01
7.106511294841766357e-02
5.033778771758079529e-02
-9.475348144769668579e-02
-1.776627749204635620e-01
5.922092590481042862e-03
1.776627823710441589e-02
-2.043121904134750366e-01
7.106511294841766357e-02
-1.835848689079284668e-01
-3.849360346794128418e-02
7.402615994215011597e-02
-1.924680024385452271e-01
-1.717406809329986572e-01
1.125197559595108032e-01
9.771452844142913818e-02
4.441569373011589050e-02
-8.883138746023178101e-02
1.184418518096208572e-02
-1.628575474023818970e-01
-1.480523198843002319e-01
-2.191174328327178955e-01
-1.214028969407081604e-01
-5.033778771758079529e-02
6.218197196722030640e-02
-6.514301896095275879e-02
6.514301896095275879e-02
-4.737674072384834290e-02
1.717406809329986572e-01
-1.421302258968353271e-01
1.273249834775924683e-01
-7.402615994215011597e-02
-2.072732448577880859e-01
-1.332470774650573730e-01
-1.776627823710441589e-02
5.922092497348785400e-02
-6.514301896095275879e-02
1.450912654399871826e-01
-4.737674072384834290e-02
3.553255647420883179e-02
1.273249834775924683e-01
-1.747017353773117065e-01
-2.339226603507995605e-01
-4.441569373011589050e-02
-2.131953388452529907e-01
-2.546499669551849365e-01
0.000000000000000000e+00
5.922092590481042862e-03
-1.184418518096208572e-02
8.883139118552207947e-03
-2.191174328327178955e-01
-5.329883471131324768e-02
8.587034046649932861e-02
-9.179243445396423340e-02
-3.257150948047637939e-02
-6.810406595468521118e-02
-1.539744138717651367e-01
-3.849360346794128418e-02
-1.243639439344406128e-01
-4.441569373011589050e-02
-6.810406595468521118e-02
3.257150948047637939e-02
-1.362081319093704224e-01
7.106511294841766357e-02
5.329883471131324768e-02
-3.612476587295532227e-01
-5.922092497348785400e-02
5.922092497348785400e-02
-9.179243445396423340e-02
1.450912654399871826e-01
4.441569373011589050e-02
-1.510133594274520874e-01
-5.033778771758079529e-02
1.480523124337196350e-02
1.184418518096208572e-02
-1.095587164163589478e-01
2.664941735565662384e-02
-2.694552242755889893e-01
2.339226603507995605e-01
6.218197196722030640e-02
-2.872214913368225098e-01
-1.983900964260101318e-01
-2.013511508703231812e-01
-2.131953388452529907e-01
-7.994824647903442383e-02
-2.013511508703231812e-01
8.883139118552207947e-03
3.168319463729858398e-01
-1.450912654399871826e-01
-1.687796413898468018e-01
1.480523124337196350e-02
-2.280005663633346558e-01
1.095587164163589478e-01
-3.138709068298339844e-01
-2.635331153869628906e-01
4.441569373011589050e-02
0.000000000000000000e+00
-2.220784723758697510e-01
0.000000000000000000e+00
2.072732336819171906e-02
-1.362081319093704224e-01
-1.006755754351615906e-01
1.065976694226264954e-01
-6.810406595468521118e-02
-1.954290568828582764e-01
8.883139118552207947e-03
-5.922092590481042862e-03
8.883139118552207947e-03
8.883138746023178101e-02
1.362081319093704224e-01
-2.961046248674392700e-02
-1.717406809329986572e-01
-1.095587164163589478e-01
-2.072732448577880859e-01
-2.309616059064865112e-01
3.849360346794128418e-02
-5.329883471131324768e-02
-8.883139118552207947e-03
-3.849360346794128418e-02
-1.450912654399871826e-01
7.994824647903442383e-02
-3.849360346794128418e-02
6.514301896095275879e-02
-8.883139118552207947e-03
-1.450912654399871826e-01
-8.290929347276687622e-02
-1.095587164163589478e-01
-1.302860379219055176e-01
-2.487278878688812256e-01
-1.154808029532432556e-01
-2.576110363006591797e-01
-2.339226603507995605e-01
4.441569373011589050e-02
-1.954290568828582764e-01
6.514301896095275879e-02
-1.628575474023818970e-01
1.184418518096208572e-02
-1.539744138717651367e-01
-1.421302258968353271e-01
-4.145464673638343811e-02
-1.510133594274520874e-01
-2.368837036192417145e-02
-1.539744138717651367e-01
-1.806238293647766113e-01
7.402615994215011597e-02
-2.280005663633346558e-01
1.450912654399871826e-01
-1.184418499469757080e-01
1.184418518096208572e-02
2.961046248674392700e-02
-2.368836998939514160e-01
4.441569373011589050e-02
-2.161563783884048462e-01
6.810406595468521118e-02
-6.218197196722030640e-02
-1.184418518096208572e-02
-1.480523124337196350e-02
1.302860379219055176e-01
1.569354534149169922e-01
-3.286761343479156494e-01
-1.924680024385452271e-01
-6.218197196722030640e-02
-8.883139118552207947e-03
-6.218197196722030640e-02
9.475348144769668579e-02
1.065976694226264954e-01
-9.475348144769668579e-02
-5.329883471131324768e-02
1.125197559595108032e-01
-1.983900964260101318e-01
-2.487278878688812256e-01
-5.625987797975540161e-02
-2.428057938814163208e-01
4.737674072384834290e-02
-2.990656793117523193e-01
-2.072732448577880859e-01
2.072732336819171906e-02
1.214028969407081604e-01
-2.664941735565662384e-02
-8.290929347276687622e-02
0.000000000000000000e+00
-7.698720693588256836e-02
5.033778771758079529e-02
-1.273249834775924683e-01
-1.776627823710441589e-02
3.553255647420883179e-02
-5.922092590481042862e-03
-3.257150948047637939e-02
1.480523124337196350e-02
-1.687796413898468018e-01
1.480523124337196350e-02
-5.625987797975540161e-02
-8.290929347276687622e-02
9.475348144769668579e-02
1.510133594274520874e-01
-2.280005663633346558e-01
-2.280005663633346558e-01
-1.954290568828582764e-01
-4.145464673638343811e-02
3.257150948047637939e-02
-1.658185869455337524e-01
-4.145464673638343811e-02
-1.598964929580688477e-01
-1.362081319093704224e-01
2.072732336819171906e-02
9.475348144769668579e-02
-2.250395119190216064e-01
-2.812994122505187988e-01
-5.922092590481042862e-03
-1.924680024385452271e-01
-1.214028969407081604e-01
5.329883471131324768e-02
-1.598964929580688477e-01
-2.368836998939514160e-01
5.329883471131324768e-02
-1.332470774650573730e-01
5.625987797975540161e-02
-1.302860379219055176e-01
-2.102342844009399414e-01
-6.810406595468521118e-02
-1.450912654399871826e-01
-1.569354534149169922e-01
-2.961046248674392700e-02
5.625987797975540161e-02
-7.994824647903442383e-02
-1.184418518096208572e-02
-2.043121904134750366e-01
-5.033778771758079529e-02
-2.072732448577880859e-01
2.368837036192417145e-02
-9.771452844142913818e-02
5.922092590481042862e-03
-4.441569373011589050e-02
-1.154808029532432556e-01
5.625987797975540161e-02
-1.243639439344406128e-01
-3.553255647420883179e-02
-2.161563783884048462e-01
-7.106511294841766357e-02
-5.033778771758079529e-02
-9.771452844142913818e-02
-2.339226603507995605e-01
-1.687796413898468018e-01
8.290929347276687622e-02
-2.250395119190216064e-01
1.480523124337196350e-02
-1.687796413898468018e-01
-7.994824647903442383e-02
8.290929347276687622e-02
-1.539744138717651367e-01
-1.125197559595108032e-01
-2.013511508703231812e-01
-1.983900964260101318e-01
-2.961046295240521431e-03
-4.737674072384834290e-02
6.810406595468521118e-02
1.421302258968353271e-01
-1.095587164163589478e-01
-1.895069628953933716e-01
5.625987797975540161e-02
-1.569354534149169922e-01
1.065976694226264954e-01
-1.332470774650573730e-01
9.179243445396423340e-02
-1.835848689079284668e-01
7.994824647903442383e-02
-5.033778771758079529e-02
-3.257150948047637939e-02
-1.332470774650573730e-01
9.475348144769668579e-02
1.095587164163589478e-01
-2.428057938814163208e-01
4.441569373011589050e-02
8.883138746023178101e-02
5.329883471131324768e-02
-5.625987797975540161e-02
3.257150948047637939e-02
8.587034046649932861e-02
-2.664941735565662384e-02
-1.835848689079284668e-01
1.214028969407081604e-01
-1.776627749204635620e-01
-1.243639439344406128e-01
-8.883139118552207947e-03
1.776627823710441589e-02
1.184418518096208572e-02
-5.625987797975540161e-02
-1.717406809329986572e-01
-1.598964929580688477e-01
1.835848689079284668e-01
2.368837036192417145e-02
8.587034046649932861e-02
-1.362081319093704224e-01
-2.309616059064865112e-01
-1.510133594274520874e-01
1.362081319093704224e-01
-2.072732336819171906e-02
-1.983900964260101318e-01
-3.553255647420883179e-02
-6.514301896095275879e-02
-3.553255647420883179e-02
6.514301896095275879e-02
1.006755754351615906e-01
-1.332470774650573730e-01
-1.510133594274520874e-01
5.033778771758079529e-02
6.218197196722030640e-02
-3.257150948047637939e-02
2.072732336819171906e-02
-2.250395119190216064e-01
5.922092497348785400e-02
-5.329883471131324768e-02
1.539744138717651367e-01
1.273249834775924683e-01
-2.605720758438110352e-01
-1.569354534149169922e-01
9.179243445396423340e-02
1.006755754351615906e-01
-1.510133594274520874e-01
1.065976694226264954e-01
1.036366224288940430e-01
-2.635331153869628906e-01
-1.835848689079284668e-01
8.587034046649932861e-02
-1.273249834775924683e-01
-8.883139118552207947e-03
0.000000000000000000e+00
-1.776627749204635620e-01
-1.539744138717651367e-01
1.006755754351615906e-01
-2.072732448577880859e-01
-2.280005663633346558e-01
-1.362081319093704224e-01
1.125197559595108032e-01
-5.922092590481042862e-03
-1.302860379219055176e-01
4.737674072384834290e-02
-1.421302258968353271e-01
2.368837036192417145e-02
3.257150948047637939e-02
-7.402615994215011597e-02
1.006755754351615906e-01
7.106511294841766357e-02
-5.625987797975540161e-02
8.883139118552207947e-03
-2.872214913368225098e-01
-1.125197559595108032e-01
-2.072732448577880859e-01
-2.961046295240521431e-03
-1.569354534149169922e-01
-1.243639439344406128e-01
-2.013511508703231812e-01
1.184418499469757080e-01
-2.368837036192417145e-02
-2.931435704231262207e-01
9.771452844142913818e-02
-2.368836998939514160e-01
-5.922092497348785400e-02
-1.184418518096208572e-02
9.771452844142913818e-02
-3.553255647420883179e-02
-1.865459233522415161e-01
-3.345982432365417480e-01
-1.184418518096208572e-02
-2.191174328327178955e-01
7.994824647903442383e-02
-2.368837036192417145e-02
5.329883471131324768e-02
-1.480523124337196350e-02
-1.776627749204635620e-01
-1.065976694226264954e-01
1.243639439344406128e-01
-2.339226603507995605e-01
5.329883471131324768e-02
-4.145464673638343811e-02
-1.747017353773117065e-01
-5.922092497348785400e-02
-2.576110363006591797e-01
-2.339226603507995605e-01
-1.569354534149169922e-01
-4.441569373011589050e-02
2.072732336819171906e-02
7.698720693588256836e-02
-6.514301896095275879e-02
-2.664941735565662384e-02
2.961046295240521431e-03
-2.961046248674392700e-02
-1.865459233522415161e-01
-2.398447543382644653e-01
-1.776627823710441589e-02
6.810406595468521118e-02
3.849360346794128418e-02
-2.428057938814163208e-01
1.480523124337196350e-02
6.810406595468521118e-02
3.849360346794128418e-02
-2.961046295240521431e-03
8.883138746023178101e-02
-8.883139118552207947e-03
-1.539744138717651367e-01
-2.961046248674392700e-02
5.922092590481042862e-03
-2.457668483257293701e-01
-7.402615994215011597e-02
1.184418518096208572e-02
-9.771452844142913818e-02
-4.737674072384834290e-02
9.179243445396423340e-02
2.664941735565662384e-02
-1.480523198843002319e-01
5.625987797975540161e-02
-1.835848689079284668e-01
-1.658185869455337524e-01
1.332470774650573730e-01
7.698720693588256836e-02
