3.466379642486572266e-01
-3.587430417537689209e-01
-1.699575424194335938e+00
4.503722786903381348e-01
-4.793971776962280273e-01
1.294092893600463867e+00
-1.665040850639343262e-01
-1.571993529796600342e-02
6.428493261337280273e-01
-2.880132198333740234e-01
-5.551007390022277832e-01
6.506524682044982910e-01
4.697850644588470459e-01
-4.985719919204711914e-01
6.066031455993652344e-01
-1.254363536834716797e+00
-9.345012307167053223e-01
1.025404214859008789e+00
9.664381742477416992e-01
6.167631149291992188e-01
-3.863269090652465820e-01
1.080884709954261780e-01
6.518729925155639648e-01
-1.790462136268615723e-01
1.368525505065917969e+00
-3.705525994300842285e-01
8.295019865036010742e-01
-4.804307222366333008e-01
-4.734490811824798584e-01
1.147950589656829834e-01
-2.758202552795410156e-01
-1.241513609886169434e+00
-2.617580592632293701e-01
3.134306669235229492e-01
1.292919516563415527e+00
4.822910130023956299e-01
-7.007191777229309082e-01
-7.143394351005554199e-01
1.236570596694946289e+00
-9.021382033824920654e-02
1.916038841009140015e-01
-1.100302100181579590e+00
-6.233038902282714844e-01
-1.119483113288879395e+00
1.418902277946472168e-01
-9.086912274360656738e-01
-3.960960507392883301e-01
-6.107591390609741211e-01
1.344095170497894287e-01
2.104963064193725586e-01
-5.270735621452331543e-01
-7.698806375265121460e-02
1.139685630798339844e+00
-4.382357597351074219e-01
-5.333595275878906250e-01
3.633978962898254395e-01
5.413716435432434082e-01
1.985393464565277100e-03
-4.476973414421081543e-01
-1.089534237980842590e-01
-7.163646221160888672e-01
5.504144430160522461e-01
5.491331219673156738e-03
9.605476856231689453e-01
-7.580338716506958008e-01
-9.734894335269927979e-02
-1.369566172361373901e-01
6.081624031066894531e-01
1.034463047981262207e-01
3.303664028644561768e-01
3.250710666179656982e-01
-1.006602406501770020e+00
1.786635220050811768e-01
-1.085451126098632812e+00
-4.219464063644409180e-01
2.877549827098846436e-02
1.140269041061401367e+00
7.989034056663513184e-01
-7.831621170043945312e-01
-1.040541052818298340e+00
-4.616145491600036621e-01
8.783833980560302734e-01
-4.571759700775146484e-01
-6.563730537891387939e-03
7.570770382881164551e-02
-5.653609037399291992e-01
1.117336153984069824e+00
-3.746586143970489502e-01
-3.727329894900321960e-04
6.492076516151428223e-01
-5.494000911712646484e-01
8.912044763565063477e-01
-7.256038486957550049e-02
-3.545842766761779785e-01
-7.341692596673965454e-02
2.557020187377929688e-01
3.903533518314361572e-02
-5.108755826950073242e-01
-2.014722824096679688e-01
-8.998632431030273438e-01
7.196086645126342773e-02
9.266687035560607910e-01
-6.063557267189025879e-01
-3.991188406944274902e-01
-3.860988020896911621e-01
-4.221455156803131104e-01
-9.339141845703125000e-01
7.473725676536560059e-01
3.188082277774810791e-01
9.025209397077560425e-02
2.509424388408660889e-01
-8.496432304382324219e-01
1.461689174175262451e-01
6.961132884025573730e-01
3.562678098678588867e-01
1.231865644454956055e+00
-3.467348814010620117e-01
4.488467574119567871e-01
-6.378797888755798340e-01
4.308663904666900635e-01
-8.294472098350524902e-01
2.357644140720367432e-01
-1.222015500068664551e+00
2.115639448165893555e-01
4.622962772846221924e-01
-4.751101434230804443e-01
-5.199129693210124969e-03
-1.593683242797851562e+00
