8.607262969017028809e-01
-1.146948412060737610e-01
3.525258898735046387e-01
4.118923544883728027e-01
-1.383263170719146729e-01
-6.509688496589660645e-01
-1.668778508901596069e-01
7.891883254051208496e-01
-1.362682282924652100e-01
-1.726762652397155762e-01
1.425050348043441772e-01
2.574345842003822327e-02
4.695056676864624023e-01
-1.089973688125610352e+00
-8.911356925964355469e-01
1.615917325019836426e+00
7.741774320602416992e-01
-1.235624432563781738e+00
1.346895247697830200e-01
4.120889306068420410e-02
7.623870372772216797e-01
-1.222534775733947754e-01
1.920150518417358398e-01
-1.378344178199768066e+00
1.388168483972549438e-01
1.631243079900741577e-01
1.380943357944488525e-01
6.499687433242797852e-01
-5.435920357704162598e-01
6.293299794197082520e-01
-1.300566196441650391e+00
5.047567486763000488e-01
2.341328859329223633e-01
4.724954962730407715e-01
-6.652729511260986328e-01
5.898917317390441895e-01
1.780642569065093994e-02
2.310442477464675903e-01
1.480734825134277344e+00
3.058304265141487122e-02
-4.001768827438354492e-01
2.849978804588317871e-01
1.615994274616241455e-01
-3.647206425666809082e-01
5.098331570625305176e-01
-6.981205344200134277e-01
1.521254479885101318e-01
7.527372241020202637e-02
3.468202352523803711e-01
6.406740546226501465e-01
4.906750321388244629e-01
2.416406869888305664e-01
-3.737119436264038086e-01
-1.702972650527954102e-01
2.382936477661132812e-01
5.286627262830734253e-02
-7.847640514373779297e-01
1.353264153003692627e-01
-5.462810397148132324e-01
-2.701826393604278564e-01
-4.652426838874816895e-01
-9.130030870437622070e-01
2.071963250637054443e-01
9.533815979957580566e-01
