-1.938105821609497070e-01
3.660520166158676147e-02
2.456238865852355957e-01
1.001185774803161621e+00
1.418779641389846802e-01
1.065430045127868652e-01
2.250215262174606323e-01
3.227161169052124023e-01
-8.485611528158187866e-02
1.955427974462509155e-01
-1.023424386978149414e+00
-1.622423529624938965e-01
-7.456624507904052734e-01
9.281684160232543945e-01
1.125034764409065247e-01
-3.113421201705932617e-01
-3.562903404235839844e-01
-1.533223092555999756e-01
4.335676431655883789e-01
-6.921914815902709961e-01
8.779741525650024414e-01
6.162427365779876709e-02
2.341823428869247437e-01
-2.747966051101684570e-01
8.775995969772338867e-01
1.261581778526306152e+00
-1.055296421051025391e+00
8.130410313606262207e-01
-2.713397145271301270e-01
-9.420163035392761230e-01
-3.217089176177978516e-01
-3.406315669417381287e-02
3.415972590446472168e-01
-2.601655423641204834e-01
-2.199738621711730957e-01
1.409436017274856567e-01
-2.261692732572555542e-01
5.297986268997192383e-01
-1.195660114288330078e+00
1.460004806518554688e+00
-2.853241562843322754e-01
3.915973305702209473e-01
9.972891211509704590e-01
-2.864530086517333984e-01
4.717128872871398926e-01
-2.602654695510864258e-01
1.173208236694335938e+00
3.079470396041870117e-01
-8.204768896102905273e-01
-1.948329061269760132e-01
-1.352037191390991211e-01
4.777123928070068359e-01
3.111611604690551758e-01
-7.138972282409667969e-01
2.822987139225006104e-01
9.909298270940780640e-02
-4.535510540008544922e-01
1.001905918121337891e+00
-6.956607103347778320e-01
2.178921103477478027e-01
3.647218048572540283e-01
-2.467134743928909302e-01
5.307729840278625488e-01
-1.997519880533218384e-01
6.504327654838562012e-01
1.019024968147277832e+00
-6.508748978376388550e-02
4.626264870166778564e-01
-5.487353727221488953e-02
2.101711630821228027e-01
-1.925226747989654541e-01
1.309226080775260925e-02
1.682893931865692139e-02
-2.802702188491821289e-01
-9.589280188083648682e-02
1.815677434206008911e-01
-8.080140352249145508e-01
1.253459930419921875e+00
-6.963777542114257812e-01
-3.687650263309478760e-01
-5.302283167839050293e-01
1.098382249474525452e-01
2.079995870590209961e-01
3.392785191535949707e-01
2.257926017045974731e-02
7.021984457969665527e-02
5.309481620788574219e-01
-8.202073574066162109e-01
4.205163121223449707e-01
-3.263086676597595215e-01
3.844506144523620605e-01
-4.409072399139404297e-01
-7.777142524719238281e-01
1.499877572059631348e-01
6.333425641059875488e-03
-1.584361493587493896e-02
-2.621513903141021729e-01
7.848283648490905762e-01
-5.576509609818458557e-02
-3.040505945682525635e-01
3.909636139869689941e-01
9.050579071044921875e-01
-2.130084037780761719e-01
1.612272024154663086e+00
-1.816387176513671875e-01
2.951613068580627441e-01
-8.812536001205444336e-01
3.495080471038818359e-01
6.216008067131042480e-01
-1.572227329015731812e-01
8.357619047164916992e-01
-4.385471940040588379e-01
-9.605737924575805664e-01
-5.600171089172363281e-01
-1.378887444734573364e-01
8.922773599624633789e-01
-1.590071916580200195e-01
-1.386379301548004150e-01
-5.935223400592803955e-02
-1.395975649356842041e-01
-9.186478257179260254e-01
-7.771495729684829712e-02
7.954768538475036621e-01
-8.271054029464721680e-01
-5.299015343189239502e-02
-4.858621209859848022e-02
9.539575576782226562e-01
-6.200299859046936035e-01
-4.247231185436248779e-01
6.066812276840209961e-01
-1.132494397461414337e-02
6.218726038932800293e-01
-3.681647181510925293e-01
1.061784744262695312e+00
-4.116960167884826660e-01
4.207509160041809082e-01
-2.278069555759429932e-01
5.289285182952880859e-01
-9.156357049942016602e-01
-2.535042464733123779e-01
-2.108166515827178955e-01
3.892191648483276367e-01
5.465228110551834106e-02
-8.276196718215942383e-01
-1.061867833137512207e+00
1.981883496046066284e-01
9.145711064338684082e-01
-1.154962852597236633e-01
3.357581049203872681e-02
-2.003526091575622559e-01
-3.176991939544677734e-01
1.094849407672882080e-02
1.099729299545288086e+00
5.544127821922302246e-01
-9.921760559082031250e-01
1.471171230077743530e-01
-3.257606029510498047e-01
-4.390787705779075623e-02
-5.814044475555419922e-01
1.791825443506240845e-01
-2.394790053367614746e-01
5.647777915000915527e-01
-7.783513516187667847e-02
2.052953958511352539e+00
-4.344787001609802246e-01
1.087380170822143555e+00
-9.141588211059570312e-01
4.794565737247467041e-01
1.026441603899002075e-01
9.085173606872558594e-01
3.596312403678894043e-01
7.983322143554687500e-01
8.841652274131774902e-01
5.419116616249084473e-01
1.129807949066162109e+00
1.844896972179412842e-01
3.980056196451187134e-02
2.530599385499954224e-02
4.670060575008392334e-01
5.775018334388732910e-01
7.124170064926147461e-01
1.875663846731185913e-01
9.551011919975280762e-01
-3.727506697177886963e-01
-1.090408563613891602e-01
8.921900987625122070e-01
2.875446975231170654e-01
5.295193195343017578e-01
7.924650907516479492e-01
-9.410088509321212769e-02
-1.622364670038223267e-01
5.995396375656127930e-01
-4.187446236610412598e-01
-2.572183012962341309e-01
9.501976966857910156e-01
1.987611502408981323e-02
2.859046459197998047e-01
-4.830534160137176514e-01
9.217653274536132812e-01
7.953569293022155762e-02
1.120639085769653320e+00
-3.751125335693359375e-01
2.125184834003448486e-01
-9.852721691131591797e-01
6.579459905624389648e-01
8.171013593673706055e-01
2.453542053699493408e-01
5.946307629346847534e-02
2.556453049182891846e-01
8.592550158500671387e-01
-4.187846183776855469e-01
2.315440773963928223e-01
-1.582776159048080444e-01
6.172089576721191406e-01
-7.901456356048583984e-01
-5.756217837333679199e-01
1.689604520797729492e-01
1.233573198318481445e+00
-4.983470216393470764e-02
-5.146002173423767090e-01
-2.535771727561950684e-01
4.345805644989013672e-01
-4.310133159160614014e-01
1.499941349029541016e-01
-2.354269027709960938e-01
-1.143100410699844360e-01
4.808682203292846680e-01
-5.706551074981689453e-01
-1.006790921092033386e-01
-5.169899389147758484e-02
3.102571964263916016e-01
5.489358305931091309e-01
-3.457723557949066162e-01
-7.666538953781127930e-01
2.498859912157058716e-01
-8.537688255310058594e-01
-7.711977958679199219e-01
5.968844294548034668e-01
1.240198850631713867e+00
-2.658233046531677246e-01
6.468667984008789062e-01
-5.016952753067016602e-01
-4.810593128204345703e-01
6.255987882614135742e-01
8.305577188730239868e-02
7.876564264297485352e-01
4.224553108215332031e-01
-4.983507990837097168e-01
-1.001621633768081665e-01
-2.108500003814697266e-01
3.505314141511917114e-02
-8.882353454828262329e-02
-5.841656923294067383e-01
5.676078200340270996e-01
-2.589027583599090576e-01
3.505609929561614990e-01
