-1.373986303806304932e-01
3.177343308925628662e-01
-6.011190265417098999e-02
3.434965610504150391e-01
-3.177343308925628662e-01
-2.404476106166839600e-01
-6.869931519031524658e-02
-2.747972607612609863e-01
1.288112103939056396e-01
2.919721007347106934e-01
-1.717482879757881165e-02
-1.373986303806304932e-01
-1.717482805252075195e-01
-5.238322615623474121e-01
5.839442014694213867e-01
-1.889231204986572266e-01
1.717482879757881165e-02
-3.177343308925628662e-01
-1.373986303806304932e-01
-4.121958911418914795e-01
-2.404476106166839600e-01
3.434965610504150391e-01
2.576224319636821747e-02
-6.869931519031524658e-02
-6.268812417984008789e-01
-7.728672772645950317e-02
3.349091708660125732e-01
3.349091708660125732e-01
2.833846807479858398e-01
4.379581212997436523e-01
-6.869931519031524658e-02
-2.662098407745361328e-01
-4.465455412864685059e-01
1.202238053083419800e-01
-2.490350157022476196e-01
-3.434965759515762329e-02
-4.293707013130187988e-02
-6.869931519031524658e-02
-5.066574215888977051e-01
-2.576224319636821747e-02
8.587414398789405823e-03
-3.692588210105895996e-01
1.889231204986572266e-01
4.293707013130187988e-02
-6.869931519031524658e-02
2.747972607612609863e-01
-5.152448639273643494e-02
2.404476106166839600e-01
3.520839810371398926e-01
2.146853655576705933e-01
1.631608754396438599e-01
0.000000000000000000e+00
-3.434965610504150391e-01
3.005594909191131592e-01
-2.060979455709457397e-01
1.373986303806304932e-01
4.723078012466430664e-01
-1.717482879757881165e-02
-1.717482879757881165e-02
-1.373986303806304932e-01
6.869931519031524658e-02
-4.293707013130187988e-02
4.894826114177703857e-01
-1.202238053083419800e-01
-1.288112103939056396e-01
4.637203812599182129e-01
2.662098407745361328e-01
3.864336609840393066e-01
-1.545734554529190063e-01
4.551329612731933594e-01
8.587414026260375977e-02
-1.373986303806304932e-01
5.753567814826965332e-01
2.146853655576705933e-01
-3.263217508792877197e-01
-1.373986303806304932e-01
-2.404476106166839600e-01
-4.207833111286163330e-01
-4.551329612731933594e-01
4.637203812599182129e-01
-1.288112103939056396e-01
-1.030489727854728699e-01
9.446156024932861328e-02
2.060979455709457397e-01
-2.576224207878112793e-01
1.545734554529190063e-01
2.747972607612609863e-01
-4.551329612731933594e-01
3.778462409973144531e-01
-7.385176420211791992e-01
-3.606714010238647461e-01
-4.808952212333679199e-01
6.440560817718505859e-01
2.576224207878112793e-01
2.919721007347106934e-01
1.288112103939056396e-01
7.728672772645950317e-02
9.446156024932861328e-02
-2.232727706432342529e-01
2.919721007347106934e-01
-1.202238053083419800e-01
-1.202238053083419800e-01
6.869931519031524658e-02
1.288112103939056396e-01
1.373986303806304932e-01
-1.030489727854728699e-01
-4.379581212997436523e-01
1.373986303806304932e-01
7.728672772645950317e-02
2.404476106166839600e-01
1.803357005119323730e-01
-2.490350157022476196e-01
7.728672772645950317e-02
-3.864336609840393066e-01
2.747972607612609863e-01
2.060979455709457397e-01
6.011190265417098999e-02
-2.146853655576705933e-01
3.263217508792877197e-01
-6.011190265417098999e-02
-1.975105255842208862e-01
3.091469109058380127e-01
1.545734554529190063e-01
4.980700314044952393e-01
-2.404476106166839600e-01
1.545734554529190063e-01
1.030489727854728699e-01
-6.869931519031524658e-02
-2.232727706432342529e-01
3.263217508792877197e-01
-2.576224207878112793e-01
1.116363853216171265e-01
7.728672772645950317e-02
1.459860503673553467e-01
5.152448639273643494e-02
-3.434965759515762329e-02
1.030489727854728699e-01
-4.121958911418914795e-01
-3.434965759515762329e-02
-1.803357005119323730e-01
-1.717482879757881165e-02
-1.631608754396438599e-01
-2.318601906299591064e-01
1.459860503673553467e-01
3.692588210105895996e-01
1.975105255842208862e-01
3.177343308925628662e-01
-3.091469109058380127e-01
9.446156024932861328e-02
1.288112103939056396e-01
-3.091469109058380127e-01
1.459860503673553467e-01
-1.717482805252075195e-01
1.975105255842208862e-01
9.446156024932861328e-02
4.207833111286163330e-01
-2.060979455709457397e-01
-1.631608754396438599e-01
2.919721007347106934e-01
-5.152448639273643494e-02
4.293707013130187988e-02
-8.587414398789405823e-03
6.011190265417098999e-02
1.202238053083419800e-01
-2.146853655576705933e-01
-1.202238053083419800e-01
3.005594909191131592e-01
1.803357005119323730e-01
-3.434965759515762329e-02
-1.717482805252075195e-01
4.207833111286163330e-01
-2.576224207878112793e-01
-2.060979455709457397e-01
-1.631608754396438599e-01
-6.011190265417098999e-02
-7.728672772645950317e-02
-4.379581212997436523e-01
4.293707013130187988e-02
-2.576224207878112793e-01
3.177343308925628662e-01
-1.545734554529190063e-01
-3.520839810371398926e-01
1.373986303806304932e-01
-1.631608754396438599e-01
2.576224319636821747e-02
2.662098407745361328e-01
-2.576224207878112793e-01
-4.207833111286163330e-01
-3.177343308925628662e-01
-4.894826114177703857e-01
-8.587414026260375977e-02
-2.747972607612609863e-01
-3.864336609840393066e-01
1.116363853216171265e-01
-4.808952212333679199e-01
-4.293707013130187988e-02
-3.005594909191131592e-01
-1.288112103939056396e-01
1.975105255842208862e-01
-1.116363853216171265e-01
-3.177343308925628662e-01
2.747972607612609863e-01
-2.576224319636821747e-02
6.011190265417098999e-02
6.869931519031524658e-02
2.404476106166839600e-01
-2.490350157022476196e-01
2.833846807479858398e-01
8.587414398789405823e-03
-3.520839810371398926e-01
3.263217508792877197e-01
1.459860503673553467e-01
-3.263217508792877197e-01
1.030489727854728699e-01
0.000000000000000000e+00
-8.587414026260375977e-02
1.288112103939056396e-01
8.587414398789405823e-03
1.975105255842208862e-01
-1.459860503673553467e-01
6.011190265417098999e-02
2.576224319636821747e-02
-3.692588210105895996e-01
1.631608754396438599e-01
-1.631608754396438599e-01
-2.490350157022476196e-01
4.293707013130187988e-02
2.490350157022476196e-01
8.587414398789405823e-03
-2.404476106166839600e-01
-3.177343308925628662e-01
-1.373986303806304932e-01
-1.030489727854728699e-01
-1.202238053083419800e-01
-4.036084711551666260e-01
-1.803357005119323730e-01
2.232727706432342529e-01
-2.490350157022476196e-01
-3.950210511684417725e-01
9.446156024932861328e-02
1.545734554529190063e-01
2.747972607612609863e-01
-1.717482805252075195e-01
-3.434965610504150391e-01
-2.232727706432342529e-01
2.576224319636821747e-02
-3.434965759515762329e-02
-1.030489727854728699e-01
-1.631608754396438599e-01
1.975105255842208862e-01
-2.576224207878112793e-01
3.692588210105895996e-01
2.060979455709457397e-01
-7.728672772645950317e-02
1.202238053083419800e-01
1.975105255842208862e-01
-3.692588210105895996e-01
-2.919721007347106934e-01
1.202238053083419800e-01
1.116363853216171265e-01
1.975105255842208862e-01
-6.869931519031524658e-02
3.091469109058380127e-01
1.288112103939056396e-01
-1.116363853216171265e-01
8.587414026260375977e-02
4.121958911418914795e-01
3.434965610504150391e-01
-4.036084711551666260e-01
4.293707013130187988e-02
5.753567814826965332e-01
1.803357005119323730e-01
-1.030489727854728699e-01
2.919721007347106934e-01
1.975105255842208862e-01
-3.263217508792877197e-01
-2.060979455709457397e-01
6.011190265417098999e-02
1.545734554529190063e-01
-1.545734554529190063e-01
2.146853655576705933e-01
3.434965759515762329e-02
9.446156024932861328e-02
-1.889231204986572266e-01
-1.717482879757881165e-02
1.803357005119323730e-01
4.036084711551666260e-01
4.293707013130187988e-02
8.587414026260375977e-02
3.864336609840393066e-01
3.091469109058380127e-01
1.545734554529190063e-01
4.293707013130187988e-02
1.717482879757881165e-02
1.116363853216171265e-01
3.778462409973144531e-01
3.005594909191131592e-01
-3.434965759515762329e-02
2.576224207878112793e-01
-2.404476106166839600e-01
3.349091708660125732e-01
3.606714010238647461e-01
-2.404476106166839600e-01
4.293707013130187988e-02
-2.404476106166839600e-01
7.728672772645950317e-02
-2.576224319636821747e-02
-8.587414026260375977e-02
-5.152448639273643494e-02
-3.434965610504150391e-01
-1.288112103939056396e-01
0.000000000000000000e+00
-4.036084711551666260e-01
2.146853655576705933e-01
1.631608754396438599e-01
1.717482805252075195e-01
-1.717482879757881165e-02
-3.950210511684417725e-01
2.490350157022476196e-01
-3.177343308925628662e-01
-1.373986303806304932e-01
-3.434965610504150391e-01
-1.116363853216171265e-01
-2.833846807479858398e-01
-2.576224207878112793e-01
-2.576224319636821747e-02
-1.202238053083419800e-01
-2.747972607612609863e-01
2.662098407745361328e-01
6.011190265417098999e-02
0.000000000000000000e+00
-1.373986303806304932e-01
1.373986303806304932e-01
1.288112103939056396e-01
-2.146853655576705933e-01
2.576224207878112793e-01
-3.434965759515762329e-02
7.728672772645950317e-02
-3.434965759515762329e-02
1.717482879757881165e-02
-1.975105255842208862e-01
6.011190265417098999e-02
6.011190265417098999e-02
-2.146853655576705933e-01
2.919721007347106934e-01
1.717482805252075195e-01
1.202238053083419800e-01
-9.446156024932861328e-02
-3.263217508792877197e-01
5.152448639273643494e-02
-1.459860503673553467e-01
2.576224207878112793e-01
2.232727706432342529e-01
-2.747972607612609863e-01
-3.692588210105895996e-01
1.975105255842208862e-01
-6.784057617187500000e-01
9.446156024932861328e-02
-3.434965759515762329e-02
-4.293707013130187988e-02
-2.833846807479858398e-01
3.177343308925628662e-01
-4.207833111286163330e-01
-1.373986303806304932e-01
-2.060979455709457397e-01
1.545734554529190063e-01
-3.349091708660125732e-01
2.919721007347106934e-01
-1.975105255842208862e-01
1.545734554529190063e-01
3.864336609840393066e-01
-1.202238053083419800e-01
-1.717482805252075195e-01
-3.434965759515762329e-02
2.919721007347106934e-01
6.869931519031524658e-02
3.434965759515762329e-02
3.091469109058380127e-01
1.803357005119323730e-01
3.091469109058380127e-01
-3.434965610504150391e-01
0.000000000000000000e+00
-3.005594909191131592e-01
2.662098407745361328e-01
6.869931519031524658e-02
-2.919721007347106934e-01
1.803357005119323730e-01
0.000000000000000000e+00
6.011190265417098999e-02
8.587414026260375977e-02
-2.747972607612609863e-01
3.778462409973144531e-01
1.717482805252075195e-01
1.889231204986572266e-01
-3.177343308925628662e-01
-1.030489727854728699e-01
3.692588210105895996e-01
9.446156024932861328e-02
-4.551329612731933594e-01
4.293707013130187988e-02
-1.373986303806304932e-01
3.864336609840393066e-01
2.232727706432342529e-01
-1.116363853216171265e-01
-1.116363853216171265e-01
3.177343308925628662e-01
1.545734554529190063e-01
3.434965759515762329e-02
-3.606714010238647461e-01
6.011190265417098999e-02
-4.036084711551666260e-01
-3.778462409973144531e-01
-1.288112103939056396e-01
2.146853655576705933e-01
-1.717482805252075195e-01
-2.404476106166839600e-01
6.869931519031524658e-02
3.778462409973144531e-01
1.803357005119323730e-01
1.803357005119323730e-01
-1.288112103939056396e-01
2.576224207878112793e-01
3.778462409973144531e-01
7.728672772645950317e-02
-1.889231204986572266e-01
-9.446156024932861328e-02
2.318601906299591064e-01
5.152448415756225586e-01
-2.576224319636821747e-02
-1.631608754396438599e-01
3.005594909191131592e-01
-3.520839810371398926e-01
8.587414398789405823e-03
8.587414026260375977e-02
-2.490350157022476196e-01
5.152448639273643494e-02
1.202238053083419800e-01
-2.060979455709457397e-01
1.373986303806304932e-01
-9.446156024932861328e-02
1.803357005119323730e-01
-1.545734554529190063e-01
3.434965610504150391e-01
-7.728672772645950317e-02
4.293707013130187988e-02
5.410071015357971191e-01
9.446156024932861328e-02
-1.116363853216171265e-01
-1.116363853216171265e-01
-6.869931519031524658e-02
8.587414398789405823e-03
-6.011190265417098999e-02
-9.446156024932861328e-02
6.011190265417098999e-02
1.116363853216171265e-01
-1.373986303806304932e-01
-2.576224207878112793e-01
-1.631608754396438599e-01
-3.434965759515762329e-02
3.005594909191131592e-01
-1.288112103939056396e-01
-1.030489727854728699e-01
-8.587414398789405823e-03
9.446156024932861328e-02
2.576224319636821747e-02
2.490350157022476196e-01
-1.717482879757881165e-02
1.803357005119323730e-01
-2.576224207878112793e-01
1.717482805252075195e-01
-1.545734554529190063e-01
1.631608754396438599e-01
2.919721007347106934e-01
1.288112103939056396e-01
1.889231204986572266e-01
-3.349091708660125732e-01
-1.030489727854728699e-01
-4.293707013130187988e-02
1.889231204986572266e-01
-1.459860503673553467e-01
-2.576224319636821747e-02
1.202238053083419800e-01
-1.803357005119323730e-01
3.005594909191131592e-01
1.889231204986572266e-01
-9.446156024932861328e-02
-1.288112103939056396e-01
3.606714010238647461e-01
5.839442014694213867e-01
2.404476106166839600e-01
7.728672772645950317e-02
1.459860503673553467e-01
4.894826114177703857e-01
-1.373986303806304932e-01
-8.587414398789405823e-03
1.373986303806304932e-01
-4.207833111286163330e-01
-1.288112103939056396e-01
-5.152448639273643494e-02
-5.925316214561462402e-01
-3.177343308925628662e-01
1.631608754396438599e-01
3.349091708660125732e-01
6.011190265417098999e-02
-6.955805420875549316e-01
-8.587414026260375977e-02
-3.091469109058380127e-01
1.116363853216171265e-01
-2.576224207878112793e-01
-2.146853655576705933e-01
3.864336609840393066e-01
3.349091708660125732e-01
-1.288112103939056396e-01
-4.293707311153411865e-01
5.152448639273643494e-02
2.060979455709457397e-01
-8.587414026260375977e-02
-2.833846807479858398e-01
8.587414398789405823e-03
0.000000000000000000e+00
1.803357005119323730e-01
-2.404476106166839600e-01
-2.060979455709457397e-01
-2.747972607612609863e-01
-6.011190265417098999e-02
-3.606714010238647461e-01
1.631608754396438599e-01
-4.637203812599182129e-01
-2.060979455709457397e-01
-1.717482805252075195e-01
-3.434965610504150391e-01
1.889231204986572266e-01
6.869931519031524658e-02
-1.631608754396438599e-01
5.581819415092468262e-01
-3.177343308925628662e-01
1.288112103939056396e-01
-1.459860503673553467e-01
-2.232727706432342529e-01
1.975105255842208862e-01
2.232727706432342529e-01
-3.349091708660125732e-01
1.373986303806304932e-01
1.202238053083419800e-01
6.869931519031524658e-02
-2.576224319636821747e-02
-1.717482805252075195e-01
-1.373986303806304932e-01
-3.692588210105895996e-01
-4.293707013130187988e-02
-4.551329612731933594e-01
-5.152448639273643494e-02
-2.576224319636821747e-02
1.030489727854728699e-01
2.576224319636821747e-02
5.238322615623474121e-01
-3.091469109058380127e-01
5.667693614959716797e-01
2.833846807479858398e-01
8.587414026260375977e-02
6.011190265417098999e-02
1.975105255842208862e-01
3.434965610504150391e-01
6.440560817718505859e-01
1.975105255842208862e-01
3.434965759515762329e-02
-1.459860503673553467e-01
-1.975105255842208862e-01
7.642799019813537598e-01
1.889231204986572266e-01
5.152448639273643494e-02
-2.318601906299591064e-01
-5.324196815490722656e-01
-1.889231204986572266e-01
-3.177343308925628662e-01
3.434965610504150391e-01
-2.060979455709457397e-01
6.869931519031524658e-02
-1.116363853216171265e-01
-3.177343308925628662e-01
2.576224319636821747e-02
-8.587414026260375977e-02
2.747972607612609863e-01
3.434965759515762329e-02
1.459860503673553467e-01
7.728672772645950317e-02
2.747972607612609863e-01
4.894826114177703857e-01
-1.631608754396438599e-01
-1.116363853216171265e-01
1.631608754396438599e-01
-3.434965759515762329e-02
2.318601906299591064e-01
-3.005594909191131592e-01
1.717482805252075195e-01
7.728672772645950317e-02
-5.581819415092468262e-01
7.728672772645950317e-02
2.490350157022476196e-01
1.545734554529190063e-01
2.833846807479858398e-01
1.717482879757881165e-02
-9.446156024932861328e-02
5.152448639273643494e-02
1.975105255842208862e-01
-3.434965759515762329e-02
1.288112103939056396e-01
8.587414398789405823e-03
-8.587414026260375977e-02
-8.587414398789405823e-03
2.576224207878112793e-01
-1.288112103939056396e-01
2.232727706432342529e-01
1.889231204986572266e-01
6.011190265417098999e-02
3.263217508792877197e-01
-1.459860503673553467e-01
-1.631608754396438599e-01
-1.803357005119323730e-01
-1.202238053083419800e-01
5.152448639273643494e-02
2.146853655576705933e-01
-2.060979455709457397e-01
0.000000000000000000e+00
3.263217508792877197e-01
-1.545734554529190063e-01
-7.728672772645950317e-02
1.116363853216171265e-01
4.465455412864685059e-01
4.293707013130187988e-02
-3.434965759515762329e-02
-2.232727706432342529e-01
-1.288112103939056396e-01
-2.404476106166839600e-01
-2.318601906299591064e-01
3.778462409973144531e-01
2.833846807479858398e-01
1.545734554529190063e-01
1.717482879757881165e-02
2.060979455709457397e-01
-1.889231204986572266e-01
-3.434965759515762329e-02
-1.803357005119323730e-01
-2.833846807479858398e-01
2.318601906299591064e-01
-3.606714010238647461e-01
5.152448639273643494e-02
-3.434965759515762329e-02
-6.955805420875549316e-01
3.177343308925628662e-01
4.293707013130187988e-02
-1.717482879757881165e-02
-2.576224319636821747e-02
8.587414026260375977e-02
5.581819415092468262e-01
-5.066574215888977051e-01
6.011190265417098999e-02
-1.459860503673553467e-01
4.036084711551666260e-01
-5.324196815490722656e-01
-1.288112103939056396e-01
1.545734554529190063e-01
3.864336609840393066e-01
1.889231204986572266e-01
-3.692588210105895996e-01
6.869931519031524658e-02
6.869931221008300781e-01
7.728672772645950317e-02
-3.606714010238647461e-01
-1.459860503673553467e-01
2.318601906299591064e-01
1.202238053083419800e-01
-2.833846807479858398e-01
-3.005594909191131592e-01
-1.373986303806304932e-01
-1.975105255842208862e-01
-1.202238053083419800e-01
1.631608754396438599e-01
-6.011190265417098999e-02
-2.232727706432342529e-01
-1.288112103939056396e-01
1.631608754396438599e-01
3.091469109058380127e-01
3.864336609840393066e-01
-4.293707013130187988e-02
7.728672772645950317e-02
6.869931519031524658e-02
1.717482805252075195e-01
-1.030489727854728699e-01
4.293707013130187988e-02
-3.005594909191131592e-01
-1.545734554529190063e-01
-8.587414026260375977e-02
-1.545734554529190063e-01
-4.293707013130187988e-02
8.587414398789405823e-03
1.116363853216171265e-01
7.728672772645950317e-02
-1.373986303806304932e-01
-2.232727706432342529e-01
-1.717482805252075195e-01
-2.146853655576705933e-01
-1.373986303806304932e-01
3.005594909191131592e-01
9.446156024932861328e-02
4.293707311153411865e-01
-9.446156024932861328e-02
-2.232727706432342529e-01
-8.587414398789405823e-03
-3.434965610504150391e-01
1.373986303806304932e-01
-2.919721007347106934e-01
3.950210511684417725e-01
-4.980700314044952393e-01
3.177343308925628662e-01
2.662098407745361328e-01
3.434965610504150391e-01
5.152448639273643494e-02
1.288112103939056396e-01
-1.889231204986572266e-01
7.728672772645950317e-02
-2.490350157022476196e-01
-3.692588210105895996e-01
3.349091708660125732e-01
-1.975105255842208862e-01
2.576224207878112793e-01
-8.587414398789405823e-03
2.662098407745361328e-01
-3.950210511684417725e-01
-3.349091708660125732e-01
2.747972607612609863e-01
1.631608754396438599e-01
6.011190265417098999e-02
-3.005594909191131592e-01
-3.434965759515762329e-02
-3.091469109058380127e-01
1.717482879757881165e-02
-8.587414398789405823e-03
3.434965759515762329e-02
-3.005594909191131592e-01
-5.152448639273643494e-02
4.207833111286163330e-01
3.606714010238647461e-01
-1.717482805252075195e-01
-1.459860503673553467e-01
-3.005594909191131592e-01
-1.803357005119323730e-01
8.587414398789405823e-03
1.373986303806304932e-01
-1.373986303806304932e-01
6.869931519031524658e-02
1.889231204986572266e-01
9.446156024932861328e-02
4.207833111286163330e-01
6.011190265417098999e-02
4.207833111286163330e-01
4.293707013130187988e-02
-2.833846807479858398e-01
-3.005594909191131592e-01
-2.404476106166839600e-01
4.293707311153411865e-01
2.662098407745361328e-01
1.545734554529190063e-01
-2.833846807479858398e-01
-3.434965610504150391e-01
1.631608754396438599e-01
-3.434965759515762329e-02
-1.717482805252075195e-01
-7.728672772645950317e-02
1.717482879757881165e-02
-5.152448639273643494e-02
2.060979455709457397e-01
1.803357005119323730e-01
-2.318601906299591064e-01
4.293707013130187988e-02
-9.446156024932861328e-02
2.833846807479858398e-01
-6.011190265417098999e-02
6.869931519031524658e-02
4.551329612731933594e-01
1.545734554529190063e-01
-5.495945215225219727e-01
3.778462409973144531e-01
-4.121958911418914795e-01
7.728672772645950317e-02
6.869931519031524658e-02
3.263217508792877197e-01
-2.662098407745361328e-01
-4.121958911418914795e-01
1.373986303806304932e-01
4.293707013130187988e-02
3.950210511684417725e-01
2.747972607612609863e-01
2.232727706432342529e-01
3.606714010238647461e-01
-3.434965759515762329e-02
-3.434965759515762329e-02
-3.864336609840393066e-01
3.434965610504150391e-01
-2.404476106166839600e-01
9.446156024932861328e-02
4.894826114177703857e-01
5.839442014694213867e-01
-2.060979455709457397e-01
3.091469109058380127e-01
-1.631608754396438599e-01
0.000000000000000000e+00
4.293707311153411865e-01
-5.152448639273643494e-02
-6.869931519031524658e-02
3.864336609840393066e-01
-2.060979455709457397e-01
6.011190265417098999e-02
1.803357005119323730e-01
1.288112103939056396e-01
-6.011190265417098999e-02
-8.587414398789405823e-03
-1.373986303806304932e-01
-3.778462409973144531e-01
-2.318601906299591064e-01
-4.036084711551666260e-01
-2.747972607612609863e-01
1.975105255842208862e-01
-3.177343308925628662e-01
-9.446156024932861328e-02
-1.202238053083419800e-01
-9.446156024932861328e-02
4.121958911418914795e-01
-5.152448639273643494e-02
-1.202238053083419800e-01
8.587414026260375977e-02
-3.434965610504150391e-01
2.662098407745361328e-01
3.005594909191131592e-01
-4.207833111286163330e-01
-2.060979455709457397e-01
6.011190265417098999e-02
-2.662098407745361328e-01
1.545734554529190063e-01
-3.434965610504150391e-01
-1.803357005119323730e-01
8.587414398789405823e-03
-4.637203812599182129e-01
1.202238053083419800e-01
-1.717482879757881165e-02
7.728672772645950317e-02
-3.864336609840393066e-01
1.116363853216171265e-01
4.980700314044952393e-01
-1.288112103939056396e-01
-2.662098407745361328e-01
-1.717482805252075195e-01
2.747972607612609863e-01
5.238322615623474121e-01
1.288112103939056396e-01
1.803357005119323730e-01
1.631608754396438599e-01
1.889231204986572266e-01
-2.576224319636821747e-02
2.833846807479858398e-01
-1.975105255842208862e-01
3.263217508792877197e-01
-3.434965759515762329e-02
8.587414026260375977e-02
-2.490350157022476196e-01
-1.116363853216171265e-01
5.238322615623474121e-01
4.121958911418914795e-01
-2.060979455709457397e-01
-1.545734554529190063e-01
-1.202238053083419800e-01
3.864336609840393066e-01
6.869931221008300781e-01
2.404476106166839600e-01
1.545734554529190063e-01
-1.030489727854728699e-01
-2.146853655576705933e-01
6.869931519031524658e-02
-1.889231204986572266e-01
7.728672772645950317e-02
-9.016785025596618652e-01
4.379581212997436523e-01
2.318601906299591064e-01
-6.182938218116760254e-01
-8.587414026260375977e-02
3.349091708660125732e-01
3.520839810371398926e-01
5.410071015357971191e-01
-3.434965610504150391e-01
5.152448639273643494e-02
-6.354686617851257324e-01
-4.379581212997436523e-01
-1.202238053083419800e-01
-4.808952212333679199e-01
3.005594909191131592e-01
7.041679620742797852e-01
-1.459860503673553467e-01
-1.373986303806304932e-01
-1.545734554529190063e-01
-8.587414398789405823e-03
-3.778462409973144531e-01
3.434965610504150391e-01
3.520839810371398926e-01
4.551329612731933594e-01
-9.446156024932861328e-02
2.404476106166839600e-01
-4.207833111286163330e-01
-6.869931519031524658e-02
-6.011190265417098999e-02
1.202238053083419800e-01
-2.662098407745361328e-01
2.576224319636821747e-02
-3.005594909191131592e-01
1.288112103939056396e-01
-1.373986303806304932e-01
2.232727706432342529e-01
-1.116363853216171265e-01
4.551329612731933594e-01
2.404476106166839600e-01
-3.005594909191131592e-01
-9.446156024932861328e-02
5.324196815490722656e-01
3.434965759515762329e-02
4.637203812599182129e-01
-5.066574215888977051e-01
2.490350157022476196e-01
3.434965759515762329e-02
-1.889231204986572266e-01
2.146853655576705933e-01
2.146853655576705933e-01
1.975105255842208862e-01
2.576224319636821747e-02
6.869931519031524658e-02
3.778462409973144531e-01
-1.099189043045043945e+00
4.207833111286163330e-01
3.349091708660125732e-01
3.434965610504150391e-01
3.520839810371398926e-01
-3.177343308925628662e-01
2.146853655576705933e-01
-1.116363853216171265e-01
-2.747972607612609863e-01
5.495945215225219727e-01
1.717482805252075195e-01
-1.975105255842208862e-01
-2.318601906299591064e-01
-2.833846807479858398e-01
-3.692588210105895996e-01
3.091469109058380127e-01
-3.606714010238647461e-01
2.576224319636821747e-02
2.833846807479858398e-01
-3.520839810371398926e-01
-2.146853655576705933e-01
1.202238053083419800e-01
4.551329612731933594e-01
2.060979455709457397e-01
3.177343308925628662e-01
5.152448639273643494e-02
6.011190265417098999e-02
3.349091708660125732e-01
2.576224319636821747e-02
3.434965610504150391e-01
-1.116363853216171265e-01
8.587414398789405823e-03
3.177343308925628662e-01
-1.803357005119323730e-01
1.545734554529190063e-01
3.349091708660125732e-01
-1.373986303806304932e-01
-3.434965759515762329e-02
6.011190265417098999e-02
-7.728672772645950317e-02
1.116363853216171265e-01
-1.030489727854728699e-01
-9.446156024932861328e-02
-2.232727706432342529e-01
3.606714010238647461e-01
-1.717482879757881165e-02
3.864336609840393066e-01
-1.288112103939056396e-01
-4.121958911418914795e-01
7.728672772645950317e-02
2.919721007347106934e-01
5.152448639273643494e-02
8.587414398789405823e-03
-8.587414026260375977e-02
1.975105255842208862e-01
4.036084711551666260e-01
-3.434965610504150391e-01
-3.950210511684417725e-01
2.576224319636821747e-02
-1.288112103939056396e-01
2.060979455709457397e-01
-2.318601906299591064e-01
1.631608754396438599e-01
-4.207833111286163330e-01
-8.587414398789405823e-03
-1.545734554529190063e-01
-1.803357005119323730e-01
-8.587414026260375977e-02
3.434965759515762329e-02
-2.232727706432342529e-01
1.545734554529190063e-01
-2.404476106166839600e-01
3.434965610504150391e-01
-1.717482879757881165e-02
7.728672772645950317e-02
-3.950210511684417725e-01
3.434965759515762329e-02
-1.202238053083419800e-01
3.177343308925628662e-01
-4.379581212997436523e-01
-2.576224319636821747e-02
-3.606714010238647461e-01
-5.066574215888977051e-01
-1.459860503673553467e-01
8.587414398789405823e-03
1.631608754396438599e-01
-5.152448639273643494e-02
2.490350157022476196e-01
-2.576224207878112793e-01
-1.373986303806304932e-01
-8.587414398789405823e-03
3.263217508792877197e-01
7.728672772645950317e-02
-2.833846807479858398e-01
3.692588210105895996e-01
-8.587414398789405823e-03
2.662098407745361328e-01
1.717482879757881165e-02
-5.152448639273643494e-02
-1.717482805252075195e-01
2.747972607612609863e-01
3.349091708660125732e-01
-2.318601906299591064e-01
1.717482805252075195e-01
3.864336609840393066e-01
1.116363853216171265e-01
2.576224319636821747e-02
-1.373986303806304932e-01
-3.177343308925628662e-01
-3.005594909191131592e-01
-3.434965759515762329e-02
3.692588210105895996e-01
5.066574215888977051e-01
1.459860503673553467e-01
1.717482879757881165e-02
2.404476106166839600e-01
3.778462409973144531e-01
2.146853655576705933e-01
-6.011190265417098999e-02
-1.717482805252075195e-01
6.011190265417098999e-02
3.434965759515762329e-02
-3.005594909191131592e-01
3.434965759515762329e-02
2.662098407745361328e-01
4.551329612731933594e-01
-3.434965759515762329e-02
-2.576224319636821747e-02
-6.354686617851257324e-01
4.293707013130187988e-02
4.207833111286163330e-01
-4.723078012466430664e-01
1.288112103939056396e-01
-5.581819415092468262e-01
4.293707013130187988e-02
-1.288112103939056396e-01
-2.919721007347106934e-01
2.232727706432342529e-01
-2.662098407745361328e-01
-1.889231204986572266e-01
-1.975105255842208862e-01
-5.324196815490722656e-01
-4.293707311153411865e-01
6.097064018249511719e-01
-1.803357005119323730e-01
-2.060979455709457397e-01
2.662098407745361328e-01
-7.728672772645950317e-02
0.000000000000000000e+00
-3.864336609840393066e-01
-2.576224319636821747e-02
-3.263217508792877197e-01
-5.152448639273643494e-02
5.152448639273643494e-02
1.545734554529190063e-01
9.446156024932861328e-02
-1.631608754396438599e-01
1.717482879757881165e-02
-2.146853655576705933e-01
6.011190265417098999e-02
1.288112103939056396e-01
1.717482879757881165e-02
-5.152448639273643494e-02
1.717482879757881165e-02
2.662098407745361328e-01
6.011190265417098999e-02
1.373986303806304932e-01
1.288112103939056396e-01
-1.373986303806304932e-01
1.459860503673553467e-01
6.011190265417098999e-02
2.232727706432342529e-01
-1.030489727854728699e-01
2.060979455709457397e-01
-1.803357005119323730e-01
1.975105255842208862e-01
-2.662098407745361328e-01
1.975105255842208862e-01
1.373986303806304932e-01
2.576224207878112793e-01
-1.889231204986572266e-01
-2.747972607612609863e-01
2.576224319636821747e-02
-3.434965759515762329e-02
1.717482879757881165e-02
-1.975105255842208862e-01
-3.606714010238647461e-01
1.717482879757881165e-02
2.919721007347106934e-01
3.864336609840393066e-01
1.116363853216171265e-01
-4.551329612731933594e-01
-8.587414026260375977e-02
2.919721007347106934e-01
-3.778462409973144531e-01
-1.717482879757881165e-02
-2.662098407745361328e-01
-1.803357005119323730e-01
4.293707013130187988e-02
5.495945215225219727e-01
1.975105255842208862e-01
4.293707013130187988e-02
-4.808952212333679199e-01
-1.889231204986572266e-01
2.833846807479858398e-01
-3.778462409973144531e-01
-3.864336609840393066e-01
-3.005594909191131592e-01
2.404476106166839600e-01
4.723078012466430664e-01
-4.551329612731933594e-01
1.975105255842208862e-01
-4.894826114177703857e-01
-9.446156024932861328e-02
-1.545734554529190063e-01
-6.526435017585754395e-01
-6.011190265417098999e-02
-7.728672772645950317e-02
2.576224207878112793e-01
4.293707311153411865e-01
-5.238322615623474121e-01
-6.869931519031524658e-02
-6.869931519031524658e-02
7.728672772645950317e-02
-3.177343308925628662e-01
-2.060979455709457397e-01
1.030489727854728699e-01
3.434965759515762329e-02
2.490350157022476196e-01
1.116363853216171265e-01
-8.587414398789405823e-03
1.288112103939056396e-01
3.434965759515762329e-02
6.869931519031524658e-02
-1.116363853216171265e-01
-1.288112103939056396e-01
-1.545734554529190063e-01
-4.293707013130187988e-02
-3.434965610504150391e-01
8.587414026260375977e-02
-1.975105255842208862e-01
4.036084711551666260e-01
9.446156024932861328e-02
-2.576224319636821747e-02
3.606714010238647461e-01
2.404476106166839600e-01
1.202238053083419800e-01
-9.446156024932861328e-02
2.146853655576705933e-01
-2.833846807479858398e-01
2.576224207878112793e-01
5.066574215888977051e-01
-1.202238053083419800e-01
3.005594909191131592e-01
4.980700314044952393e-01
8.587414026260375977e-02
-2.146853655576705933e-01
4.293707013130187988e-02
3.434965759515762329e-02
-3.864336609840393066e-01
-2.576224319636821747e-02
-2.404476106166839600e-01
3.606714010238647461e-01
-8.587414026260375977e-02
1.373986303806304932e-01
3.263217508792877197e-01
1.030489727854728699e-01
-6.011190265417098999e-02
-1.030489727854728699e-01
-1.116363853216171265e-01
-6.011190265417098999e-02
0.000000000000000000e+00
1.545734554529190063e-01
-1.631608754396438599e-01
1.202238053083419800e-01
2.490350157022476196e-01
1.116363853216171265e-01
4.036084711551666260e-01
2.490350157022476196e-01
-2.576224319636821747e-02
-1.803357005119323730e-01
-4.808952212333679199e-01
2.490350157022476196e-01
-8.072169423103332520e-01
-3.778462409973144531e-01
2.490350157022476196e-01
6.182938218116760254e-01
-1.073426842689514160e+00
4.121958911418914795e-01
-2.146853655576705933e-01
3.950210511684417725e-01
-3.520839810371398926e-01
-8.587414398789405823e-03
-1.545734554529190063e-01
7.299302220344543457e-01
2.919721007347106934e-01
-4.121958911418914795e-01
-4.980700314044952393e-01
-1.116363853216171265e-01
3.778462409973144531e-01
2.146853655576705933e-01
-6.869931221008300781e-01
-1.631608754396438599e-01
5.152448639273643494e-02
-5.238322615623474121e-01
4.894826114177703857e-01
-7.471050620079040527e-01
-5.495945215225219727e-01
-4.379581212997436523e-01
-3.177343308925628662e-01
-4.465455412864685059e-01
-5.152448639273643494e-02
4.980700314044952393e-01
3.091469109058380127e-01
-8.587414026260375977e-02
2.146853655576705933e-01
1.288112103939056396e-01
2.662098407745361328e-01
-1.288112103939056396e-01
-7.728672772645950317e-02
-2.318601906299591064e-01
5.152448639273643494e-02
3.005594909191131592e-01
2.833846807479858398e-01
-2.747972607612609863e-01
6.011190265417098999e-02
3.520839810371398926e-01
3.177343308925628662e-01
-1.030489727854728699e-01
1.975105255842208862e-01
5.152448639273643494e-02
-2.576224207878112793e-01
4.293707013130187988e-02
2.318601906299591064e-01
1.030489727854728699e-01
3.005594909191131592e-01
-1.889231204986572266e-01
-8.587414026260375977e-02
0.000000000000000000e+00
-2.576224207878112793e-01
5.152448639273643494e-02
9.446156024932861328e-02
-8.587414398789405823e-03
5.324196815490722656e-01
3.434965759515762329e-02
-1.545734554529190063e-01
0.000000000000000000e+00
3.950210511684417725e-01
-4.036084711551666260e-01
-4.293707013130187988e-02
-3.177343308925628662e-01
4.207833111286163330e-01
-9.446156024932861328e-02
4.293707013130187988e-02
3.177343308925628662e-01
4.293707013130187988e-02
-3.177343308925628662e-01
-8.587414398789405823e-03
4.293707013130187988e-02
1.717482805252075195e-01
-8.587414398789405823e-03
7.728672772645950317e-02
-8.587414398789405823e-03
1.030489727854728699e-01
2.060979455709457397e-01
2.490350157022476196e-01
1.459860503673553467e-01
1.631608754396438599e-01
-1.975105255842208862e-01
5.152448639273643494e-02
1.975105255842208862e-01
-3.349091708660125732e-01
-1.717482879757881165e-02
6.869931519031524658e-02
2.404476106166839600e-01
-1.803357005119323730e-01
2.662098407745361328e-01
-2.919721007347106934e-01
1.373986303806304932e-01
3.091469109058380127e-01
8.587414026260375977e-02
-3.434965759515762329e-02
2.919721007347106934e-01
-3.606714010238647461e-01
2.576224319636821747e-02
2.662098407745361328e-01
4.293707013130187988e-02
1.459860503673553467e-01
2.662098407745361328e-01
1.717482805252075195e-01
-6.011190265417098999e-02
1.373986303806304932e-01
-6.011190265417098999e-02
1.373986303806304932e-01
-3.950210511684417725e-01
-3.864336609840393066e-01
-6.869931519031524658e-02
-5.753567814826965332e-01
1.202238053083419800e-01
4.121958911418914795e-01
-2.576224207878112793e-01
-3.434965759515762329e-02
-2.747972607612609863e-01
-3.091469109058380127e-01
0.000000000000000000e+00
-2.232727706432342529e-01
3.606714010238647461e-01
-6.869931519031524658e-02
1.288112103939056396e-01
-2.576224207878112793e-01
-1.116363853216171265e-01
-2.576224319636821747e-02
-4.293707013130187988e-02
1.717482805252075195e-01
7.728672772645950317e-02
-1.717482805252075195e-01
-4.293707013130187988e-02
-9.446156024932861328e-02
-4.293707013130187988e-02
1.889231204986572266e-01
2.747972607612609863e-01
-3.434965610504150391e-01
7.728672772645950317e-02
0.000000000000000000e+00
-4.036084711551666260e-01
4.207833111286163330e-01
-1.717482805252075195e-01
-1.459860503673553467e-01
0.000000000000000000e+00
-6.869931519031524658e-02
-4.207833111286163330e-01
7.728672772645950317e-02
-2.060979455709457397e-01
3.434965759515762329e-02
-1.459860503673553467e-01
-2.490350157022476196e-01
6.869931519031524658e-02
-5.753567814826965332e-01
-1.459860503673553467e-01
2.318601906299591064e-01
-2.146853655576705933e-01
-8.587414026260375977e-02
1.545734554529190063e-01
2.576224207878112793e-01
-8.587414398789405823e-03
1.717482879757881165e-02
7.728672772645950317e-02
7.728672772645950317e-02
-9.446156024932861328e-02
2.146853655576705933e-01
2.146853655576705933e-01
-2.060979455709457397e-01
-6.869931519031524658e-02
8.587414026260375977e-02
1.202238053083419800e-01
3.434965759515762329e-02
1.116363853216171265e-01
1.889231204986572266e-01
3.434965759515762329e-02
3.520839810371398926e-01
-1.288112103939056396e-01
6.869931519031524658e-02
7.728672772645950317e-02
-8.587414398789405823e-03
-2.232727706432342529e-01
1.545734554529190063e-01
-2.490350157022476196e-01
-1.717482805252075195e-01
1.030489727854728699e-01
-6.011190265417098999e-02
-7.728672772645950317e-02
9.446156024932861328e-02
-1.116363853216171265e-01
-1.717482805252075195e-01
-3.349091708660125732e-01
1.373986303806304932e-01
-2.747972607612609863e-01
-1.717482879757881165e-02
-3.005594909191131592e-01
-3.692588210105895996e-01
2.833846807479858398e-01
-2.490350157022476196e-01
5.152448639273643494e-02
-6.011190265417098999e-02
3.864336609840393066e-01
2.490350157022476196e-01
1.030489727854728699e-01
-1.889231204986572266e-01
1.459860503673553467e-01
8.587414026260375977e-02
4.293707013130187988e-02
0.000000000000000000e+00
-2.576224207878112793e-01
-4.036084711551666260e-01
-1.717482879757881165e-02
-3.606714010238647461e-01
2.576224207878112793e-01
2.490350157022476196e-01
-2.833846807479858398e-01
-3.091469109058380127e-01
4.293707311153411865e-01
-2.060979455709457397e-01
-2.146853655576705933e-01
-2.490350157022476196e-01
1.373986303806304932e-01
1.288112103939056396e-01
2.146853655576705933e-01
6.097064018249511719e-01
4.808952212333679199e-01
3.349091708660125732e-01
4.036084711551666260e-01
-2.318601906299591064e-01
1.975105255842208862e-01
5.410071015357971191e-01
-2.576224207878112793e-01
1.373986303806304932e-01
1.803357005119323730e-01
-3.434965759515762329e-02
-8.587414026260375977e-02
-2.318601906299591064e-01
1.975105255842208862e-01
5.495945215225219727e-01
-5.324196815490722656e-01
-1.717482879757881165e-02
6.011190265417098999e-02
4.036084711551666260e-01
-6.869931519031524658e-02
-3.520839810371398926e-01
3.091469109058380127e-01
-2.833846807479858398e-01
4.293707013130187988e-02
-3.434965759515762329e-02
1.459860503673553467e-01
-6.011190265417098999e-02
4.293707013130187988e-02
2.060979455709457397e-01
-1.803357005119323730e-01
3.005594909191131592e-01
6.011190265417098999e-02
-9.446156024932861328e-02
4.293707311153411865e-01
-1.975105255842208862e-01
3.606714010238647461e-01
-6.869931519031524658e-02
-6.869931519031524658e-02
8.587414398789405823e-03
8.587414026260375977e-02
-3.520839810371398926e-01
8.587414026260375977e-02
-1.717482879757881165e-02
-2.060979455709457397e-01
1.803357005119323730e-01
-4.551329612731933594e-01
-1.030489727854728699e-01
1.288112103939056396e-01
4.894826114177703857e-01
1.545734554529190063e-01
-3.177343308925628662e-01
2.146853655576705933e-01
-3.950210511684417725e-01
9.446156024932861328e-02
-6.869931519031524658e-02
-8.587414398789405823e-03
-3.349091708660125732e-01
1.116363853216171265e-01
4.551329612731933594e-01
-1.803357005119323730e-01
2.576224319636821747e-02
2.576224319636821747e-02
-6.011190265417098999e-02
5.667693614959716797e-01
-2.318601906299591064e-01
9.446156024932861328e-02
1.631608754396438599e-01
1.717482805252075195e-01
-1.459860503673553467e-01
-3.434965759515762329e-02
1.116363853216171265e-01
-2.747972607612609863e-01
7.728672772645950317e-02
-2.576224207878112793e-01
-2.576224207878112793e-01
4.036084711551666260e-01
-4.637203812599182129e-01
-3.778462409973144531e-01
-3.864336609840393066e-01
3.263217508792877197e-01
3.950210511684417725e-01
-4.036084711551666260e-01
3.520839810371398926e-01
2.146853655576705933e-01
-1.545734554529190063e-01
2.146853655576705933e-01
8.587414398789405823e-03
-1.631608754396438599e-01
3.263217508792877197e-01
-1.975105255842208862e-01
5.152448639273643494e-02
1.030489727854728699e-01
-3.778462409973144531e-01
-5.324196815490722656e-01
1.717482879757881165e-02
8.587414026260375977e-02
-2.146853655576705933e-01
-2.747972607612609863e-01
-1.373986303806304932e-01
-2.404476106166839600e-01
1.717482879757881165e-02
-1.459860503673553467e-01
-5.839442014694213867e-01
6.011190265417098999e-02
-1.116363853216171265e-01
1.545734554529190063e-01
2.747972607612609863e-01
1.116363853216171265e-01
2.490350157022476196e-01
-1.889231204986572266e-01
1.545734554529190063e-01
3.263217508792877197e-01
-2.060979455709457397e-01
-1.116363853216171265e-01
1.717482879757881165e-02
-4.293707013130187988e-02
-2.833846807479858398e-01
-6.011190265417098999e-02
-3.005594909191131592e-01
7.728672772645950317e-02
1.889231204986572266e-01
-1.975105255842208862e-01
-2.576224319636821747e-02
1.373986303806304932e-01
-2.576224319636821747e-02
-1.116363853216171265e-01
-3.434965759515762329e-02
-1.545734554529190063e-01
-3.778462409973144531e-01
2.919721007347106934e-01
8.587414026260375977e-02
4.551329612731933594e-01
3.692588210105895996e-01
4.293707311153411865e-01
-2.662098407745361328e-01
-3.349091708660125732e-01
-2.576224207878112793e-01
-1.717482879757881165e-02
1.717482879757881165e-02
-1.288112103939056396e-01
-2.833846807479858398e-01
5.066574215888977051e-01
1.975105255842208862e-01
3.091469109058380127e-01
-3.606714010238647461e-01
1.459860503673553467e-01
-3.263217508792877197e-01
-4.207833111286163330e-01
4.036084711551666260e-01
1.717482805252075195e-01
-1.631608754396438599e-01
-1.459860503673553467e-01
2.747972607612609863e-01
2.576224207878112793e-01
-2.146853655576705933e-01
9.446156024932861328e-02
-3.177343308925628662e-01
6.268812417984008789e-01
-8.587414026260375977e-02
-3.434965759515762329e-02
-3.091469109058380127e-01
0.000000000000000000e+00
-1.717482879757881165e-02
2.404476106166839600e-01
-1.545734554529190063e-01
2.146853655576705933e-01
2.919721007347106934e-01
1.202238053083419800e-01
-1.717482879757881165e-02
-3.778462409973144531e-01
-2.146853655576705933e-01
-6.869931519031524658e-02
-1.975105255842208862e-01
2.232727706432342529e-01
-1.803357005119323730e-01
8.587414026260375977e-02
-3.434965759515762329e-02
-2.747972607612609863e-01
1.631608754396438599e-01
0.000000000000000000e+00
-1.975105255842208862e-01
6.011190265417098999e-02
-5.324196815490722656e-01
-2.146853655576705933e-01
-1.889231204986572266e-01
-4.293707013130187988e-02
1.631608754396438599e-01
1.889231204986572266e-01
3.434965610504150391e-01
2.490350157022476196e-01
-8.587414398789405823e-03
4.293707013130187988e-02
-2.404476106166839600e-01
-2.662098407745361328e-01
2.318601906299591064e-01
-1.631608754396438599e-01
1.373986303806304932e-01
8.587414398789405823e-03
1.975105255842208862e-01
1.202238053083419800e-01
-1.116363853216171265e-01
-3.864336609840393066e-01
1.116363853216171265e-01
1.459860503673553467e-01
2.404476106166839600e-01
-1.803357005119323730e-01
4.036084711551666260e-01
1.975105255842208862e-01
-5.152448639273643494e-02
6.011190265417098999e-02
-2.833846807479858398e-01
1.030489727854728699e-01
5.152448639273643494e-02
-1.202238053083419800e-01
-2.662098407745361328e-01
-6.011190265417098999e-02
9.446156024932861328e-02
1.030489727854728699e-01
5.410071015357971191e-01
3.005594909191131592e-01
-6.011190265417098999e-02
4.293707013130187988e-02
1.459860503673553467e-01
-1.030489727854728699e-01
-1.116363853216171265e-01
1.545734554529190063e-01
-1.373986303806304932e-01
-9.446156024932861328e-02
-1.030489727854728699e-01
-1.803357005119323730e-01
-7.728672772645950317e-02
8.587414398789405823e-03
1.631608754396438599e-01
4.465455412864685059e-01
8.587414026260375977e-02
1.288112103939056396e-01
9.446156024932861328e-02
3.434965759515762329e-02
-3.434965759515762329e-02
3.434965759515762329e-02
2.404476106166839600e-01
-2.576224207878112793e-01
4.293707013130187988e-02
-3.434965610504150391e-01
6.869931519031524658e-02
-2.919721007347106934e-01
2.060979455709457397e-01
-1.030489727854728699e-01
6.011190265417098999e-02
-2.490350157022476196e-01
-1.202238053083419800e-01
-1.545734554529190063e-01
-7.728672772645950317e-02
1.889231204986572266e-01
-1.373986303806304932e-01
-2.747972607612609863e-01
-1.803357005119323730e-01
-3.606714010238647461e-01
-1.202238053083419800e-01
-9.446156024932861328e-02
-6.869931519031524658e-02
2.146853655576705933e-01
-2.576224319636821747e-02
6.011190265417098999e-02
3.005594909191131592e-01
-5.152448639273643494e-02
-1.975105255842208862e-01
3.778462409973144531e-01
3.778462409973144531e-01
-4.036084711551666260e-01
-7.728672772645950317e-02
-2.146853655576705933e-01
-4.121958911418914795e-01
8.587414398789405823e-03
1.631608754396438599e-01
-2.404476106166839600e-01
-1.889231204986572266e-01
-2.662098407745361328e-01
-5.152448639273643494e-02
1.889231204986572266e-01
2.404476106166839600e-01
4.293707013130187988e-02
-1.717482879757881165e-02
-1.975105255842208862e-01
3.864336609840393066e-01
-4.121958911418914795e-01
1.116363853216171265e-01
8.587414398789405823e-03
-2.060979455709457397e-01
-7.728672772645950317e-02
-2.833846807479858398e-01
-1.717482879757881165e-02
-2.060979455709457397e-01
2.232727706432342529e-01
-2.747972607612609863e-01
-1.116363853216171265e-01
4.551329612731933594e-01
1.631608754396438599e-01
-1.975105255842208862e-01
-2.232727706432342529e-01
2.662098407745361328e-01
3.434965759515762329e-02
-1.631608754396438599e-01
1.717482805252075195e-01
-2.747972607612609863e-01
2.490350157022476196e-01
1.459860503673553467e-01
6.011190265417098999e-02
-2.576224319636821747e-02
1.288112103939056396e-01
-2.060979455709457397e-01
1.631608754396438599e-01
1.202238053083419800e-01
1.717482805252075195e-01
-1.803357005119323730e-01
1.975105255842208862e-01
6.011190265417098999e-02
-1.717482879757881165e-02
2.232727706432342529e-01
-3.434965759515762329e-02
-5.066574215888977051e-01
-2.318601906299591064e-01
-4.121958911418914795e-01
1.803357005119323730e-01
-2.919721007347106934e-01
-2.232727706432342529e-01
2.919721007347106934e-01
3.091469109058380127e-01
-3.950210511684417725e-01
-8.587414398789405823e-03
-2.576224207878112793e-01
4.465455412864685059e-01
2.576224319636821747e-02
3.263217508792877197e-01
-6.955805420875549316e-01
-4.293707311153411865e-01
1.717482805252075195e-01
-1.975105255842208862e-01
3.005594909191131592e-01
-2.662098407745361328e-01
9.446156024932861328e-02
-6.698183417320251465e-01
4.894826114177703857e-01
-6.612309217453002930e-01
-1.030489727854728699e-01
-3.950210511684417725e-01
3.434965759515762329e-02
-1.373986303806304932e-01
0.000000000000000000e+00
-4.293707311153411865e-01
3.778462409973144531e-01
8.587414026260375977e-02
1.288112103939056396e-01
4.465455412864685059e-01
-6.011190265417098999e-02
1.030489727854728699e-01
1.373986303806304932e-01
-2.146853655576705933e-01
-2.576224319636821747e-02
-1.631608754396438599e-01
-4.121958911418914795e-01
-2.060979455709457397e-01
-1.717482879757881165e-02
1.116363853216171265e-01
-5.152448639273643494e-02
1.717482879757881165e-02
0.000000000000000000e+00
-2.833846807479858398e-01
4.207833111286163330e-01
-2.833846807479858398e-01
0.000000000000000000e+00
1.803357005119323730e-01
9.446156024932861328e-02
-2.404476106166839600e-01
-3.606714010238647461e-01
2.146853655576705933e-01
-8.587414026260375977e-02
2.833846807479858398e-01
1.116363853216171265e-01
2.404476106166839600e-01
5.152448639273643494e-02
2.576224319636821747e-02
2.576224319636821747e-02
-1.717482879757881165e-02
4.465455412864685059e-01
2.833846807479858398e-01
2.146853655576705933e-01
2.919721007347106934e-01
2.404476106166839600e-01
-3.177343308925628662e-01
-1.459860503673553467e-01
8.587414026260375977e-02
-1.631608754396438599e-01
-6.869931519031524658e-02
-6.869931519031524658e-02
2.576224207878112793e-01
-6.869931519031524658e-02
2.919721007347106934e-01
-2.146853655576705933e-01
-1.803357005119323730e-01
1.116363853216171265e-01
-9.446156024932861328e-02
-2.833846807479858398e-01
-1.889231204986572266e-01
3.434965610504150391e-01
-1.202238053083419800e-01
0.000000000000000000e+00
1.631608754396438599e-01
-3.005594909191131592e-01
2.490350157022476196e-01
-2.662098407745361328e-01
-1.717482805252075195e-01
1.545734554529190063e-01
4.207833111286163330e-01
-6.011190265417098999e-02
-5.495945215225219727e-01
-8.587414398789405823e-03
-4.207833111286163330e-01
-3.434965610504150391e-01
1.975105255842208862e-01
5.152448639273643494e-02
-5.152448639273643494e-02
-5.495945215225219727e-01
-1.717482805252075195e-01
-5.667693614959716797e-01
-3.606714010238647461e-01
2.662098407745361328e-01
3.091469109058380127e-01
2.833846807479858398e-01
1.631608754396438599e-01
-3.177343308925628662e-01
-2.146853655576705933e-01
1.030489727854728699e-01
-5.152448639273643494e-02
3.177343308925628662e-01
-2.490350157022476196e-01
-7.041679620742797852e-01
-4.980700314044952393e-01
4.894826114177703857e-01
2.919721007347106934e-01
2.146853655576705933e-01
2.232727706432342529e-01
5.152448415756225586e-01
8.587414026260375977e-02
3.606714010238647461e-01
-1.717482879757881165e-02
8.587414398789405823e-03
3.177343308925628662e-01
-3.520839810371398926e-01
2.662098407745361328e-01
-4.980700314044952393e-01
-1.030489727854728699e-01
-1.202238053083419800e-01
2.490350157022476196e-01
-1.545734554529190063e-01
-8.587414026260375977e-02
1.803357005119323730e-01
2.146853655576705933e-01
-6.011190265417098999e-02
-2.576224207878112793e-01
1.975105255842208862e-01
-2.576224319636821747e-02
-3.349091708660125732e-01
4.894826114177703857e-01
-9.446156024932861328e-02
6.011190265417098999e-02
2.232727706432342529e-01
-2.404476106166839600e-01
-3.692588210105895996e-01
-1.631608754396438599e-01
8.587414398789405823e-03
6.011190265417098999e-02
1.202238053083419800e-01
-3.434965759515762329e-02
-9.446156024932861328e-02
-2.833846807479858398e-01
3.177343308925628662e-01
-1.288112103939056396e-01
-1.889231204986572266e-01
-4.808952212333679199e-01
2.662098407745361328e-01
8.587414026260375977e-02
2.060979455709457397e-01
-3.434965759515762329e-02
-1.717482805252075195e-01
-1.459860503673553467e-01
7.728672772645950317e-02
-9.446156024932861328e-02
-3.434965759515762329e-02
-8.587414026260375977e-02
-1.545734554529190063e-01
-8.587414398789405823e-03
-1.373986303806304932e-01
8.587414398789405823e-03
1.631608754396438599e-01
2.146853655576705933e-01
1.717482805252075195e-01
2.232727706432342529e-01
-5.324196815490722656e-01
-8.587414026260375977e-02
-7.728672772645950317e-02
-3.864336609840393066e-01
2.833846807479858398e-01
4.465455412864685059e-01
1.202238053083419800e-01
-1.116363853216171265e-01
3.434965759515762329e-02
4.465455412864685059e-01
-4.293707013130187988e-02
-8.587414398789405823e-03
-3.177343308925628662e-01
8.587414398789405823e-03
2.576224319636821747e-02
1.030489727854728699e-01
-1.030489727854728699e-01
-8.587414398789405823e-03
-2.060979455709457397e-01
9.446156024932861328e-02
4.121958911418914795e-01
-2.919721007347106934e-01
-4.465455412864685059e-01
-1.545734554529190063e-01
-1.116363853216171265e-01
9.446156024932861328e-02
0.000000000000000000e+00
-1.631608754396438599e-01
2.576224319636821747e-02
3.434965759515762329e-02
3.091469109058380127e-01
-2.576224207878112793e-01
4.293707013130187988e-02
-2.576224319636821747e-02
3.520839810371398926e-01
-3.177343308925628662e-01
-8.587414398789405823e-03
1.030489727854728699e-01
2.576224319636821747e-02
-2.232727706432342529e-01
0.000000000000000000e+00
-2.490350157022476196e-01
-3.349091708660125732e-01
1.975105255842208862e-01
-1.975105255842208862e-01
-2.318601906299591064e-01
3.434965759515762329e-02
3.434965759515762329e-02
-4.036084711551666260e-01
0.000000000000000000e+00
7.728672772645950317e-02
3.520839810371398926e-01
-2.232727706432342529e-01
6.869931519031524658e-02
4.293707013130187988e-02
2.146853655576705933e-01
2.404476106166839600e-01
-3.692588210105895996e-01
1.717482879757881165e-02
1.202238053083419800e-01
-7.728672772645950317e-02
2.490350157022476196e-01
-2.490350157022476196e-01
-2.833846807479858398e-01
4.293707013130187988e-02
-1.459860503673553467e-01
-8.587414026260375977e-02
2.490350157022476196e-01
1.202238053083419800e-01
0.000000000000000000e+00
2.576224319636821747e-02
1.889231204986572266e-01
-2.060979455709457397e-01
-1.717482879757881165e-02
-1.975105255842208862e-01
3.005594909191131592e-01
3.091469109058380127e-01
-4.207833111286163330e-01
1.717482879757881165e-02
3.606714010238647461e-01
1.975105255842208862e-01
-4.036084711551666260e-01
3.091469109058380127e-01
-6.612309217453002930e-01
5.152448639273643494e-02
5.238322615623474121e-01
6.182938218116760254e-01
-7.728672772645950317e-02
1.975105255842208862e-01
-3.434965759515762329e-02
-2.232727706432342529e-01
-1.717482805252075195e-01
2.576224319636821747e-02
2.833846807479858398e-01
1.717482879757881165e-02
-3.005594909191131592e-01
-1.631608754396438599e-01
-2.919721007347106934e-01
4.207833111286163330e-01
9.446156024932861328e-02
2.662098407745361328e-01
-1.116363853216171265e-01
-9.532030224800109863e-01
-2.146853655576705933e-01
1.975105255842208862e-01
3.434965610504150391e-01
4.036084711551666260e-01
1.889231204986572266e-01
4.293707013130187988e-02
