1.185483783483505249e-01
7.903224974870681763e-02
3.512544557452201843e-02
-6.586021184921264648e-02
-9.220429509878158569e-02
1.624551862478256226e-01
2.239247113466262817e-01
1.009856536984443665e-01
-3.951612487435340881e-02
1.800179034471511841e-01
-4.829748719930648804e-02
2.897849380970001221e-01
-8.781361393630504608e-03
-7.903224974870681763e-02
-7.903224974870681763e-02
-3.951612487435340881e-02
-1.317204236984252930e-01
-1.317204236984252930e-01
1.624551862478256226e-01
-1.185483783483505249e-01
1.273297369480133057e-01
-1.229390576481819153e-01
-1.361110955476760864e-01
2.195340394973754883e-02
8.781361393630504608e-03
2.195340394973754883e-02
-1.580644994974136353e-01
-2.634408324956893921e-02
-9.220429509878158569e-02
3.512544557452201843e-02
5.707884952425956726e-02
-1.141576990485191345e-01
5.707884952425956726e-02
-2.195340394973754883e-02
3.951612487435340881e-02
2.239247113466262817e-01
-1.536738276481628418e-01
-1.361110955476760864e-01
-1.756272278726100922e-02
3.951612487435340881e-02
5.707884952425956726e-02
-4.390680696815252304e-03
4.390680696815252304e-03
-6.586021184921264648e-02
2.370967566967010498e-01
3.073476441204547882e-02
1.756272278726100922e-02
7.025089114904403687e-02
-1.141576990485191345e-01
3.951612487435340881e-02
3.512544557452201843e-02
5.268816649913787842e-02
-3.512544557452201843e-02
2.195340394973754883e-01
6.146952882409095764e-02
3.073476441204547882e-02
-1.097670197486877441e-01
-1.361110955476760864e-01
3.073476441204547882e-02
6.586021184921264648e-02
-4.390680789947509766e-02
4.390680696815252304e-03
3.512544557452201843e-02
-1.448924690485000610e-01
1.273297369480133057e-01
-8.781361579895019531e-02
8.781361579895019531e-02
4.829748719930648804e-02
-1.273297369480133057e-01
9.659497439861297607e-02
3.073476441204547882e-02
-2.766128778457641602e-01
8.781361579895019531e-02
-9.659497439861297607e-02
-1.009856536984443665e-01
1.712365448474884033e-01
7.903224974870681763e-02
1.053763329982757568e-01
-1.712365448474884033e-01
4.390680789947509766e-02
-7.464157044887542725e-02
-1.317204162478446960e-02
4.390680696815252304e-03
-1.931899487972259521e-01
1.141576990485191345e-01
5.268816649913787842e-02
-1.405017822980880737e-01
-1.624551862478256226e-01
2.151433527469635010e-01
-3.512544557452201843e-02
1.931899487972259521e-01
3.951612487435340881e-02
-7.025089114904403687e-02
-1.668458729982376099e-01
-1.185483783483505249e-01
-2.634408324956893921e-02
-9.659497439861297607e-02
5.268816649913787842e-02
-4.829748719930648804e-02
-2.195340394973754883e-01
1.009856536984443665e-01
-1.097670197486877441e-01
2.107526659965515137e-01
-1.317204162478446960e-02
4.829748719930648804e-02
4.829748719930648804e-02
-2.634408324956893921e-02
1.361110955476760864e-01
6.586021184921264648e-02
9.220429509878158569e-02
-6.586021184921264648e-02
8.342293649911880493e-02
-9.659497439861297607e-02
2.239247113466262817e-01
1.053763329982757568e-01
-3.951612487435340881e-02
1.361110955476760864e-01
-1.756272278726100922e-02
3.951612487435340881e-02
-2.634408324956893921e-02
-1.317204236984252930e-01
3.073476441204547882e-02
5.268816649913787842e-02
-1.273297369480133057e-01
-2.195340394973754883e-02
-2.019713073968887329e-01
-2.634408324956893921e-02
-9.220429509878158569e-02
4.390680789947509766e-02
0.000000000000000000e+00
5.707884952425956726e-02
3.512544557452201843e-02
-4.390680789947509766e-02
0.000000000000000000e+00
3.512544557452201843e-02
7.025089114904403687e-02
-3.073476441204547882e-02
-3.951612487435340881e-02
9.659497439861297607e-02
1.492831408977508545e-01
-2.414874434471130371e-01
-5.707884952425956726e-02
-3.512544557452201843e-02
1.756272315979003906e-01
4.390680789947509766e-02
6.146952882409095764e-02
8.781361393630504608e-03
-1.141576990485191345e-01
3.951612487435340881e-02
-3.951612487435340881e-02
6.586021184921264648e-02
1.009856536984443665e-01
1.273297369480133057e-01
-3.951612487435340881e-02
-3.512544557452201843e-02
-9.220429509878158569e-02
-4.829748719930648804e-02
1.931899487972259521e-01
-8.781361393630504608e-03
8.781361579895019531e-02
-8.781361393630504608e-03
1.273297369480133057e-01
1.756272278726100922e-02
6.146952882409095764e-02
-2.195340394973754883e-02
-3.951612487435340881e-02
-1.712365448474884033e-01
-1.141576990485191345e-01
3.512544557452201843e-02
2.195340394973754883e-02
-4.390680789947509766e-02
1.492831408977508545e-01
1.141576990485191345e-01
1.009856536984443665e-01
1.887992769479751587e-01
1.361110955476760864e-01
-7.903224974870681763e-02
1.712365448474884033e-01
4.829748719930648804e-02
1.317204162478446960e-02
7.903224974870681763e-02
1.448924690485000610e-01
-7.903224974870681763e-02
-7.025089114904403687e-02
-1.053763329982757568e-01
-1.712365448474884033e-01
5.268816649913787842e-02
6.146952882409095764e-02
-8.342293649911880493e-02
-1.405017822980880737e-01
2.195340394973754883e-02
-1.668458729982376099e-01
6.146952882409095764e-02
-1.448924690485000610e-01
1.185483783483505249e-01
8.781361393630504608e-03
2.107526659965515137e-01
1.448924690485000610e-01
-1.097670197486877441e-01
6.146952882409095764e-02
1.975806355476379395e-01
-1.492831408977508545e-01
9.659497439861297607e-02
3.512544557452201843e-02
-1.009856536984443665e-01
1.448924690485000610e-01
-1.317204162478446960e-02
-9.659497439861297607e-02
-1.712365448474884033e-01
3.073476441204547882e-02
-1.624551862478256226e-01
6.146952882409095764e-02
-3.512544557452201843e-02
8.781361393630504608e-03
6.586021184921264648e-02
5.268816649913787842e-02
3.512544557452201843e-02
-6.146952882409095764e-02
-1.229390576481819153e-01
9.220429509878158569e-02
8.781361393630504608e-03
0.000000000000000000e+00
6.146952882409095764e-02
-3.073476441204547882e-02
-8.781361393630504608e-03
3.073476441204547882e-02
6.586021184921264648e-02
9.220429509878158569e-02
2.590501606464385986e-01
1.361110955476760864e-01
-6.586021184921264648e-02
1.097670197486877441e-01
8.781361579895019531e-02
5.268816649913787842e-02
4.390680789947509766e-02
1.668458729982376099e-01
1.668458729982376099e-01
1.668458729982376099e-01
-1.317204162478446960e-02
1.492831408977508545e-01
-4.390680696815252304e-03
8.781361393630504608e-03
0.000000000000000000e+00
-3.073476441204547882e-02
6.146952882409095764e-02
0.000000000000000000e+00
7.025089114904403687e-02
-1.273297369480133057e-01
-4.390680696815252304e-03
4.390680789947509766e-02
1.448924690485000610e-01
6.146952882409095764e-02
4.390680696815252304e-03
4.390680789947509766e-02
-1.097670197486877441e-01
2.634408324956893921e-02
-9.220429509878158569e-02
1.317204236984252930e-01
-9.220429509878158569e-02
5.268816649913787842e-02
1.712365448474884033e-01
4.390680696815252304e-03
6.586021184921264648e-02
-1.141576990485191345e-01
0.000000000000000000e+00
7.464157044887542725e-02
9.220429509878158569e-02
-1.141576990485191345e-01
3.951612487435340881e-02
1.405017822980880737e-01
-3.073476441204547882e-02
-6.146952882409095764e-02
-1.756272278726100922e-02
3.512544557452201843e-02
6.146952882409095764e-02
-4.390680789947509766e-02
-1.624551862478256226e-01
1.185483783483505249e-01
-1.317204162478446960e-02
4.390680789947509766e-02
1.229390576481819153e-01
-1.624551862478256226e-01
-3.951612487435340881e-02
6.146952882409095764e-02
-7.025089114904403687e-02
-1.756272278726100922e-02
-7.464157044887542725e-02
7.025089114904403687e-02
1.624551862478256226e-01
-8.781361393630504608e-03
3.951612487435340881e-02
8.342293649911880493e-02
1.756272315979003906e-01
7.464157044887542725e-02
2.634408324956893921e-02
-1.492831408977508545e-01
-1.229390576481819153e-01
-2.634408324956893921e-02
2.019713073968887329e-01
-3.512544557452201843e-02
2.195340394973754883e-02
8.342293649911880493e-02
-4.829748719930648804e-02
1.580644994974136353e-01
4.829748719930648804e-02
3.073476441204547882e-02
-6.586021184921264648e-02
2.151433527469635010e-01
5.707884952425956726e-02
1.492831408977508545e-01
4.390680789947509766e-02
1.185483783483505249e-01
3.073476441204547882e-02
-1.405017822980880737e-01
1.361110955476760864e-01
-8.781361579895019531e-02
1.053763329982757568e-01
-1.317204162478446960e-02
-1.492831408977508545e-01
1.009856536984443665e-01
2.195340394973754883e-02
7.464157044887542725e-02
0.000000000000000000e+00
5.707884952425956726e-02
-1.273297369480133057e-01
-6.146952882409095764e-02
1.317204162478446960e-02
-1.580644994974136353e-01
1.492831408977508545e-01
4.829748719930648804e-02
-4.390680789947509766e-02
-1.317204162478446960e-02
-2.063619941473007202e-01
4.829748719930648804e-02
-1.053763329982757568e-01
-8.781361393630504608e-03
1.580644994974136353e-01
-1.229390576481819153e-01
-9.659497439861297607e-02
2.195340394973754883e-02
-9.659497439861297607e-02
-4.390680696815252304e-03
7.464157044887542725e-02
-4.390680789947509766e-02
-1.317204162478446960e-02
3.512544557452201843e-02
-2.634408324956893921e-02
1.009856536984443665e-01
5.268816649913787842e-02
2.195340394973754883e-02
1.668458729982376099e-01
1.448924690485000610e-01
-2.634408324956893921e-02
1.756272315979003906e-01
4.390680696815252304e-03
1.317204162478446960e-02
-3.073476441204547882e-02
-7.464157044887542725e-02
-1.844085901975631714e-01
1.361110955476760864e-01
1.053763329982757568e-01
-6.586021184921264648e-02
6.146952882409095764e-02
-3.073476441204547882e-02
1.317204162478446960e-02
-5.268816649913787842e-02
-1.756272278726100922e-02
5.268816649913787842e-02
9.220429509878158569e-02
-4.829748719930648804e-02
-6.586021184921264648e-02
1.009856536984443665e-01
-6.586021184921264648e-02
-5.707884952425956726e-02
2.195340394973754883e-02
3.951612487435340881e-02
1.712365448474884033e-01
3.073476441204547882e-02
6.146952882409095764e-02
-3.073476441204547882e-02
-1.624551862478256226e-01
1.361110955476760864e-01
-3.951612487435340881e-02
3.073476441204547882e-02
8.781361579895019531e-02
1.536738276481628418e-01
-2.283153980970382690e-01
5.268816649913787842e-02
1.097670197486877441e-01
2.853942513465881348e-01
1.229390576481819153e-01
4.390680789947509766e-02
-1.931899487972259521e-01
1.009856536984443665e-01
8.781361393630504608e-03
-1.887992769479751587e-01
6.586021184921264648e-02
-4.390680789947509766e-02
-6.586021184921264648e-02
7.464157044887542725e-02
3.512544557452201843e-02
-4.390680789947509766e-02
-1.800179034471511841e-01
5.707884952425956726e-02
-1.756272278726100922e-02
3.512544557452201843e-02
-8.342293649911880493e-02
9.220429509878158569e-02
1.756272315979003906e-01
7.903224974870681763e-02
-9.220429509878158569e-02
-3.073476441204547882e-02
-1.756272278726100922e-02
6.586021184921264648e-02
-1.756272315979003906e-01
-1.887992769479751587e-01
1.536738276481628418e-01
-4.829748719930648804e-02
-3.951612487435340881e-02
2.107526659965515137e-01
1.273297369480133057e-01
1.887992769479751587e-01
-8.342293649911880493e-02
-2.634408324956893921e-02
-1.009856536984443665e-01
1.624551862478256226e-01
1.624551862478256226e-01
-1.580644994974136353e-01
-4.829748719930648804e-02
-4.829748719930648804e-02
-1.317204162478446960e-02
-9.659497439861297607e-02
5.707884952425956726e-02
1.624551862478256226e-01
-2.019713073968887329e-01
3.073476552963256836e-01
6.146952882409095764e-02
-7.025089114904403687e-02
7.464157044887542725e-02
-5.707884952425956726e-02
-3.073476441204547882e-02
-1.492831408977508545e-01
-2.107526659965515137e-01
-1.624551862478256226e-01
1.053763329982757568e-01
-1.361110955476760864e-01
-4.390680789947509766e-02
-1.756272278726100922e-02
1.361110955476760864e-01
-3.951612487435340881e-02
-1.448924690485000610e-01
-1.273297369480133057e-01
-6.146952882409095764e-02
1.492831408977508545e-01
3.512544557452201843e-02
-2.283153980970382690e-01
1.756272278726100922e-02
8.781361393630504608e-03
-1.756272278726100922e-02
1.009856536984443665e-01
-9.220429509878158569e-02
-1.229390576481819153e-01
-1.580644994974136353e-01
-4.829748719930648804e-02
-1.097670197486877441e-01
2.019713073968887329e-01
-1.756272315979003906e-01
-8.781361579895019531e-02
-1.536738276481628418e-01
6.146952882409095764e-02
1.009856536984443665e-01
-6.146952882409095764e-02
3.600358068943023682e-01
-1.273297369480133057e-01
-1.931899487972259521e-01
1.492831408977508545e-01
8.781361579895019531e-02
-1.800179034471511841e-01
-9.220429509878158569e-02
7.025089114904403687e-02
-1.053763329982757568e-01
1.887992769479751587e-01
-1.800179034471511841e-01
-2.634408473968505859e-01
0.000000000000000000e+00
-6.586021184921264648e-02
1.756272278726100922e-02
-1.756272315979003906e-01
-6.146952882409095764e-02
9.220429509878158569e-02
1.273297369480133057e-01
1.141576990485191345e-01
-1.624551862478256226e-01
-1.887992769479751587e-01
-3.951612487435340881e-02
5.707884952425956726e-02
1.361110955476760864e-01
-7.025089114904403687e-02
-1.492831408977508545e-01
-2.634408324956893921e-02
-2.195340394973754883e-02
1.053763329982757568e-01
-1.756272278726100922e-02
-9.220429509878158569e-02
1.141576990485191345e-01
-3.512544557452201843e-02
-1.668458729982376099e-01
-5.707884952425956726e-02
-4.390680696815252304e-03
9.659497439861297607e-02
-6.586021184921264648e-02
-1.580644994974136353e-01
2.634408324956893921e-02
1.185483783483505249e-01
-6.146952882409095764e-02
1.273297369480133057e-01
2.634408473968505859e-01
1.448924690485000610e-01
8.342293649911880493e-02
-9.220429509878158569e-02
-1.273297369480133057e-01
-3.073476441204547882e-02
2.634408324956893921e-02
1.405017822980880737e-01
-3.073476441204547882e-02
-3.512544557452201843e-02
-2.019713073968887329e-01
1.405017822980880737e-01
-1.536738276481628418e-01
1.448924690485000610e-01
5.268816649913787842e-02
-1.229390576481819153e-01
1.317204236984252930e-01
-1.317204236984252930e-01
-6.586021184921264648e-02
1.800179034471511841e-01
1.756272278726100922e-02
-2.107526659965515137e-01
1.756272278726100922e-02
4.390680696815252304e-03
5.707884952425956726e-02
1.624551862478256226e-01
-1.668458729982376099e-01
7.025089114904403687e-02
4.390680789947509766e-02
-1.097670197486877441e-01
0.000000000000000000e+00
0.000000000000000000e+00
9.220429509878158569e-02
1.844085901975631714e-01
-2.195340394973754883e-02
-1.097670197486877441e-01
-1.712365448474884033e-01
1.229390576481819153e-01
8.342293649911880493e-02
1.624551862478256226e-01
1.405017822980880737e-01
-5.707884952425956726e-02
1.317204162478446960e-02
1.712365448474884033e-01
5.707884952425956726e-02
4.390680789947509766e-02
9.659497439861297607e-02
8.781361579895019531e-02
4.390680696815252304e-03
-1.405017822980880737e-01
7.025089114904403687e-02
1.317204236984252930e-01
-9.220429509878158569e-02
-1.009856536984443665e-01
7.025089114904403687e-02
-1.931899487972259521e-01
-4.390680696815252304e-03
3.512544557452201843e-02
8.781361393630504608e-03
-7.464157044887542725e-02
1.712365448474884033e-01
-1.317204162478446960e-02
6.586021184921264648e-02
8.342293649911880493e-02
8.342293649911880493e-02
-7.025089114904403687e-02
-5.268816649913787842e-02
-1.668458729982376099e-01
-7.464157044887542725e-02
-5.268816649913787842e-02
1.185483783483505249e-01
2.283153980970382690e-01
7.464157044887542725e-02
1.580644994974136353e-01
-1.009856536984443665e-01
-6.146952882409095764e-02
-1.624551862478256226e-01
2.239247113466262817e-01
-9.659497439861297607e-02
-2.590501606464385986e-01
5.268816649913787842e-02
-5.707884952425956726e-02
1.756272278726100922e-02
4.390680789947509766e-02
1.229390576481819153e-01
-6.146952882409095764e-02
3.073476441204547882e-02
8.781361393630504608e-03
6.146952882409095764e-02
-1.185483783483505249e-01
1.317204236984252930e-01
7.025089114904403687e-02
6.586021184921264648e-02
-9.659497439861297607e-02
9.659497439861297607e-02
-7.025089114904403687e-02
4.390680789947509766e-02
7.464157044887542725e-02
2.327060699462890625e-01
7.464157044887542725e-02
-1.361110955476760864e-01
-1.800179034471511841e-01
1.317204162478446960e-02
-7.464157044887542725e-02
-5.707884952425956726e-02
-6.586021184921264648e-02
3.951612487435340881e-02
-1.756272278726100922e-02
-6.146952882409095764e-02
9.220429509878158569e-02
1.273297369480133057e-01
4.829748719930648804e-02
5.707884952425956726e-02
-3.951612487435340881e-02
-8.342293649911880493e-02
5.707884952425956726e-02
5.268816649913787842e-02
-8.342293649911880493e-02
2.151433527469635010e-01
3.073476441204547882e-02
-1.931899487972259521e-01
-8.781361579895019531e-02
-3.512544557452201843e-02
-1.756272278726100922e-02
-4.390680789947509766e-02
-1.448924690485000610e-01
1.141576990485191345e-01
-1.756272278726100922e-02
8.781361393630504608e-03
7.464157044887542725e-02
1.492831408977508545e-01
9.220429509878158569e-02
8.781361393630504608e-03
-2.195340394973754883e-02
-9.220429509878158569e-02
2.766128778457641602e-01
1.624551862478256226e-01
2.370967566967010498e-01
-9.659497439861297607e-02
6.146952882409095764e-02
-3.073476441204547882e-02
1.448924690485000610e-01
-1.405017822980880737e-01
-1.887992769479751587e-01
2.283153980970382690e-01
1.185483783483505249e-01
-7.025089114904403687e-02
-1.317204162478446960e-02
8.781361579895019531e-02
-1.448924690485000610e-01
7.903224974870681763e-02
-1.756272315979003906e-01
2.195340394973754883e-02
-5.707884952425956726e-02
7.903224974870681763e-02
8.781361393630504608e-03
-4.390680789947509766e-02
1.317204162478446960e-02
1.185483783483505249e-01
-9.220429509878158569e-02
-1.185483783483505249e-01
-8.781361579895019531e-02
9.659497439861297607e-02
1.975806355476379395e-01
8.342293649911880493e-02
-2.151433527469635010e-01
6.146952882409095764e-02
2.634408324956893921e-02
1.756272278726100922e-02
-1.405017822980880737e-01
-1.361110955476760864e-01
1.185483783483505249e-01
-2.151433527469635010e-01
2.546594738960266113e-01
-1.756272315979003906e-01
3.029569685459136963e-01
-1.317204236984252930e-01
0.000000000000000000e+00
-5.707884952425956726e-02
-2.239247113466262817e-01
-1.580644994974136353e-01
-1.800179034471511841e-01
2.195340394973754883e-02
-1.756272278726100922e-02
1.756272278726100922e-02
1.536738276481628418e-01
1.405017822980880737e-01
-2.195340394973754883e-02
-3.951612487435340881e-02
-7.903224974870681763e-02
-1.361110955476760864e-01
-2.195340394973754883e-01
1.580644994974136353e-01
1.844085901975631714e-01
-9.659497439861297607e-02
-6.586021184921264648e-02
-7.464157044887542725e-02
-1.273297369480133057e-01
3.073476441204547882e-02
-6.586021184921264648e-02
2.634408324956893921e-02
-3.073476441204547882e-02
-2.546594738960266113e-01
1.273297369480133057e-01
4.390680789947509766e-02
1.756272278726100922e-02
-1.931899487972259521e-01
7.464157044887542725e-02
1.492831408977508545e-01
1.536738276481628418e-01
1.141576990485191345e-01
1.009856536984443665e-01
-8.781361579895019531e-02
-6.146952882409095764e-02
-2.195340394973754883e-02
1.448924690485000610e-01
1.097670197486877441e-01
2.019713073968887329e-01
-8.781361579895019531e-02
-3.512544557452201843e-02
1.536738276481628418e-01
1.185483783483505249e-01
1.975806355476379395e-01
-2.283153980970382690e-01
5.268816649913787842e-02
-9.220429509878158569e-02
7.025089114904403687e-02
-1.053763329982757568e-01
7.025089114904403687e-02
3.512544557452201843e-02
2.634408324956893921e-02
-6.146952882409095764e-02
4.829748719930648804e-02
-4.829748719930648804e-02
1.405017822980880737e-01
-9.220429509878158569e-02
-8.781361579895019531e-02
1.317204162478446960e-02
3.512544557452201843e-02
-6.146952882409095764e-02
-5.268816649913787842e-02
4.829748719930648804e-02
5.707884952425956726e-02
-1.756272315979003906e-01
-9.220429509878158569e-02
-3.512544557452201843e-02
-4.829748719930648804e-02
2.195340394973754883e-02
-2.195340394973754883e-01
3.512544557452201843e-02
1.317204162478446960e-02
1.097670197486877441e-01
-1.756272278726100922e-02
7.464157044887542725e-02
4.390680789947509766e-02
5.707884952425956726e-02
7.025089114904403687e-02
1.800179034471511841e-01
1.317204236984252930e-01
-6.146952882409095764e-02
1.405017822980880737e-01
-3.073476441204547882e-02
2.151433527469635010e-01
4.390680789947509766e-02
-6.586021184921264648e-02
-3.512544557452201843e-02
3.512544557452201843e-02
1.887992769479751587e-01
-5.268816649913787842e-02
4.390680789947509766e-02
-1.317204236984252930e-01
-1.097670197486877441e-01
-4.829748719930648804e-02
-1.756272315979003906e-01
7.464157044887542725e-02
0.000000000000000000e+00
-8.781361393630504608e-03
-2.019713073968887329e-01
-2.634408324956893921e-02
1.229390576481819153e-01
-1.141576990485191345e-01
5.707884952425956726e-02
7.025089114904403687e-02
-8.781361579895019531e-02
3.073476441204547882e-02
-4.829748719930648804e-02
8.781361393630504608e-03
2.370967566967010498e-01
4.390680696815252304e-03
1.317204162478446960e-02
-4.829748719930648804e-02
8.342293649911880493e-02
-1.448924690485000610e-01
8.781361393630504608e-03
9.220429509878158569e-02
1.668458729982376099e-01
1.317204236984252930e-01
-9.220429509878158569e-02
1.405017822980880737e-01
1.273297369480133057e-01
-8.342293649911880493e-02
1.756272278726100922e-02
1.009856536984443665e-01
8.781361579895019531e-02
-8.781361393630504608e-03
-9.659497439861297607e-02
2.634408324956893921e-02
2.195340394973754883e-02
-1.756272315979003906e-01
-1.975806355476379395e-01
1.536738276481628418e-01
-7.903224974870681763e-02
-8.781361393630504608e-03
-8.342293649911880493e-02
-3.073476441204547882e-02
-3.073476441204547882e-02
4.390680789947509766e-02
-1.317204236984252930e-01
-4.390680696815252304e-03
9.659497439861297607e-02
4.390680696815252304e-03
1.009856536984443665e-01
1.317204162478446960e-02
-1.141576990485191345e-01
1.931899487972259521e-01
-1.624551862478256226e-01
5.268816649913787842e-02
6.146952882409095764e-02
-1.097670197486877441e-01
1.580644994974136353e-01
6.146952882409095764e-02
4.390680696815252304e-03
-1.317204162478446960e-02
3.073476441204547882e-02
1.317204162478446960e-02
-9.220429509878158569e-02
-3.073476441204547882e-02
8.781361393630504608e-03
-3.951612487435340881e-02
-4.829748719930648804e-02
-4.829748719930648804e-02
-3.951612487435340881e-02
4.390680696815252304e-03
1.668458729982376099e-01
-1.185483783483505249e-01
-9.220429509878158569e-02
-1.229390576481819153e-01
-4.829748719930648804e-02
9.220429509878158569e-02
4.390680696815252304e-03
1.141576990485191345e-01
4.390680789947509766e-02
7.025089114904403687e-02
3.512544557452201843e-02
-2.195340394973754883e-02
-7.903224974870681763e-02
6.146952882409095764e-02
-1.229390576481819153e-01
-3.951612487435340881e-02
-1.317204162478446960e-02
1.756272278726100922e-02
7.025089114904403687e-02
1.097670197486877441e-01
-1.756272278726100922e-02
4.390680696815252304e-03
-2.195340394973754883e-02
1.668458729982376099e-01
-2.195340394973754883e-02
8.781361579895019531e-02
1.405017822980880737e-01
3.951612487435340881e-02
-2.195340394973754883e-02
2.195340394973754883e-02
-1.317204162478446960e-02
5.707884952425956726e-02
8.342293649911880493e-02
-1.492831408977508545e-01
2.195340394973754883e-02
-8.781361579895019531e-02
0.000000000000000000e+00
1.405017822980880737e-01
4.829748719930648804e-02
8.781361579895019531e-02
3.512544557452201843e-02
-5.268816649913787842e-02
-2.634408324956893921e-02
1.317204162478446960e-02
3.073476441204547882e-02
4.829748719930648804e-02
1.712365448474884033e-01
1.448924690485000610e-01
-2.634408324956893921e-02
1.887992769479751587e-01
7.025089114904403687e-02
3.073476441204547882e-02
-2.634408324956893921e-02
-1.580644994974136353e-01
-1.712365448474884033e-01
-3.951612487435340881e-02
-1.448924690485000610e-01
-4.390680789947509766e-02
1.185483783483505249e-01
7.464157044887542725e-02
1.097670197486877441e-01
-9.659497439861297607e-02
-7.464157044887542725e-02
-7.464157044887542725e-02
-3.951612487435340881e-02
-5.707884952425956726e-02
-1.756272278726100922e-02
-4.829748719930648804e-02
5.707884952425956726e-02
4.829748719930648804e-02
1.624551862478256226e-01
-3.512544557452201843e-02
-6.146952882409095764e-02
-8.781361393630504608e-03
1.756272278726100922e-02
6.586021184921264648e-02
-6.586021184921264648e-02
-1.405017822980880737e-01
4.390680696815252304e-03
7.903224974870681763e-02
-1.185483783483505249e-01
1.097670197486877441e-01
9.220429509878158569e-02
8.781361393630504608e-03
-6.146952882409095764e-02
1.009856536984443665e-01
5.268816649913787842e-02
8.781361579895019531e-02
-2.634408324956893921e-02
5.707884952425956726e-02
-3.512544557452201843e-02
1.053763329982757568e-01
1.361110955476760864e-01
-8.342293649911880493e-02
6.146952882409095764e-02
-2.634408324956893921e-02
9.220429509878158569e-02
-1.141576990485191345e-01
5.707884952425956726e-02
7.464157044887542725e-02
-9.220429509878158569e-02
-6.146952882409095764e-02
5.707884952425956726e-02
1.580644994974136353e-01
-1.317204162478446960e-02
-2.195340394973754883e-02
-8.781361393630504608e-03
0.000000000000000000e+00
4.829748719930648804e-02
-8.781361393630504608e-03
0.000000000000000000e+00
-7.903224974870681763e-02
1.361110955476760864e-01
-3.512544557452201843e-02
4.829748719930648804e-02
-7.464157044887542725e-02
-8.342293649911880493e-02
3.512544557452201843e-02
6.586021184921264648e-02
8.781361579895019531e-02
8.781361579895019531e-02
1.405017822980880737e-01
1.053763329982757568e-01
-7.464157044887542725e-02
1.053763329982757568e-01
-4.390680789947509766e-02
4.390680789947509766e-02
1.141576990485191345e-01
4.390680696815252304e-03
-1.800179034471511841e-01
-4.829748719930648804e-02
-9.659497439861297607e-02
-6.586021184921264648e-02
2.195340394973754883e-02
-6.146952882409095764e-02
-6.146952882409095764e-02
-4.829748719930648804e-02
8.342293649911880493e-02
-4.390680789947509766e-02
1.756272278726100922e-02
7.025089114904403687e-02
5.707884952425956726e-02
-3.073476441204547882e-02
1.317204236984252930e-01
0.000000000000000000e+00
1.229390576481819153e-01
4.390680789947509766e-02
-4.390680696815252304e-03
9.659497439861297607e-02
2.195340394973754883e-02
1.405017822980880737e-01
-5.707884952425956726e-02
-3.951612487435340881e-02
1.668458729982376099e-01
8.781361579895019531e-02
-2.283153980970382690e-01
-3.512544557452201843e-02
-1.668458729982376099e-01
8.781361393630504608e-03
-7.903224974870681763e-02
-1.009856536984443665e-01
2.634408324956893921e-02
-8.781361393630504608e-03
-1.141576990485191345e-01
1.185483783483505249e-01
-4.390680789947509766e-02
0.000000000000000000e+00
1.492831408977508545e-01
2.019713073968887329e-01
-1.756272278726100922e-02
1.053763329982757568e-01
2.019713073968887329e-01
3.951612487435340881e-02
-7.903224974870681763e-02
6.586021184921264648e-02
1.097670197486877441e-01
-1.317204162478446960e-02
-1.405017822980880737e-01
1.361110955476760864e-01
1.800179034471511841e-01
1.317204162478446960e-02
2.722221910953521729e-01
-8.342293649911880493e-02
-7.025089114904403687e-02
-3.512544557452201843e-02
-1.317204162478446960e-02
4.390680696815252304e-03
2.370967566967010498e-01
1.141576990485191345e-01
-3.073476441204547882e-02
-1.844085901975631714e-01
-9.220429509878158569e-02
-1.317204162478446960e-02
1.756272278726100922e-02
-5.268816649913787842e-02
1.185483783483505249e-01
-7.025089114904403687e-02
-2.195340394973754883e-02
-4.390680789947509766e-02
-6.146952882409095764e-02
-3.073476441204547882e-02
9.659497439861297607e-02
-7.025089114904403687e-02
9.220429509878158569e-02
-1.185483783483505249e-01
-8.342293649911880493e-02
-1.097670197486877441e-01
5.268816649913787842e-02
1.756272315979003906e-01
4.390680696815252304e-03
-1.405017822980880737e-01
1.931899487972259521e-01
7.903224974870681763e-02
-2.019713073968887329e-01
-2.634408324956893921e-02
1.185483783483505249e-01
4.390680696815252304e-03
-2.195340394973754883e-02
7.903224974870681763e-02
5.707884952425956726e-02
1.756272278726100922e-02
8.342293649911880493e-02
5.707884952425956726e-02
2.810035645961761475e-01
4.390680696815252304e-03
-4.390680696815252304e-03
1.009856536984443665e-01
-4.829748719930648804e-02
1.185483783483505249e-01
-4.829748719930648804e-02
-6.146952882409095764e-02
1.756272278726100922e-02
-1.229390576481819153e-01
-6.146952882409095764e-02
-1.448924690485000610e-01
8.781361579895019531e-02
2.634408324956893921e-02
5.268816649913787842e-02
-1.053763329982757568e-01
5.707884952425956726e-02
-1.009856536984443665e-01
-5.268816649913787842e-02
-4.829748719930648804e-02
9.659497439861297607e-02
-2.019713073968887329e-01
-6.586021184921264648e-02
-1.273297369480133057e-01
5.707884952425956726e-02
1.756272278726100922e-02
1.317204236984252930e-01
4.390680696815252304e-03
1.053763329982757568e-01
-1.097670197486877441e-01
5.707884952425956726e-02
-5.268816649913787842e-02
-7.025089114904403687e-02
8.342293649911880493e-02
0.000000000000000000e+00
-1.800179034471511841e-01
-3.512544557452201843e-02
-1.053763329982757568e-01
9.220429509878158569e-02
1.141576990485191345e-01
9.220429509878158569e-02
-1.317204236984252930e-01
1.053763329982757568e-01
-3.073476441204547882e-02
-9.659497439861297607e-02
1.273297369480133057e-01
-9.220429509878158569e-02
-1.712365448474884033e-01
-1.273297369480133057e-01
0.000000000000000000e+00
5.707884952425956726e-02
8.781361393630504608e-03
3.512544557452201843e-02
1.317204162478446960e-02
-3.951612487435340881e-02
3.951612487435340881e-02
1.317204236984252930e-01
1.317204162478446960e-02
1.229390576481819153e-01
1.580644994974136353e-01
-9.220429509878158569e-02
-1.536738276481628418e-01
3.512544557452201843e-02
1.009856536984443665e-01
0.000000000000000000e+00
-1.097670197486877441e-01
0.000000000000000000e+00
-9.659497439861297607e-02
-1.668458729982376099e-01
-5.707884952425956726e-02
1.361110955476760864e-01
-1.931899487972259521e-01
-1.009856536984443665e-01
-1.448924690485000610e-01
-2.063619941473007202e-01
3.512544557452201843e-02
1.624551862478256226e-01
1.317204162478446960e-02
8.342293649911880493e-02
1.317204162478446960e-02
1.931899487972259521e-01
-5.707884952425956726e-02
1.580644994974136353e-01
1.317204162478446960e-02
-8.781361579895019531e-02
1.361110955476760864e-01
-1.229390576481819153e-01
-1.756272278726100922e-02
2.195340394973754883e-02
-1.009856536984443665e-01
0.000000000000000000e+00
8.781361393630504608e-03
3.951612487435340881e-02
1.229390576481819153e-01
1.756272278726100922e-02
1.317204162478446960e-02
6.146952882409095764e-02
3.512544557452201843e-02
-5.707884952425956726e-02
-1.800179034471511841e-01
-1.097670197486877441e-01
-7.025089114904403687e-02
-3.512544557452201843e-02
1.097670197486877441e-01
-2.634408324956893921e-02
1.405017822980880737e-01
-8.781361579895019531e-02
4.390680696815252304e-03
-1.317204162478446960e-02
-6.146952882409095764e-02
-1.756272278726100922e-02
-7.025089114904403687e-02
-6.146952882409095764e-02
3.073476441204547882e-02
-2.634408324956893921e-02
-8.342293649911880493e-02
-1.317204162478446960e-02
2.634408324956893921e-02
-1.317204162478446960e-02
2.810035645961761475e-01
-7.025089114904403687e-02
-6.586021184921264648e-02
-4.390680789947509766e-02
-1.712365448474884033e-01
7.464157044887542725e-02
7.025089114904403687e-02
-7.464157044887542725e-02
4.390680789947509766e-02
-2.634408324956893921e-02
-2.195340394973754883e-02
2.634408324956893921e-02
-1.712365448474884033e-01
1.229390576481819153e-01
-8.781361393630504608e-03
-6.146952882409095764e-02
0.000000000000000000e+00
-3.951612487435340881e-02
3.951612487435340881e-02
-1.317204236984252930e-01
-7.025089114904403687e-02
-4.390680789947509766e-02
-4.829748719930648804e-02
-4.390680696815252304e-03
-3.512544557452201843e-02
-1.141576990485191345e-01
1.712365448474884033e-01
-1.317204162478446960e-02
1.009856536984443665e-01
5.268816649913787842e-02
6.146952882409095764e-02
-1.800179034471511841e-01
7.025089114904403687e-02
-1.536738276481628418e-01
-1.097670197486877441e-01
1.317204162478446960e-02
1.405017822980880737e-01
-6.146952882409095764e-02
7.903224974870681763e-02
1.756272278726100922e-02
-4.390680789947509766e-02
9.220429509878158569e-02
-1.756272278726100922e-02
1.317204162478446960e-02
-1.536738276481628418e-01
-5.268816649913787842e-02
5.707884952425956726e-02
-1.141576990485191345e-01
-7.025089114904403687e-02
-1.185483783483505249e-01
8.342293649911880493e-02
7.903224974870681763e-02
-1.492831408977508545e-01
-9.659497439861297607e-02
-1.097670197486877441e-01
-1.317204162478446960e-02
-4.390680696815252304e-03
1.580644994974136353e-01
-1.097670197486877441e-01
8.781361393630504608e-03
9.659497439861297607e-02
-1.185483783483505249e-01
9.659497439861297607e-02
7.903224974870681763e-02
-2.195340394973754883e-02
-7.464157044887542725e-02
3.951612487435340881e-02
7.464157044887542725e-02
2.590501606464385986e-01
-9.659497439861297607e-02
-3.951612487435340881e-02
-9.659497439861297607e-02
1.097670197486877441e-01
1.185483783483505249e-01
9.220429509878158569e-02
-1.317204236984252930e-01
7.464157044887542725e-02
-1.317204236984252930e-01
-2.634408324956893921e-02
-4.390680789947509766e-02
-4.390680696815252304e-03
-1.185483783483505249e-01
-1.317204236984252930e-01
-1.756272315979003906e-01
-3.073476441204547882e-02
-1.448924690485000610e-01
2.634408324956893921e-02
1.405017822980880737e-01
-4.390680789947509766e-02
0.000000000000000000e+00
-2.063619941473007202e-01
1.141576990485191345e-01
-2.195340394973754883e-01
-1.668458729982376099e-01
-2.634408324956893921e-02
1.712365448474884033e-01
-1.009856536984443665e-01
-8.342293649911880493e-02
2.195340394973754883e-02
1.580644994974136353e-01
4.390680789947509766e-02
-6.586021184921264648e-02
3.644264936447143555e-01
4.390680789947509766e-02
1.317204162478446960e-02
8.781361393630504608e-03
-2.678315341472625732e-01
8.342293649911880493e-02
-8.781361393630504608e-03
7.464157044887542725e-02
1.229390576481819153e-01
-1.317204236984252930e-01
8.342293649911880493e-02
-3.512544557452201843e-02
0.000000000000000000e+00
3.512544631958007812e-01
-1.053763329982757568e-01
5.707884952425956726e-02
-2.283153980970382690e-01
-1.800179034471511841e-01
1.844085901975631714e-01
-1.712365448474884033e-01
-2.151433527469635010e-01
2.634408324956893921e-02
-1.273297369480133057e-01
2.546594738960266113e-01
2.634408324956893921e-02
8.781361579895019531e-02
1.273297369480133057e-01
-2.195340394973754883e-01
-1.580644994974136353e-01
2.195340394973754883e-02
-1.492831408977508545e-01
1.097670197486877441e-01
1.141576990485191345e-01
7.903224974870681763e-02
4.829748719930648804e-02
-2.634408324956893921e-02
-8.781361393630504608e-03
-5.707884952425956726e-02
-1.536738276481628418e-01
1.668458729982376099e-01
-7.464157044887542725e-02
-5.268816649913787842e-02
2.722221910953521729e-01
-1.317204162478446960e-02
2.195340394973754883e-02
1.887992769479751587e-01
1.756272278726100922e-02
-4.390680789947509766e-02
-1.448924690485000610e-01
-1.317204162478446960e-02
1.580644994974136353e-01
1.800179034471511841e-01
1.975806355476379395e-01
3.073476441204547882e-02
-4.390680789947509766e-02
2.634408324956893921e-02
2.327060699462890625e-01
-1.800179034471511841e-01
-8.781361579895019531e-02
-5.707884952425956726e-02
-4.390680789947509766e-02
3.951612487435340881e-02
1.405017822980880737e-01
-1.097670197486877441e-01
-1.141576990485191345e-01
-8.781361393630504608e-03
-1.317204162478446960e-02
-8.781361393630504608e-03
2.107526659965515137e-01
1.756272278726100922e-02
-9.659497439861297607e-02
2.897849380970001221e-01
2.019713073968887329e-01
-2.107526659965515137e-01
-4.829748719930648804e-02
8.342293649911880493e-02
1.185483783483505249e-01
-8.342293649911880493e-02
1.756272278726100922e-02
-1.800179034471511841e-01
-8.781361579895019531e-02
1.668458729982376099e-01
-1.053763329982757568e-01
-1.712365448474884033e-01
-1.624551862478256226e-01
-1.361110955476760864e-01
4.829748719930648804e-02
8.781361579895019531e-02
2.151433527469635010e-01
1.712365448474884033e-01
-2.634408324956893921e-02
-4.829748719930648804e-02
1.229390576481819153e-01
8.781361579895019531e-02
-9.220429509878158569e-02
-8.781361579895019531e-02
1.887992769479751587e-01
-7.903224974870681763e-02
8.781361393630504608e-03
-3.512544557452201843e-02
4.829748719930648804e-02
4.390680789947509766e-02
-6.146952882409095764e-02
1.317204162478446960e-02
-1.975806355476379395e-01
1.580644994974136353e-01
-2.722221910953521729e-01
4.829748719930648804e-02
-6.146952882409095764e-02
-2.195340394973754883e-02
7.903224974870681763e-02
1.492831408977508545e-01
1.229390576481819153e-01
-7.025089114904403687e-02
1.273297369480133057e-01
1.141576990485191345e-01
1.009856536984443665e-01
-2.414874434471130371e-01
1.053763329982757568e-01
8.342293649911880493e-02
2.107526659965515137e-01
1.448924690485000610e-01
-1.756272278726100922e-02
1.097670197486877441e-01
-1.712365448474884033e-01
1.756272315979003906e-01
3.951612487435340881e-02
-1.756272278726100922e-02
0.000000000000000000e+00
-1.097670197486877441e-01
9.659497439861297607e-02
-2.458781152963638306e-01
-5.707884952425956726e-02
-1.273297369480133057e-01
-1.492831408977508545e-01
2.414874434471130371e-01
-9.659497439861297607e-02
3.029569685459136963e-01
-5.707884952425956726e-02
1.185483783483505249e-01
8.781361393630504608e-03
-2.195340394973754883e-01
4.829748719930648804e-02
2.634408324956893921e-02
4.829748719930648804e-02
-1.317204236984252930e-01
-1.580644994974136353e-01
4.390680696815252304e-03
-5.707884952425956726e-02
-8.342293649911880493e-02
1.053763329982757568e-01
-1.097670197486877441e-01
-1.580644994974136353e-01
4.390680696815252304e-03
4.829748719930648804e-02
-4.390680789947509766e-02
5.268816649913787842e-02
-1.317204162478446960e-02
1.712365448474884033e-01
4.346773922443389893e-01
1.317204162478446960e-02
-6.146952882409095764e-02
0.000000000000000000e+00
2.634408473968505859e-01
1.097670197486877441e-01
-3.951612487435340881e-02
1.931899487972259521e-01
9.220429509878158569e-02
-7.025089114904403687e-02
6.586021184921264648e-02
1.185483783483505249e-01
4.390680696815252304e-03
-3.205196857452392578e-01
-2.151433527469635010e-01
7.903224974870681763e-02
-1.712365448474884033e-01
-4.390680789947509766e-02
4.390680696815252304e-03
-7.025089114904403687e-02
-6.586021184921264648e-02
-1.053763329982757568e-01
7.025089114904403687e-02
-1.097670197486877441e-01
-4.390680789947509766e-02
-1.317204162478446960e-02
-6.586021184921264648e-02
5.268816649913787842e-02
-2.019713073968887329e-01
8.781361393630504608e-03
3.512544557452201843e-02
1.405017822980880737e-01
1.097670197486877441e-01
1.844085901975631714e-01
-1.317204236984252930e-01
-2.370967566967010498e-01
-5.707884952425956726e-02
-1.668458729982376099e-01
1.097670197486877441e-01
-3.205196857452392578e-01
-2.941755950450897217e-01
2.019713073968887329e-01
1.097670197486877441e-01
-6.146952882409095764e-02
1.492831408977508545e-01
4.390680789947509766e-02
2.634408324956893921e-02
1.536738276481628418e-01
1.361110955476760864e-01
-2.063619941473007202e-01
-1.931899487972259521e-01
-1.317204162478446960e-02
-8.781361393630504608e-03
9.220429509878158569e-02
-2.634408324956893921e-02
-1.931899487972259521e-01
-4.829748719930648804e-02
6.586021184921264648e-02
1.536738276481628418e-01
-7.464157044887542725e-02
1.668458729982376099e-01
-1.185483783483505249e-01
-1.009856536984443665e-01
-2.195340394973754883e-02
1.492831408977508545e-01
-2.019713073968887329e-01
1.053763329982757568e-01
1.887992769479751587e-01
-9.659497439861297607e-02
3.117383420467376709e-01
-1.185483783483505249e-01
2.283153980970382690e-01
-1.931899487972259521e-01
2.634408324956893921e-02
-1.887992769479751587e-01
5.707884952425956726e-02
-4.390680696815252304e-03
1.756272278726100922e-02
-3.512544557452201843e-02
2.151433527469635010e-01
1.229390576481819153e-01
1.756272278726100922e-02
-1.756272278726100922e-02
-4.390680696815252304e-03
8.781361579895019531e-02
-3.073476441204547882e-02
5.268816649913787842e-02
-5.707884952425956726e-02
-8.342293649911880493e-02
1.844085901975631714e-01
4.390680696815252304e-03
1.009856536984443665e-01
-1.405017822980880737e-01
-7.464157044887542725e-02
-7.903224974870681763e-02
-8.781361393630504608e-03
3.512544557452201843e-02
1.009856536984443665e-01
-4.829748719930648804e-02
-1.756272315979003906e-01
8.781361393630504608e-03
1.229390576481819153e-01
7.903224974870681763e-02
1.756272278726100922e-02
6.586021184921264648e-02
7.025089114904403687e-02
8.781361393630504608e-03
3.073476441204547882e-02
3.073476441204547882e-02
1.361110955476760864e-01
3.512544557452201843e-02
1.668458729982376099e-01
9.659497439861297607e-02
-1.273297369480133057e-01
-1.229390576481819153e-01
-1.405017822980880737e-01
3.512544557452201843e-02
1.800179034471511841e-01
3.951612487435340881e-02
-1.317204162478446960e-02
1.185483783483505249e-01
1.361110955476760864e-01
-2.107526659965515137e-01
4.829748719930648804e-02
2.414874434471130371e-01
4.390680696815252304e-03
-7.464157044887542725e-02
3.951612487435340881e-02
4.829748719930648804e-02
-7.025089114904403687e-02
0.000000000000000000e+00
-2.195340394973754883e-02
1.141576990485191345e-01
-4.829748719930648804e-02
-9.220429509878158569e-02
-3.951612487435340881e-02
-4.390680789947509766e-02
5.707884952425956726e-02
-1.756272278726100922e-02
-3.073476441204547882e-02
-1.756272278726100922e-02
-9.220429509878158569e-02
7.464157044887542725e-02
8.781361393630504608e-03
1.756272278726100922e-02
-7.464157044887542725e-02
2.370967566967010498e-01
-1.317204236984252930e-01
1.317204162478446960e-02
1.756272278726100922e-02
-8.781361393630504608e-03
-2.195340394973754883e-02
4.390680696815252304e-03
-4.390680789947509766e-02
-2.195340394973754883e-02
5.707884952425956726e-02
-4.390680789947509766e-02
-1.317204236984252930e-01
1.844085901975631714e-01
1.141576990485191345e-01
1.624551862478256226e-01
-8.342293649911880493e-02
-4.829748719930648804e-02
-1.229390576481819153e-01
6.146952882409095764e-02
3.512544557452201843e-02
6.586021184921264648e-02
2.634408324956893921e-02
-8.781361579895019531e-02
1.317204236984252930e-01
-3.951612487435340881e-02
-8.342293649911880493e-02
8.342293649911880493e-02
7.025089114904403687e-02
-2.634408324956893921e-02
-1.273297369480133057e-01
-5.707884952425956726e-02
1.317204162478446960e-02
-7.903224974870681763e-02
-8.342293649911880493e-02
-7.903224974870681763e-02
1.756272278726100922e-02
-1.756272315979003906e-01
-4.390680789947509766e-02
-8.781361393630504608e-03
-1.053763329982757568e-01
-1.756272278726100922e-02
6.146952882409095764e-02
1.756272278726100922e-02
1.009856536984443665e-01
1.273297369480133057e-01
1.405017822980880737e-01
-4.390680789947509766e-02
3.512544557452201843e-02
1.053763329982757568e-01
-7.025089114904403687e-02
1.141576990485191345e-01
4.390680789947509766e-02
-9.220429509878158569e-02
-9.220429509878158569e-02
7.903224974870681763e-02
6.146952882409095764e-02
3.951612487435340881e-02
4.829748719930648804e-02
-7.464157044887542725e-02
-1.800179034471511841e-01
-1.536738276481628418e-01
3.073476441204547882e-02
-1.185483783483505249e-01
1.844085901975631714e-01
-3.073476441204547882e-02
-1.756272315979003906e-01
1.756272315979003906e-01
-3.951612487435340881e-02
4.390680789947509766e-02
1.009856536984443665e-01
1.668458729982376099e-01
4.390680696815252304e-03
-1.405017822980880737e-01
1.492831408977508545e-01
-1.141576990485191345e-01
-1.097670197486877441e-01
6.146952882409095764e-02
-2.019713073968887329e-01
-1.448924690485000610e-01
1.756272315979003906e-01
-3.073476441204547882e-02
4.390680789947509766e-02
-1.053763329982757568e-01
-8.781361579895019531e-02
-1.229390576481819153e-01
4.829748719930648804e-02
-1.141576990485191345e-01
-8.342293649911880493e-02
7.903224974870681763e-02
-3.951612487435340881e-02
-1.141576990485191345e-01
-1.844085901975631714e-01
7.025089114904403687e-02
-8.342293649911880493e-02
-1.887992769479751587e-01
-8.781361579895019531e-02
-1.097670197486877441e-01
4.390680789947509766e-02
-4.390680696815252304e-03
1.975806355476379395e-01
7.025089114904403687e-02
2.370967566967010498e-01
-4.390680696815252304e-03
1.887992769479751587e-01
-8.781361393630504608e-03
1.273297369480133057e-01
-1.844085901975631714e-01
1.361110955476760864e-01
-4.829748719930648804e-02
4.390680696815252304e-03
-1.756272278726100922e-02
-7.025089114904403687e-02
-3.073476441204547882e-02
6.586021184921264648e-02
-1.317204162478446960e-02
-4.390680696815252304e-03
1.273297369480133057e-01
-1.185483783483505249e-01
2.195340394973754883e-02
3.951612487435340881e-02
8.781361579895019531e-02
-9.220429509878158569e-02
4.390680789947509766e-02
3.073476441204547882e-02
-6.146952882409095764e-02
5.268816649913787842e-02
-8.781361579895019531e-02
-6.146952882409095764e-02
7.025089114904403687e-02
0.000000000000000000e+00
-1.931899487972259521e-01
2.590501606464385986e-01
2.239247113466262817e-01
-2.239247113466262817e-01
-8.781361393630504608e-03
1.536738276481628418e-01
-2.370967566967010498e-01
1.097670197486877441e-01
-8.781361393630504608e-03
-1.756272278726100922e-02
-1.624551862478256226e-01
4.390680696815252304e-03
5.707884952425956726e-02
2.634408324956893921e-02
-7.025089114904403687e-02
-2.678315341472625732e-01
2.195340394973754883e-02
1.492831408977508545e-01
-5.268816649913787842e-02
-2.019713073968887329e-01
-2.063619941473007202e-01
-2.195340394973754883e-02
8.781361393630504608e-03
-3.512544557452201843e-02
-8.342293649911880493e-02
3.951612487435340881e-02
5.707884952425956726e-02
-5.707884952425956726e-02
-8.781361579895019531e-02
-1.448924690485000610e-01
1.229390576481819153e-01
1.361110955476760864e-01
1.229390576481819153e-01
1.009856536984443665e-01
4.390680789947509766e-02
-3.293010592460632324e-01
-3.951612487435340881e-02
1.141576990485191345e-01
1.580644994974136353e-01
-8.342293649911880493e-02
-1.317204236984252930e-01
-3.951612487435340881e-02
6.586021184921264648e-02
4.390680696815252304e-03
-7.903224974870681763e-02
-3.512544557452201843e-02
-8.781361579895019531e-02
-3.073476441204547882e-02
-1.756272278726100922e-02
1.317204162478446960e-02
7.464157044887542725e-02
1.097670197486877441e-01
-1.361110955476760864e-01
7.464157044887542725e-02
-8.781361579895019531e-02
-6.146952882409095764e-02
1.097670197486877441e-01
2.107526659965515137e-01
4.390680696815252304e-03
-5.707884952425956726e-02
1.668458729982376099e-01
9.220429509878158569e-02
-1.229390576481819153e-01
-3.073476441204547882e-02
1.624551862478256226e-01
1.273297369480133057e-01
-1.536738276481628418e-01
1.361110955476760864e-01
3.161289989948272705e-01
1.229390576481819153e-01
-3.512544557452201843e-02
-8.781361393630504608e-03
1.405017822980880737e-01
-1.053763329982757568e-01
2.327060699462890625e-01
-7.025089114904403687e-02
8.781361579895019531e-02
1.317204236984252930e-01
7.903224974870681763e-02
-1.668458729982376099e-01
-9.659497439861297607e-02
0.000000000000000000e+00
-2.853942513465881348e-01
3.073476441204547882e-02
-1.405017822980880737e-01
3.073476441204547882e-02
-9.659497439861297607e-02
1.317204162478446960e-02
4.829748719930648804e-02
3.951612487435340881e-02
-5.268816649913787842e-02
5.268816649913787842e-02
-2.897849380970001221e-01
7.903224974870681763e-02
0.000000000000000000e+00
-1.756272278726100922e-02
6.146952882409095764e-02
-1.097670197486877441e-01
-6.586021184921264648e-02
0.000000000000000000e+00
-8.781361393630504608e-03
-5.707884952425956726e-02
2.634408324956893921e-02
2.414874434471130371e-01
1.141576990485191345e-01
8.342293649911880493e-02
-6.146952882409095764e-02
2.634408324956893921e-02
3.512544557452201843e-02
1.229390576481819153e-01
-9.659497439861297607e-02
-7.464157044887542725e-02
1.317204236984252930e-01
3.951612487435340881e-02
-7.025089114904403687e-02
-8.342293649911880493e-02
-2.195340394973754883e-02
4.390680789947509766e-02
-2.195340394973754883e-02
-4.390680789947509766e-02
3.249103724956512451e-01
-9.659497439861297607e-02
-8.781361579895019531e-02
8.781361579895019531e-02
1.405017822980880737e-01
1.229390576481819153e-01
-3.073476441204547882e-02
-5.268816649913787842e-02
-6.586021184921264648e-02
-4.390680789947509766e-02
-1.492831408977508545e-01
-3.073476441204547882e-02
1.097670197486877441e-01
0.000000000000000000e+00
-1.448924690485000610e-01
-4.390680696815252304e-03
7.903224974870681763e-02
-6.146952882409095764e-02
-1.097670197486877441e-01
0.000000000000000000e+00
-1.009856536984443665e-01
7.903224974870681763e-02
1.405017822980880737e-01
3.951612487435340881e-02
1.361110955476760864e-01
6.146952882409095764e-02
1.756272278726100922e-02
-1.492831408977508545e-01
4.829748719930648804e-02
-2.722221910953521729e-01
2.370967566967010498e-01
4.829748719930648804e-02
-1.053763329982757568e-01
-3.512544557452201843e-02
8.781361579895019531e-02
-4.829748719930648804e-02
-1.668458729982376099e-01
-3.951612487435340881e-02
-1.097670197486877441e-01
7.464157044887542725e-02
1.756272278726100922e-02
1.756272278726100922e-02
-5.268816649913787842e-02
2.063619941473007202e-01
-2.151433527469635010e-01
-4.829748719930648804e-02
9.659497439861297607e-02
1.492831408977508545e-01
3.951612487435340881e-02
8.781361393630504608e-03
2.897849380970001221e-01
2.722221910953521729e-01
1.712365448474884033e-01
-2.458781152963638306e-01
-7.464157044887542725e-02
-3.512544557452201843e-02
-1.229390576481819153e-01
-2.063619941473007202e-01
-4.390680789947509766e-02
1.229390576481819153e-01
-1.536738276481628418e-01
1.097670197486877441e-01
-8.781361393630504608e-03
-1.536738276481628418e-01
1.405017822980880737e-01
2.634408324956893921e-02
2.195340394973754883e-02
-1.448924690485000610e-01
-5.268816649913787842e-02
1.931899487972259521e-01
1.756272315979003906e-01
1.317204162478446960e-02
-1.712365448474884033e-01
-2.195340394973754883e-02
8.781361393630504608e-03
1.317204162478446960e-02
-4.390680696815252304e-03
2.195340394973754883e-02
2.283153980970382690e-01
-1.756272315979003906e-01
0.000000000000000000e+00
1.141576990485191345e-01
1.536738276481628418e-01
4.829748719930648804e-02
1.317204236984252930e-01
1.931899487972259521e-01
1.536738276481628418e-01
-1.097670197486877441e-01
-7.903224974870681763e-02
-1.536738276481628418e-01
1.405017822980880737e-01
-1.141576990485191345e-01
1.931899487972259521e-01
6.146952882409095764e-02
-1.756272315979003906e-01
2.853942513465881348e-01
-1.053763329982757568e-01
-2.195340394973754883e-02
-1.624551862478256226e-01
2.414874434471130371e-01
-2.195340394973754883e-02
-1.800179034471511841e-01
-6.586021184921264648e-02
1.229390576481819153e-01
-2.634408324956893921e-02
-1.405017822980880737e-01
1.405017822980880737e-01
2.634408324956893921e-02
-1.317204236984252930e-01
-8.781361579895019531e-02
-1.361110955476760864e-01
2.107526659965515137e-01
0.000000000000000000e+00
7.903224974870681763e-02
-7.025089114904403687e-02
-6.586021184921264648e-02
2.634408324956893921e-02
-2.634408324956893921e-02
-1.756272278726100922e-02
3.512544557452201843e-02
1.185483783483505249e-01
-4.390680696815252304e-03
5.707884952425956726e-02
-2.151433527469635010e-01
2.634408324956893921e-02
-8.781361393630504608e-03
-2.634408324956893921e-02
-5.707884952425956726e-02
-7.903224974870681763e-02
1.317204162478446960e-02
-2.634408324956893921e-02
2.063619941473007202e-01
1.317204162478446960e-02
3.073476441204547882e-02
-3.951612487435340881e-02
1.536738276481628418e-01
2.502687871456146240e-01
9.220429509878158569e-02
-3.951612487435340881e-02
7.464157044887542725e-02
3.951612487435340881e-02
-2.283153980970382690e-01
3.073476441204547882e-02
-8.781361579895019531e-02
-4.829748719930648804e-02
1.229390576481819153e-01
3.512544557452201843e-02
3.512544557452201843e-02
1.317204162478446960e-02
-1.580644994974136353e-01
-1.756272278726100922e-02
7.903224974870681763e-02
-2.634408324956893921e-02
2.151433527469635010e-01
-9.220429509878158569e-02
-1.712365448474884033e-01
-5.268816649913787842e-02
-1.756272315979003906e-01
-1.185483783483505249e-01
1.931899487972259521e-01
-2.810035645961761475e-01
-7.025089114904403687e-02
1.624551862478256226e-01
-1.273297369480133057e-01
-1.448924690485000610e-01
1.097670197486877441e-01
6.146952882409095764e-02
5.268816649913787842e-02
-3.073476441204547882e-02
-3.512544557452201843e-02
-7.903224974870681763e-02
7.903224974870681763e-02
-1.317204236984252930e-01
-3.951612487435340881e-02
1.931899487972259521e-01
-9.220429509878158569e-02
-7.464157044887542725e-02
1.097670197486877441e-01
-8.342293649911880493e-02
3.688171803951263428e-01
2.283153980970382690e-01
-1.448924690485000610e-01
-1.668458729982376099e-01
2.195340394973754883e-02
-2.678315341472625732e-01
2.195340394973754883e-02
6.146952882409095764e-02
1.273297369480133057e-01
-2.151433527469635010e-01
-3.073476441204547882e-02
7.464157044887542725e-02
-6.586021184921264648e-02
-9.220429509878158569e-02
-4.390680789947509766e-02
0.000000000000000000e+00
-3.073476441204547882e-02
-1.097670197486877441e-01
7.025089114904403687e-02
3.951612487435340881e-02
4.829748719930648804e-02
4.390680789947509766e-02
1.624551862478256226e-01
-3.951612487435340881e-02
1.536738276481628418e-01
-8.342293649911880493e-02
1.536738276481628418e-01
3.512544557452201843e-02
9.220429509878158569e-02
4.390680789947509766e-02
-7.025089114904403687e-02
-1.317204162478446960e-02
1.492831408977508545e-01
5.707884952425956726e-02
1.097670197486877441e-01
-1.053763329982757568e-01
2.107526659965515137e-01
1.800179034471511841e-01
-1.405017822980880737e-01
-1.580644994974136353e-01
3.512544557452201843e-02
3.951612487435340881e-02
-4.390680696815252304e-03
-8.781361393630504608e-03
1.317204236984252930e-01
-7.025089114904403687e-02
-8.342293649911880493e-02
1.273297369480133057e-01
-4.390680696815252304e-03
-1.844085901975631714e-01
-8.781361393630504608e-03
1.317204162478446960e-02
2.634408324956893921e-02
-7.903224974870681763e-02
6.586021184921264648e-02
3.073476441204547882e-02
-2.634408324956893921e-02
-1.624551862478256226e-01
1.580644994974136353e-01
-5.268816649913787842e-02
-6.146952882409095764e-02
7.903224974870681763e-02
-3.073476441204547882e-02
2.634408324956893921e-02
1.624551862478256226e-01
9.220429509878158569e-02
-1.624551862478256226e-01
-4.390680789947509766e-02
-1.844085901975631714e-01
1.317204162478446960e-02
-1.317204236984252930e-01
8.781361393630504608e-03
-2.370967566967010498e-01
-1.492831408977508545e-01
4.829748719930648804e-02
-9.659497439861297607e-02
7.025089114904403687e-02
-8.781361579895019531e-02
6.586021184921264648e-02
-8.781361579895019531e-02
5.268816649913787842e-02
5.707884952425956726e-02
6.586021184921264648e-02
5.268816649913787842e-02
1.273297369480133057e-01
1.097670197486877441e-01
-6.586021184921264648e-02
1.053763329982757568e-01
-8.342293649911880493e-02
7.025089114904403687e-02
-1.448924690485000610e-01
-4.390680789947509766e-02
-1.009856536984443665e-01
-1.009856536984443665e-01
2.195340394973754883e-02
-7.464157044887542725e-02
4.829748719930648804e-02
-1.756272278726100922e-02
-8.342293649911880493e-02
3.512544557452201843e-02
-2.151433527469635010e-01
-1.536738276481628418e-01
9.659497439861297607e-02
1.712365448474884033e-01
9.220429509878158569e-02
-7.464157044887542725e-02
2.634408324956893921e-02
3.951612487435340881e-02
1.273297369480133057e-01
-1.141576990485191345e-01
7.025089114904403687e-02
-1.800179034471511841e-01
4.390680789947509766e-02
-1.712365448474884033e-01
-8.781361579895019531e-02
8.342293649911880493e-02
-8.781361393630504608e-03
2.195340394973754883e-02
3.951612487435340881e-02
-1.405017822980880737e-01
-1.141576990485191345e-01
-1.536738276481628418e-01
1.712365448474884033e-01
-7.025089114904403687e-02
5.707884952425956726e-02
-1.448924690485000610e-01
1.492831408977508545e-01
1.317204162478446960e-02
-7.464157044887542725e-02
-7.025089114904403687e-02
1.097670197486877441e-01
1.536738276481628418e-01
8.342293649911880493e-02
9.220429509878158569e-02
6.586021184921264648e-02
3.951612487435340881e-02
5.707884952425956726e-02
8.781361393630504608e-03
-4.390680696815252304e-03
1.800179034471511841e-01
2.107526659965515137e-01
3.951612487435340881e-02
1.185483783483505249e-01
-1.844085901975631714e-01
1.536738276481628418e-01
3.951612487435340881e-02
-3.512544557452201843e-02
-1.141576990485191345e-01
1.712365448474884033e-01
1.844085901975631714e-01
3.951612487435340881e-02
1.887992769479751587e-01
2.151433527469635010e-01
1.536738276481628418e-01
-5.707884952425956726e-02
-2.195340394973754883e-02
2.195340394973754883e-01
7.025089114904403687e-02
4.390680696815252304e-03
1.844085901975631714e-01
2.195340394973754883e-02
5.707884952425956726e-02
-4.390680789947509766e-02
1.053763329982757568e-01
1.273297369480133057e-01
1.361110955476760864e-01
-6.146952882409095764e-02
1.317204236984252930e-01
3.029569685459136963e-01
1.712365448474884033e-01
1.141576990485191345e-01
3.732078671455383301e-01
7.025089114904403687e-02
-1.317204162478446960e-02
-8.781361393630504608e-03
-2.107526659965515137e-01
8.781361393630504608e-03
7.903224974870681763e-02
-1.009856536984443665e-01
-8.781361393630504608e-03
-1.536738276481628418e-01
2.327060699462890625e-01
-2.283153980970382690e-01
-6.146952882409095764e-02
5.707884952425956726e-02
-2.766128778457641602e-01
1.317204162478446960e-02
1.141576990485191345e-01
1.756272278726100922e-02
-1.317204162478446960e-02
-2.634408324956893921e-02
1.448924690485000610e-01
2.195340394973754883e-01
-3.073476441204547882e-02
-7.903224974870681763e-02
1.712365448474884033e-01
-1.800179034471511841e-01
-1.229390576481819153e-01
7.464157044887542725e-02
1.317204162478446960e-02
-1.931899487972259521e-01
-1.097670197486877441e-01
3.073476441204547882e-02
-4.390680696815252304e-03
-8.781361393630504608e-03
1.448924690485000610e-01
1.624551862478256226e-01
3.073476441204547882e-02
-8.342293649911880493e-02
7.464157044887542725e-02
3.073476441204547882e-02
3.951612487435340881e-02
2.546594738960266113e-01
-2.634408324956893921e-02
2.634408324956893921e-02
4.829748719930648804e-02
-2.546594738960266113e-01
-1.756272278726100922e-02
-1.580644994974136353e-01
1.492831408977508545e-01
-1.624551862478256226e-01
-5.707884952425956726e-02
-4.390680696815252304e-03
-1.273297369480133057e-01
1.756272278726100922e-02
-2.151433527469635010e-01
8.781361579895019531e-02
2.151433527469635010e-01
2.019713073968887329e-01
-7.903224974870681763e-02
1.800179034471511841e-01
-1.931899487972259521e-01
-1.009856536984443665e-01
-8.781361393630504608e-03
7.464157044887542725e-02
-4.829748719930648804e-02
4.390680789947509766e-02
2.063619941473007202e-01
-1.009856536984443665e-01
-1.712365448474884033e-01
3.336917459964752197e-01
1.668458729982376099e-01
1.273297369480133057e-01
-1.800179034471511841e-01
-7.025089114904403687e-02
-7.903224974870681763e-02
3.951612487435340881e-02
-1.097670197486877441e-01
-1.141576990485191345e-01
-2.239247113466262817e-01
-3.029569685459136963e-01
-1.317204162478446960e-02
3.249103724956512451e-01
1.756272278726100922e-02
-9.659497439861297607e-02
7.025089114904403687e-02
1.668458729982376099e-01
-7.464157044887542725e-02
-7.464157044887542725e-02
-5.268816649913787842e-02
2.985662817955017090e-01
5.707884952425956726e-02
-1.009856536984443665e-01
-2.810035645961761475e-01
-8.342293649911880493e-02
-3.073476552963256836e-01
8.781361579895019531e-02
-1.317204236984252930e-01
1.273297369480133057e-01
-3.512544557452201843e-02
6.146952882409095764e-02
6.586021184921264648e-02
-4.390680789947509766e-02
2.634408324956893921e-02
-4.829748719930648804e-02
-1.317204162478446960e-02
7.025089114904403687e-02
-8.342293649911880493e-02
1.668458729982376099e-01
5.268816649913787842e-02
-7.025089114904403687e-02
-1.405017822980880737e-01
3.073476441204547882e-02
-2.414874434471130371e-01
-7.025089114904403687e-02
-8.781361579895019531e-02
-5.268816649913787842e-02
1.097670197486877441e-01
1.756272278726100922e-02
-8.342293649911880493e-02
1.492831408977508545e-01
9.220429509878158569e-02
-2.019713073968887329e-01
8.781361393630504608e-03
8.342293649911880493e-02
-9.659497439861297607e-02
3.951612487435340881e-02
-4.390680696815252304e-03
-1.141576990485191345e-01
4.390680696815252304e-03
1.405017822980880737e-01
-7.903224974870681763e-02
1.185483783483505249e-01
6.146952882409095764e-02
9.659497439861297607e-02
-7.903224974870681763e-02
-1.668458729982376099e-01
-2.634408324956893921e-02
-6.586021184921264648e-02
2.063619941473007202e-01
1.975806355476379395e-01
2.458781152963638306e-01
-3.073476441204547882e-02
4.829748719930648804e-02
1.405017822980880737e-01
-4.829748719930648804e-02
-2.634408324956893921e-02
1.009856536984443665e-01
1.361110955476760864e-01
-4.390680696815252304e-03
-8.781361579895019531e-02
-3.512544557452201843e-02
7.464157044887542725e-02
-1.185483783483505249e-01
-1.668458729982376099e-01
4.829748719930648804e-02
-1.141576990485191345e-01
-1.712365448474884033e-01
6.586021184921264648e-02
-9.220429509878158569e-02
-8.781361393630504608e-03
1.931899487972259521e-01
-2.634408324956893921e-02
-3.512544557452201843e-02
1.492831408977508545e-01
-3.073476441204547882e-02
0.000000000000000000e+00
-3.073476441204547882e-02
-4.390680696815252304e-03
1.229390576481819153e-01
-8.781361393630504608e-03
2.195340394973754883e-02
2.195340394973754883e-01
1.097670197486877441e-01
1.712365448474884033e-01
5.707884952425956726e-02
-1.756272278726100922e-02
-8.342293649911880493e-02
3.512544557452201843e-02
1.317204162478446960e-02
-1.844085901975631714e-01
-8.781361393630504608e-03
-7.903224974870681763e-02
-4.829748719930648804e-02
6.146952882409095764e-02
-5.268816649913787842e-02
2.195340394973754883e-02
3.951612487435340881e-02
2.239247113466262817e-01
-1.756272315979003906e-01
-7.903224974870681763e-02
-1.273297369480133057e-01
-4.829748719930648804e-02
-3.073476441204547882e-02
5.707884952425956726e-02
0.000000000000000000e+00
1.317204162478446960e-02
7.903224974870681763e-02
0.000000000000000000e+00
2.634408324956893921e-02
-1.097670197486877441e-01
1.273297369480133057e-01
-1.317204162478446960e-02
2.195340394973754883e-02
8.781361579895019531e-02
2.195340394973754883e-02
2.634408324956893921e-02
8.342293649911880493e-02
-6.146952882409095764e-02
4.390680789947509766e-02
8.342293649911880493e-02
-1.756272278726100922e-02
8.781361393630504608e-03
-4.390680696815252304e-03
1.756272278726100922e-02
1.185483783483505249e-01
-1.229390576481819153e-01
-1.317204162478446960e-02
1.317204236984252930e-01
-1.317204162478446960e-02
6.146952882409095764e-02
-8.781361579895019531e-02
-1.053763329982757568e-01
4.390680789947509766e-02
-5.268816649913787842e-02
-1.668458729982376099e-01
6.586021184921264648e-02
-1.097670197486877441e-01
-3.512544557452201843e-02
-9.659497439861297607e-02
7.464157044887542725e-02
-2.634408324956893921e-02
-8.781361579895019531e-02
5.707884952425956726e-02
8.781361393630504608e-03
-1.317204236984252930e-01
2.590501606464385986e-01
-7.903224974870681763e-02
1.009856536984443665e-01
-4.390680696815252304e-03
1.053763329982757568e-01
-1.756272278726100922e-02
-1.756272278726100922e-02
1.273297369480133057e-01
-1.712365448474884033e-01
-8.781361393630504608e-03
-4.390680696815252304e-03
9.659497439861297607e-02
1.405017822980880737e-01
-7.464157044887542725e-02
9.220429509878158569e-02
1.756272315979003906e-01
-7.464157044887542725e-02
0.000000000000000000e+00
-1.317204162478446960e-02
-4.390680696815252304e-03
-2.634408324956893921e-02
-1.317204162478446960e-02
2.063619941473007202e-01
1.317204162478446960e-02
-1.097670197486877441e-01
-1.756272278726100922e-02
-1.668458729982376099e-01
-1.229390576481819153e-01
1.009856536984443665e-01
-3.073476441204547882e-02
4.829748719930648804e-02
-1.317204162478446960e-02
-1.185483783483505249e-01
7.025089114904403687e-02
-3.951612487435340881e-02
-1.624551862478256226e-01
1.712365448474884033e-01
-1.361110955476760864e-01
-5.268816649913787842e-02
1.405017822980880737e-01
3.951612487435340881e-02
-6.586021184921264648e-02
4.829748719930648804e-02
-3.951612487435340881e-02
-5.707884952425956726e-02
-7.025089114904403687e-02
-4.390680696815252304e-03
-7.903224974870681763e-02
8.342293649911880493e-02
-1.273297369480133057e-01
-7.464157044887542725e-02
5.268816649913787842e-02
8.342293649911880493e-02
-1.317204162478446960e-02
-2.195340394973754883e-02
1.009856536984443665e-01
-1.756272315979003906e-01
-9.659497439861297607e-02
5.707884952425956726e-02
8.342293649911880493e-02
-1.756272315979003906e-01
5.707884952425956726e-02
9.220429509878158569e-02
1.273297369480133057e-01
-8.781361393630504608e-03
-5.268816649913787842e-02
-8.342293649911880493e-02
-1.141576990485191345e-01
-1.800179034471511841e-01
4.390680789947509766e-02
-1.317204236984252930e-01
-1.053763329982757568e-01
1.405017822980880737e-01
-3.512544557452201843e-02
-3.512544557452201843e-02
-1.273297369480133057e-01
-8.342293649911880493e-02
1.229390576481819153e-01
-2.590501606464385986e-01
-1.580644994974136353e-01
7.025089114904403687e-02
2.766128778457641602e-01
1.580644994974136353e-01
-2.370967566967010498e-01
1.492831408977508545e-01
1.317204162478446960e-02
1.317204162478446960e-02
5.707884952425956726e-02
-1.141576990485191345e-01
-9.220429509878158569e-02
-8.781361393630504608e-03
-2.853942513465881348e-01
0.000000000000000000e+00
1.229390576481819153e-01
4.829748719930648804e-02
7.903224974870681763e-02
1.405017822980880737e-01
-2.195340394973754883e-02
-1.317204162478446960e-02
7.464157044887542725e-02
-4.390680789947509766e-02
-7.464157044887542725e-02
2.634408324956893921e-02
1.053763329982757568e-01
-4.390680696815252304e-03
6.586021184921264648e-02
1.756272278726100922e-02
-1.668458729982376099e-01
-2.195340394973754883e-02
1.887992769479751587e-01
-7.025089114904403687e-02
-7.903224974870681763e-02
1.492831408977508545e-01
6.146952882409095764e-02
3.512544557452201843e-02
0.000000000000000000e+00
-1.712365448474884033e-01
-6.146952882409095764e-02
-7.464157044887542725e-02
-2.151433527469635010e-01
1.273297369480133057e-01
-3.512544557452201843e-02
-5.707884952425956726e-02
3.951612487435340881e-02
-1.580644994974136353e-01
-1.097670197486877441e-01
3.512544557452201843e-02
-1.448924690485000610e-01
3.951612487435340881e-02
5.707884952425956726e-02
1.229390576481819153e-01
-4.390680789947509766e-02
2.195340394973754883e-02
1.141576990485191345e-01
-1.317204236984252930e-01
3.073476441204547882e-02
6.586021184921264648e-02
-1.229390576481819153e-01
-1.361110955476760864e-01
7.464157044887542725e-02
1.229390576481819153e-01
-1.009856536984443665e-01
5.268816649913787842e-02
1.317204236984252930e-01
-2.634408324956893921e-02
-2.634408324956893921e-02
8.342293649911880493e-02
-8.342293649911880493e-02
-4.390680696815252304e-03
-8.342293649911880493e-02
3.512544557452201843e-02
9.220429509878158569e-02
-3.512544557452201843e-02
2.458781152963638306e-01
7.025089114904403687e-02
-1.756272278726100922e-02
-2.019713073968887329e-01
-2.239247113466262817e-01
-9.220429509878158569e-02
1.317204162478446960e-02
4.390680789947509766e-02
1.317204236984252930e-01
1.317204162478446960e-02
-2.019713073968887329e-01
-1.361110955476760864e-01
8.781361393630504608e-03
7.903224974870681763e-02
-5.707884952425956726e-02
1.053763329982757568e-01
1.185483783483505249e-01
1.317204162478446960e-02
1.756272278726100922e-02
8.781361579895019531e-02
2.634408324956893921e-02
-1.361110955476760864e-01
1.053763329982757568e-01
9.220429509878158569e-02
-2.107526659965515137e-01
1.141576990485191345e-01
6.586021184921264648e-02
8.781361393630504608e-03
-4.829748719930648804e-02
8.342293649911880493e-02
-1.756272278726100922e-02
-5.268816649913787842e-02
7.464157044887542725e-02
1.800179034471511841e-01
0.000000000000000000e+00
-1.317204162478446960e-02
-1.536738276481628418e-01
1.975806355476379395e-01
-1.185483783483505249e-01
8.781361393630504608e-03
1.185483783483505249e-01
-8.781361393630504608e-03
-7.903224974870681763e-02
1.361110955476760864e-01
-1.405017822980880737e-01
1.141576990485191345e-01
8.781361393630504608e-03
2.327060699462890625e-01
3.073476441204547882e-02
-1.624551862478256226e-01
-1.800179034471511841e-01
7.903224974870681763e-02
1.756272315979003906e-01
-2.019713073968887329e-01
-1.361110955476760864e-01
-6.586021184921264648e-02
1.361110955476760864e-01
-1.361110955476760864e-01
4.390680696815252304e-03
3.951612487435340881e-02
6.586021184921264648e-02
-2.195340394973754883e-02
-8.781361393630504608e-03
1.756272278726100922e-02
1.624551862478256226e-01
-6.586021184921264648e-02
1.756272278726100922e-02
-8.342293649911880493e-02
2.283153980970382690e-01
2.195340394973754883e-02
-5.268816649913787842e-02
2.634408324956893921e-02
1.580644994974136353e-01
2.634408324956893921e-02
3.512544557452201843e-02
1.580644994974136353e-01
-8.781361579895019531e-02
-1.053763329982757568e-01
3.951612487435340881e-02
7.025089114904403687e-02
-8.781361393630504608e-03
-3.073476441204547882e-02
1.844085901975631714e-01
-8.342293649911880493e-02
1.097670197486877441e-01
1.800179034471511841e-01
-1.317204162478446960e-02
-1.317204162478446960e-02
1.229390576481819153e-01
2.985662817955017090e-01
-5.268816649913787842e-02
2.195340394973754883e-02
1.361110955476760864e-01
1.141576990485191345e-01
-1.931899487972259521e-01
1.185483783483505249e-01
9.220429509878158569e-02
1.361110955476760864e-01
-1.185483783483505249e-01
3.951612487435340881e-02
-1.712365448474884033e-01
7.903224974870681763e-02
-8.781361393630504608e-03
-2.195340394973754883e-02
2.634408324956893921e-02
1.668458729982376099e-01
-4.390680789947509766e-02
-1.097670197486877441e-01
-1.405017822980880737e-01
-6.586021184921264648e-02
9.659497439861297607e-02
1.141576990485191345e-01
8.781361393630504608e-03
6.146952882409095764e-02
3.073476441204547882e-02
-2.239247113466262817e-01
-1.361110955476760864e-01
6.146952882409095764e-02
4.390680696815252304e-03
8.781361393630504608e-03
4.829748719930648804e-02
7.464157044887542725e-02
-4.390680789947509766e-02
2.634408324956893921e-02
-8.781361579895019531e-02
1.053763329982757568e-01
-1.141576990485191345e-01
-2.195340394973754883e-02
-5.268816649913787842e-02
-8.781361393630504608e-03
2.634408324956893921e-02
1.448924690485000610e-01
1.756272315979003906e-01
-3.951612487435340881e-02
3.951612487435340881e-02
-3.951612487435340881e-02
1.141576990485191345e-01
-1.756272278726100922e-02
-3.073476441204547882e-02
1.492831408977508545e-01
7.025089114904403687e-02
4.829748719930648804e-02
-7.025089114904403687e-02
7.025089114904403687e-02
1.624551862478256226e-01
-9.220429509878158569e-02
5.707884952425956726e-02
-4.390680789947509766e-02
-3.732078671455383301e-01
-1.448924690485000610e-01
-9.220429509878158569e-02
8.781361579895019531e-02
7.903224974870681763e-02
1.097670197486877441e-01
-1.317204162478446960e-02
8.781361393630504608e-03
6.146952882409095764e-02
2.634408324956893921e-02
-1.273297369480133057e-01
1.448924690485000610e-01
1.141576990485191345e-01
1.185483783483505249e-01
4.390680789947509766e-02
-1.185483783483505249e-01
4.390680789947509766e-02
-2.370967566967010498e-01
-5.707884952425956726e-02
-2.195340394973754883e-01
1.009856536984443665e-01
-1.141576990485191345e-01
-1.053763329982757568e-01
1.844085901975631714e-01
-3.951612487435340881e-02
1.009856536984443665e-01
-1.185483783483505249e-01
5.707884952425956726e-02
2.634408324956893921e-02
1.361110955476760864e-01
-1.317204236984252930e-01
4.390680696815252304e-03
2.195340394973754883e-01
1.185483783483505249e-01
-1.756272278726100922e-02
-1.668458729982376099e-01
-7.025089114904403687e-02
1.800179034471511841e-01
-2.195340394973754883e-02
8.781361579895019531e-02
-5.268816649913787842e-02
-1.668458729982376099e-01
1.405017822980880737e-01
-1.492831408977508545e-01
-1.756272315979003906e-01
1.887992769479751587e-01
-1.756272315979003906e-01
4.390680789947509766e-02
-1.097670197486877441e-01
-1.185483783483505249e-01
9.220429509878158569e-02
-9.659497439861297607e-02
3.073476441204547882e-02
6.146952882409095764e-02
1.229390576481819153e-01
-1.097670197486877441e-01
-1.141576990485191345e-01
-3.073476441204547882e-02
5.268816649913787842e-02
4.390680696815252304e-03
-1.141576990485191345e-01
-1.185483783483505249e-01
1.580644994974136353e-01
1.053763329982757568e-01
-2.283153980970382690e-01
-2.195340394973754883e-02
-3.029569685459136963e-01
3.512544557452201843e-02
-5.268816649913787842e-02
1.141576990485191345e-01
-1.492831408977508545e-01
1.492831408977508545e-01
5.707884952425956726e-02
-3.073476441204547882e-02
-2.195340394973754883e-02
-7.464157044887542725e-02
-1.317204162478446960e-02
8.781361579895019531e-02
1.317204162478446960e-02
-8.342293649911880493e-02
2.195340394973754883e-02
-1.053763329982757568e-01
3.073476441204547882e-02
1.756272278726100922e-02
-6.586021184921264648e-02
4.390680789947509766e-02
5.268816649913787842e-02
1.536738276481628418e-01
-8.781361393630504608e-03
1.141576990485191345e-01
6.146952882409095764e-02
4.390680789947509766e-02
-2.195340394973754883e-02
-1.053763329982757568e-01
1.844085901975631714e-01
5.707884952425956726e-02
-3.951612487435340881e-02
-3.951612487435340881e-02
5.268816649913787842e-02
-1.448924690485000610e-01
-6.586021184921264648e-02
1.975806355476379395e-01
1.492831408977508545e-01
-2.195340394973754883e-02
-1.317204162478446960e-02
2.195340394973754883e-02
8.781361579895019531e-02
-7.464157044887542725e-02
1.053763329982757568e-01
-4.829748719930648804e-02
-1.492831408977508545e-01
5.268816649913787842e-02
-1.273297369480133057e-01
-8.342293649911880493e-02
7.025089114904403687e-02
1.009856536984443665e-01
4.829748719930648804e-02
-1.317204162478446960e-02
7.464157044887542725e-02
4.390680696815252304e-03
-1.756272315979003906e-01
1.317204236984252930e-01
4.390680696815252304e-03
1.097670197486877441e-01
9.659497439861297607e-02
1.448924690485000610e-01
9.220429509878158569e-02
2.634408324956893921e-02
3.073476441204547882e-02
-1.009856536984443665e-01
1.185483783483505249e-01
-2.151433527469635010e-01
9.659497439861297607e-02
-1.009856536984443665e-01
4.390680789947509766e-02
-1.800179034471511841e-01
-1.097670197486877441e-01
-7.464157044887542725e-02
6.146952882409095764e-02
6.146952882409095764e-02
1.712365448474884033e-01
1.273297369480133057e-01
-8.781361393630504608e-03
-1.141576990485191345e-01
2.063619941473007202e-01
-2.195340394973754883e-02
1.448924690485000610e-01
8.781361579895019531e-02
1.317204162478446960e-02
1.317204236984252930e-01
-2.634408324956893921e-02
1.317204162478446960e-02
-1.229390576481819153e-01
-4.829748719930648804e-02
-7.025089114904403687e-02
8.781361393630504608e-03
3.951612487435340881e-02
5.707884952425956726e-02
1.097670197486877441e-01
1.053763329982757568e-01
4.390680696815252304e-03
-2.195340394973754883e-02
-4.390680789947509766e-02
2.063619941473007202e-01
-1.317204162478446960e-02
1.317204162478446960e-02
5.707884952425956726e-02
-8.781361579895019531e-02
-6.146952882409095764e-02
2.634408324956893921e-02
1.317204236984252930e-01
-9.220429509878158569e-02
1.448924690485000610e-01
2.239247113466262817e-01
1.668458729982376099e-01
6.586021184921264648e-02
-2.634408324956893921e-02
-3.951612487435340881e-02
-2.634408324956893921e-02
1.536738276481628418e-01
2.195340394973754883e-01
2.019713073968887329e-01
1.009856536984443665e-01
2.634408473968505859e-01
-4.390680789947509766e-02
-1.185483783483505249e-01
6.586021184921264648e-02
-9.220429509878158569e-02
-5.268816649913787842e-02
2.634408324956893921e-02
2.414874434471130371e-01
-1.536738276481628418e-01
-5.707884952425956726e-02
-4.390680696815252304e-03
1.229390576481819153e-01
-1.756272278726100922e-02
-9.220429509878158569e-02
-1.185483783483505249e-01
4.829748719930648804e-02
-1.317204162478446960e-02
-6.146952882409095764e-02
5.268816649913787842e-02
-1.492831408977508545e-01
7.025089114904403687e-02
1.097670197486877441e-01
1.317204236984252930e-01
-7.903224974870681763e-02
-7.464157044887542725e-02
7.464157044887542725e-02
-9.659497439861297607e-02
-1.053763329982757568e-01
-1.756272278726100922e-02
-1.492831408977508545e-01
3.073476441204547882e-02
-1.097670197486877441e-01
2.283153980970382690e-01
-1.009856536984443665e-01
1.185483783483505249e-01
3.951612487435340881e-02
0.000000000000000000e+00
-2.195340394973754883e-02
-5.707884952425956726e-02
4.390680789947509766e-02
-3.951612487435340881e-02
8.781361393630504608e-03
-1.800179034471511841e-01
1.097670197486877441e-01
4.829748719930648804e-02
-1.141576990485191345e-01
2.897849380970001221e-01
1.887992769479751587e-01
9.659497439861297607e-02
-1.756272278726100922e-02
1.536738276481628418e-01
-1.229390576481819153e-01
2.634408324956893921e-02
4.390680696815252304e-03
-1.273297369480133057e-01
-4.829748719930648804e-02
6.146952882409095764e-02
-9.220429509878158569e-02
-3.073476441204547882e-02
1.624551862478256226e-01
6.146952882409095764e-02
1.141576990485191345e-01
7.903224974870681763e-02
1.756272278726100922e-02
2.195340394973754883e-02
-1.185483783483505249e-01
8.342293649911880493e-02
9.659497439861297607e-02
7.025089114904403687e-02
9.659497439861297607e-02
-9.659497439861297607e-02
5.268816649913787842e-02
-1.580644994974136353e-01
-1.009856536984443665e-01
-2.239247113466262817e-01
5.268816649913787842e-02
-1.185483783483505249e-01
-6.586021184921264648e-02
-4.390680789947509766e-02
-8.781361579895019531e-02
-1.009856536984443665e-01
7.903224974870681763e-02
-1.448924690485000610e-01
-2.195340394973754883e-02
9.659497439861297607e-02
6.586021184921264648e-02
2.414874434471130371e-01
-1.405017822980880737e-01
-2.195340394973754883e-02
1.756272315979003906e-01
-5.268816649913787842e-02
1.756272315979003906e-01
1.448924690485000610e-01
-4.829748719930648804e-02
3.951612487435340881e-02
5.707884952425956726e-02
1.317204162478446960e-02
-8.781361393630504608e-03
1.492831408977508545e-01
-3.073476441204547882e-02
-8.342293649911880493e-02
-1.756272278726100922e-02
-5.268816649913787842e-02
1.317204162478446960e-02
-3.073476441204547882e-02
1.361110955476760864e-01
0.000000000000000000e+00
-8.342293649911880493e-02
1.668458729982376099e-01
9.220429509878158569e-02
9.220429509878158569e-02
4.390680696815252304e-03
7.025089114904403687e-02
-1.009856536984443665e-01
-8.342293649911880493e-02
4.390680696815252304e-03
1.756272278726100922e-02
1.097670197486877441e-01
7.025089114904403687e-02
-9.220429509878158569e-02
-8.781361579895019531e-02
7.903224974870681763e-02
4.390680696815252304e-03
-7.903224974870681763e-02
6.586021184921264648e-02
-4.829748719930648804e-02
1.624551862478256226e-01
5.707884952425956726e-02
1.185483783483505249e-01
-1.448924690485000610e-01
-7.903224974870681763e-02
8.781361579895019531e-02
1.405017822980880737e-01
-7.025089114904403687e-02
-4.390680696815252304e-03
1.405017822980880737e-01
3.512544557452201843e-02
-8.781361579895019531e-02
-4.390680789947509766e-02
1.097670197486877441e-01
1.405017822980880737e-01
-1.492831408977508545e-01
-4.390680789947509766e-02
4.390680696815252304e-03
-5.268816649913787842e-02
9.220429509878158569e-02
1.492831408977508545e-01
-1.097670197486877441e-01
1.317204162478446960e-02
1.844085901975631714e-01
1.931899487972259521e-01
2.590501606464385986e-01
8.781361393630504608e-03
8.781361393630504608e-03
8.342293649911880493e-02
-4.390680696815252304e-03
-1.229390576481819153e-01
1.756272315979003906e-01
2.458781152963638306e-01
0.000000000000000000e+00
9.220429509878158569e-02
-1.229390576481819153e-01
-1.229390576481819153e-01
-8.781361393630504608e-03
-1.668458729982376099e-01
-1.756272278726100922e-02
-1.097670197486877441e-01
-1.887992769479751587e-01
2.546594738960266113e-01
-1.053763329982757568e-01
0.000000000000000000e+00
-2.634408324956893921e-02
-5.268816649913787842e-02
-1.492831408977508545e-01
-7.025089114904403687e-02
-3.073476441204547882e-02
2.634408324956893921e-02
5.268816649913787842e-02
1.361110955476760864e-01
1.317204162478446960e-02
7.464157044887542725e-02
1.317204162478446960e-02
7.903224974870681763e-02
8.781361579895019531e-02
-3.951612487435340881e-02
-8.342293649911880493e-02
4.829748719930648804e-02
1.405017822980880737e-01
1.009856536984443665e-01
-5.268816649913787842e-02
9.220429509878158569e-02
-1.229390576481819153e-01
1.800179034471511841e-01
-9.220429509878158569e-02
1.580644994974136353e-01
2.019713073968887329e-01
1.712365448474884033e-01
7.903224974870681763e-02
4.390680789947509766e-02
7.464157044887542725e-02
1.536738276481628418e-01
-4.390680789947509766e-02
-1.317204162478446960e-02
-7.025089114904403687e-02
1.756272278726100922e-02
5.268816649913787842e-02
-1.887992769479751587e-01
-1.229390576481819153e-01
1.975806355476379395e-01
-1.053763329982757568e-01
5.268816649913787842e-02
4.390680789947509766e-02
1.756272278726100922e-02
-2.634408324956893921e-02
1.624551862478256226e-01
-1.141576990485191345e-01
2.195340394973754883e-02
1.097670197486877441e-01
7.903224974870681763e-02
-2.063619941473007202e-01
-1.317204162478446960e-02
2.063619941473007202e-01
-1.097670197486877441e-01
6.586021184921264648e-02
7.025089114904403687e-02
-2.634408324956893921e-02
7.903224974870681763e-02
-2.195340394973754883e-02
-9.659497439861297607e-02
-9.659497439861297607e-02
1.053763329982757568e-01
-4.829748719930648804e-02
7.025089114904403687e-02
-1.405017822980880737e-01
-8.781361579895019531e-02
-4.829748719930648804e-02
8.342293649911880493e-02
-1.361110955476760864e-01
1.185483783483505249e-01
-6.146952882409095764e-02
-4.390680789947509766e-02
1.756272315979003906e-01
3.951612487435340881e-02
-2.195340394973754883e-02
6.586021184921264648e-02
8.781361393630504608e-03
1.712365448474884033e-01
6.586021184921264648e-02
-5.268816649913787842e-02
-9.659497439861297607e-02
-7.464157044887542725e-02
-5.707884952425956726e-02
5.268816649913787842e-02
4.390680789947509766e-02
-8.781361393630504608e-03
-3.512544557452201843e-02
8.781361393630504608e-03
-3.512544557452201843e-02
8.781361579895019531e-02
-1.756272278726100922e-02
2.195340394973754883e-02
-1.756272315979003906e-01
1.185483783483505249e-01
-9.220429509878158569e-02
-1.273297369480133057e-01
8.781361393630504608e-03
4.390680789947509766e-02
1.273297369480133057e-01
5.268816649913787842e-02
-5.707884952425956726e-02
3.073476441204547882e-02
7.025089114904403687e-02
6.146952882409095764e-02
1.756272315979003906e-01
-3.556451499462127686e-01
-1.185483783483505249e-01
-1.975806355476379395e-01
2.019713073968887329e-01
7.025089114904403687e-02
-6.146952882409095764e-02
-1.229390576481819153e-01
3.073476441204547882e-02
-2.458781152963638306e-01
1.975806355476379395e-01
-7.903224974870681763e-02
2.897849380970001221e-01
3.029569685459136963e-01
3.951612487435340881e-02
1.931899487972259521e-01
-3.117383420467376709e-01
-1.931899487972259521e-01
-6.586021184921264648e-02
-8.342293649911880493e-02
5.707884952425956726e-02
-6.586021184921264648e-02
0.000000000000000000e+00
1.053763329982757568e-01
3.512544557452201843e-02
8.342293649911880493e-02
-2.239247113466262817e-01
8.342293649911880493e-02
-1.317204236984252930e-01
-1.361110955476760864e-01
-9.220429509878158569e-02
1.141576990485191345e-01
-2.458781152963638306e-01
1.317204236984252930e-01
6.146952882409095764e-02
5.707884952425956726e-02
-2.327060699462890625e-01
8.781361393630504608e-03
2.239247113466262817e-01
2.151433527469635010e-01
-1.317204162478446960e-02
-1.273297369480133057e-01
-4.390680789947509766e-02
-4.829748719930648804e-02
3.512544557452201843e-02
-1.492831408977508545e-01
5.707884952425956726e-02
-7.025089114904403687e-02
6.146952882409095764e-02
1.844085901975631714e-01
2.634408324956893921e-02
-3.512544557452201843e-02
2.195340394973754883e-02
7.464157044887542725e-02
-3.512544557452201843e-02
1.141576990485191345e-01
-2.370967566967010498e-01
5.707884952425956726e-02
8.781361579895019531e-02
-2.810035645961761475e-01
2.985662817955017090e-01
4.390680696815252304e-03
1.317204162478446960e-02
1.712365448474884033e-01
-1.009856536984443665e-01
-6.586021184921264648e-02
-2.634408324956893921e-02
-1.273297369480133057e-01
1.273297369480133057e-01
-6.146952882409095764e-02
8.781361579895019531e-02
1.361110955476760864e-01
2.195340394973754883e-02
3.073476441204547882e-02
-1.887992769479751587e-01
-1.097670197486877441e-01
-1.273297369480133057e-01
-1.185483783483505249e-01
8.342293649911880493e-02
1.229390576481819153e-01
-3.073476441204547882e-02
-2.810035645961761475e-01
-4.390680789947509766e-02
-2.897849380970001221e-01
1.844085901975631714e-01
1.668458729982376099e-01
3.073476441204547882e-02
-2.458781152963638306e-01
-2.195340394973754883e-01
-1.317204162478446960e-02
-4.829748719930648804e-02
1.624551862478256226e-01
-1.756272278726100922e-02
-1.185483783483505249e-01
-3.161289989948272705e-01
-9.659497439861297607e-02
2.195340394973754883e-01
-8.781361579895019531e-02
1.492831408977508545e-01
7.464157044887542725e-02
7.903224974870681763e-02
9.220429509878158569e-02
-1.229390576481819153e-01
-1.053763329982757568e-01
-7.025089114904403687e-02
-1.097670197486877441e-01
-1.053763329982757568e-01
-1.536738276481628418e-01
-2.151433527469635010e-01
1.185483783483505249e-01
2.195340394973754883e-02
-6.146952882409095764e-02
-7.464157044887542725e-02
3.117383420467376709e-01
6.146952882409095764e-02
-8.781361579895019531e-02
1.097670197486877441e-01
2.414874434471130371e-01
7.464157044887542725e-02
-2.019713073968887329e-01
-7.025089114904403687e-02
6.586021184921264648e-02
-1.009856536984443665e-01
2.502687871456146240e-01
-2.941755950450897217e-01
-5.268816649913787842e-02
1.229390576481819153e-01
-1.317204162478446960e-02
-9.220429509878158569e-02
5.268816649913787842e-02
2.941755950450897217e-01
2.019713073968887329e-01
1.756272278726100922e-02
-1.844085901975631714e-01
7.025089114904403687e-02
9.220429509878158569e-02
8.781361393630504608e-03
1.405017822980880737e-01
-8.781361393630504608e-03
1.317204162478446960e-02
-8.781361393630504608e-03
4.829748719930648804e-02
-4.829748719930648804e-02
-5.707884952425956726e-02
1.492831408977508545e-01
-9.659497439861297607e-02
4.390680789947509766e-02
6.586021184921264648e-02
1.141576990485191345e-01
1.668458729982376099e-01
1.756272278726100922e-02
2.151433527469635010e-01
1.053763329982757568e-01
-6.146952882409095764e-02
-5.707884952425956726e-02
-3.951612487435340881e-02
9.220429509878158569e-02
-3.073476441204547882e-02
2.151433527469635010e-01
1.931899487972259521e-01
9.659497439861297607e-02
2.239247113466262817e-01
6.586021184921264648e-02
2.195340394973754883e-02
-2.634408473968505859e-01
1.756272278726100922e-02
-3.512544557452201843e-02
-8.781361393630504608e-03
-4.390680696815252304e-03
-3.512544557452201843e-02
1.361110955476760864e-01
1.317204162478446960e-02
1.185483783483505249e-01
-1.975806355476379395e-01
-2.019713073968887329e-01
-1.492831408977508545e-01
1.317204162478446960e-02
9.220429509878158569e-02
2.414874434471130371e-01
3.073476441204547882e-02
1.448924690485000610e-01
4.390680696815252304e-03
-9.220429509878158569e-02
-1.756272278726100922e-02
1.317204162478446960e-02
2.283153980970382690e-01
5.707884952425956726e-02
2.195340394973754883e-02
-3.951612487435340881e-02
3.951612487435340881e-02
-3.951612487435340881e-02
-7.464157044887542725e-02
-1.492831408977508545e-01
1.053763329982757568e-01
1.361110955476760864e-01
-1.185483783483505249e-01
1.141576990485191345e-01
8.781361393630504608e-03
9.659497439861297607e-02
1.097670197486877441e-01
-5.707884952425956726e-02
4.390680696815252304e-03
1.975806355476379395e-01
-3.073476441204547882e-02
-8.781361579895019531e-02
-1.273297369480133057e-01
1.273297369480133057e-01
-2.634408473968505859e-01
2.678315341472625732e-01
-9.659497439861297607e-02
6.586021184921264648e-02
-1.317204162478446960e-02
-7.464157044887542725e-02
-8.342293649911880493e-02
-2.634408324956893921e-02
1.317204162478446960e-02
-3.512544557452201843e-02
0.000000000000000000e+00
1.887992769479751587e-01
9.220429509878158569e-02
9.220429509878158569e-02
-1.317204236984252930e-01
-1.405017822980880737e-01
-1.624551862478256226e-01
-1.317204236984252930e-01
1.053763329982757568e-01
-8.342293649911880493e-02
6.586021184921264648e-02
1.185483783483505249e-01
-1.361110955476760864e-01
-7.025089114904403687e-02
4.829748719930648804e-02
-6.586021184921264648e-02
1.185483783483505249e-01
-1.800179034471511841e-01
-9.220429509878158569e-02
-2.634408324956893921e-02
-1.009856536984443665e-01
-2.019713073968887329e-01
6.586021184921264648e-02
-5.268816649913787842e-02
9.659497439861297607e-02
1.229390576481819153e-01
-1.097670197486877441e-01
1.141576990485191345e-01
2.063619941473007202e-01
1.009856536984443665e-01
-1.756272315979003906e-01
1.448924690485000610e-01
1.317204236984252930e-01
-1.141576990485191345e-01
2.634408324956893921e-02
1.097670197486877441e-01
-1.405017822980880737e-01
-1.185483783483505249e-01
8.781361393630504608e-03
-5.707884952425956726e-02
-1.492831408977508545e-01
1.448924690485000610e-01
2.063619941473007202e-01
7.903224974870681763e-02
-1.405017822980880737e-01
-1.229390576481819153e-01
-1.756272278726100922e-02
-1.492831408977508545e-01
7.903224974870681763e-02
-7.025089114904403687e-02
-8.781361393630504608e-03
8.781361579895019531e-02
1.229390576481819153e-01
1.141576990485191345e-01
1.009856536984443665e-01
3.073476441204547882e-02
-8.781361393630504608e-03
-6.146952882409095764e-02
-9.659497439861297607e-02
7.464157044887542725e-02
3.073476441204547882e-02
-4.390680789947509766e-02
-9.220429509878158569e-02
-3.512544557452201843e-02
1.931899487972259521e-01
2.634408324956893921e-02
-2.502687871456146240e-01
8.781361579895019531e-02
1.317204162478446960e-02
-1.317204162478446960e-02
6.586021184921264648e-02
-1.317204236984252930e-01
8.342293649911880493e-02
1.536738276481628418e-01
8.342293649911880493e-02
-4.390680789947509766e-02
4.829748719930648804e-02
-3.512544557452201843e-02
2.634408324956893921e-02
-8.781361393630504608e-03
-2.151433527469635010e-01
-1.712365448474884033e-01
-1.317204236984252930e-01
1.536738276481628418e-01
-1.756272278726100922e-02
6.146952882409095764e-02
8.342293649911880493e-02
1.536738276481628418e-01
-5.707884952425956726e-02
1.844085901975631714e-01
8.781361579895019531e-02
-7.464157044887542725e-02
-8.342293649911880493e-02
-1.053763329982757568e-01
1.844085901975631714e-01
-3.951612487435340881e-02
-1.317204236984252930e-01
8.781361393630504608e-03
-8.781361393630504608e-03
2.853942513465881348e-01
1.361110955476760864e-01
2.414874434471130371e-01
1.448924690485000610e-01
-5.268816649913787842e-02
9.220429509878158569e-02
1.844085901975631714e-01
1.229390576481819153e-01
2.195340394973754883e-02
-4.390680789947509766e-02
-1.317204162478446960e-02
3.512544557452201843e-02
7.464157044887542725e-02
-1.361110955476760864e-01
1.536738276481628418e-01
-1.756272278726100922e-02
1.053763329982757568e-01
8.781361393630504608e-03
5.707884952425956726e-02
-1.492831408977508545e-01
8.342293649911880493e-02
-1.405017822980880737e-01
1.009856536984443665e-01
1.053763329982757568e-01
2.634408324956893921e-02
1.317204162478446960e-02
3.512544557452201843e-02
-5.707884952425956726e-02
1.229390576481819153e-01
-3.073476441204547882e-02
5.268816649913787842e-02
8.342293649911880493e-02
-1.141576990485191345e-01
1.712365448474884033e-01
-3.512544557452201843e-02
-1.887992769479751587e-01
-1.536738276481628418e-01
8.342293649911880493e-02
2.195340394973754883e-02
1.009856536984443665e-01
2.327060699462890625e-01
3.073476441204547882e-02
1.009856536984443665e-01
-1.317204162478446960e-02
2.107526659965515137e-01
-1.009856536984443665e-01
-1.317204236984252930e-01
-2.195340394973754883e-02
-1.756272278726100922e-02
1.009856536984443665e-01
-5.707884952425956726e-02
9.220429509878158569e-02
-5.268816649913787842e-02
2.019713073968887329e-01
-2.019713073968887329e-01
-4.390680789947509766e-02
8.781361393630504608e-03
-3.073476441204547882e-02
-1.053763329982757568e-01
-1.624551862478256226e-01
-1.097670197486877441e-01
4.829748719930648804e-02
-2.458781152963638306e-01
6.586021184921264648e-02
6.146952882409095764e-02
7.464157044887542725e-02
-1.448924690485000610e-01
4.390680789947509766e-02
8.781361579895019531e-02
3.951612487435340881e-02
-2.634408324956893921e-02
-3.512544557452201843e-02
6.146952882409095764e-02
-8.342293649911880493e-02
6.146952882409095764e-02
6.146952882409095764e-02
-3.073476441204547882e-02
5.707884952425956726e-02
-1.756272278726100922e-02
1.536738276481628418e-01
-4.829748719930648804e-02
-1.009856536984443665e-01
-6.146952882409095764e-02
-8.781361393630504608e-03
-1.405017822980880737e-01
6.146952882409095764e-02
1.756272278726100922e-02
-6.146952882409095764e-02
3.512544557452201843e-02
-1.141576990485191345e-01
-5.268816649913787842e-02
1.141576990485191345e-01
-8.342293649911880493e-02
3.951612487435340881e-02
1.756272278726100922e-02
8.781361579895019531e-02
-8.342293649911880493e-02
2.107526659965515137e-01
2.634408324956893921e-02
2.195340394973754883e-01
1.317204162478446960e-02
4.390680696815252304e-03
-3.512544557452201843e-02
7.025089114904403687e-02
-1.405017822980880737e-01
-1.317204162478446960e-02
5.268816649913787842e-02
7.464157044887542725e-02
-2.195340394973754883e-02
-3.951612487435340881e-02
1.712365448474884033e-01
1.756272278726100922e-02
1.492831408977508545e-01
-9.659497439861297607e-02
2.634408324956893921e-02
3.951612487435340881e-02
6.586021184921264648e-02
-7.903224974870681763e-02
7.025089114904403687e-02
1.800179034471511841e-01
1.405017822980880737e-01
-1.492831408977508545e-01
8.781361393630504608e-03
-2.195340394973754883e-02
-1.317204236984252930e-01
7.025089114904403687e-02
-1.097670197486877441e-01
-1.361110955476760864e-01
8.781361579895019531e-02
-1.009856536984443665e-01
-1.975806355476379395e-01
5.707884952425956726e-02
-1.273297369480133057e-01
-1.141576990485191345e-01
-1.668458729982376099e-01
1.141576990485191345e-01
-7.903224974870681763e-02
-1.756272278726100922e-02
-4.390680789947509766e-02
-9.659497439861297607e-02
-8.781361393630504608e-03
-2.195340394973754883e-02
1.097670197486877441e-01
1.009856536984443665e-01
-3.512544557452201843e-02
1.317204162478446960e-02
-6.146952882409095764e-02
-1.097670197486877441e-01
-9.659497439861297607e-02
9.659497439861297607e-02
-9.220429509878158569e-02
-9.659497439861297607e-02
6.146952882409095764e-02
4.390680696815252304e-03
8.781361393630504608e-03
-5.268816649913787842e-02
1.141576990485191345e-01
7.903224974870681763e-02
6.146952882409095764e-02
-9.659497439861297607e-02
-7.025089114904403687e-02
7.025089114904403687e-02
-4.390680789947509766e-02
2.195340394973754883e-02
1.317204162478446960e-02
4.390680696815252304e-03
-1.097670197486877441e-01
-1.185483783483505249e-01
2.634408324956893921e-02
1.185483783483505249e-01
7.903224974870681763e-02
1.756272278726100922e-02
-9.220429509878158569e-02
-2.107526659965515137e-01
2.195340394973754883e-02
5.707884952425956726e-02
-4.829748719930648804e-02
1.097670197486877441e-01
-1.492831408977508545e-01
4.390680789947509766e-02
-8.781361579895019531e-02
1.712365448474884033e-01
3.512544557452201843e-02
-7.464157044887542725e-02
5.268816649913787842e-02
3.073476441204547882e-02
1.624551862478256226e-01
-8.781361579895019531e-02
-1.053763329982757568e-01
3.512544557452201843e-02
-1.492831408977508545e-01
-8.781361579895019531e-02
-1.668458729982376099e-01
-1.009856536984443665e-01
-1.185483783483505249e-01
2.195340394973754883e-01
-1.405017822980880737e-01
-4.390680696815252304e-03
-9.659497439861297607e-02
1.536738276481628418e-01
-1.756272315979003906e-01
3.512544557452201843e-02
1.053763329982757568e-01
8.342293649911880493e-02
1.536738276481628418e-01
8.342293649911880493e-02
-1.624551862478256226e-01
-9.220429509878158569e-02
1.185483783483505249e-01
7.903224974870681763e-02
-3.073476441204547882e-02
-1.492831408977508545e-01
4.390680696815252304e-03
-2.063619941473007202e-01
4.829748719930648804e-02
-1.009856536984443665e-01
1.009856536984443665e-01
1.229390576481819153e-01
8.342293649911880493e-02
2.502687871456146240e-01
1.141576990485191345e-01
5.707884952425956726e-02
1.448924690485000610e-01
-6.146952882409095764e-02
4.390680696815252304e-03
-7.025089114904403687e-02
1.756272315979003906e-01
-7.464157044887542725e-02
-6.586021184921264648e-02
9.220429509878158569e-02
-2.195340394973754883e-02
2.634408324956893921e-02
1.097670197486877441e-01
-2.546594738960266113e-01
-2.414874434471130371e-01
1.975806355476379395e-01
-4.829748719930648804e-02
1.844085901975631714e-01
-1.580644994974136353e-01
-1.229390576481819153e-01
-6.586021184921264648e-02
-6.586021184921264648e-02
-5.268816649913787842e-02
-5.707884952425956726e-02
4.390680789947509766e-02
-2.195340394973754883e-02
6.146952882409095764e-02
3.951612487435340881e-02
1.712365448474884033e-01
-1.492831408977508545e-01
2.897849380970001221e-01
2.195340394973754883e-02
-6.146952882409095764e-02
9.659497439861297607e-02
-2.195340394973754883e-02
1.097670197486877441e-01
-1.448924690485000610e-01
-1.317204162478446960e-02
1.317204236984252930e-01
-9.220429509878158569e-02
3.073476441204547882e-02
3.951612487435340881e-02
-1.756272278726100922e-02
8.342293649911880493e-02
-4.390680696815252304e-03
4.390680789947509766e-02
3.951612487435340881e-02
4.829748719930648804e-02
1.097670197486877441e-01
1.975806355476379395e-01
1.756272278726100922e-02
-7.464157044887542725e-02
1.844085901975631714e-01
-8.342293649911880493e-02
-4.390680789947509766e-02
-5.268816649913787842e-02
-1.141576990485191345e-01
-1.712365448474884033e-01
9.659497439861297607e-02
1.273297369480133057e-01
-1.361110955476760864e-01
3.073476552963256836e-01
-2.590501606464385986e-01
-9.220429509878158569e-02
1.405017822980880737e-01
-1.405017822980880737e-01
-1.668458729982376099e-01
1.317204162478446960e-02
-7.903224974870681763e-02
2.634408324956893921e-02
1.448924690485000610e-01
-6.146952882409095764e-02
-5.268816649913787842e-02
-4.390680696815252304e-03
9.220429509878158569e-02
0.000000000000000000e+00
-2.634408324956893921e-02
1.317204236984252930e-01
-2.502687871456146240e-01
6.146952882409095764e-02
-1.756272315979003906e-01
-8.781361393630504608e-03
-1.009856536984443665e-01
-2.634408324956893921e-02
-7.464157044887542725e-02
-3.512544557452201843e-02
-1.317204162478446960e-02
8.781361579895019531e-02
8.342293649911880493e-02
1.009856536984443665e-01
0.000000000000000000e+00
1.668458729982376099e-01
-1.405017822980880737e-01
-1.712365448474884033e-01
3.951612487435340881e-02
-5.268816649913787842e-02
-1.756272315979003906e-01
7.025089114904403687e-02
-4.390680789947509766e-02
-4.829748719930648804e-02
-4.829748719930648804e-02
-8.781361393630504608e-03
-3.512544557452201843e-02
-2.195340394973754883e-01
3.951612487435340881e-02
-1.448924690485000610e-01
-9.659497439861297607e-02
1.229390576481819153e-01
-7.903224974870681763e-02
1.492831408977508545e-01
3.512544631958007812e-01
-2.634408324956893921e-02
-9.659497439861297607e-02
1.492831408977508545e-01
2.634408324956893921e-02
1.097670197486877441e-01
1.887992769479751587e-01
1.317204162478446960e-02
-1.053763329982757568e-01
-8.781361393630504608e-03
9.659497439861297607e-02
-1.975806355476379395e-01
2.283153980970382690e-01
-1.712365448474884033e-01
2.546594738960266113e-01
1.844085901975631714e-01
8.342293649911880493e-02
-7.464157044887542725e-02
1.756272278726100922e-02
3.117383420467376709e-01
-5.707884952425956726e-02
8.781361393630504608e-03
1.492831408977508545e-01
-1.756272278726100922e-02
7.464157044887542725e-02
2.634408324956893921e-02
5.707884952425956726e-02
-8.342293649911880493e-02
-1.097670197486877441e-01
6.586021184921264648e-02
-1.317204236984252930e-01
-2.546594738960266113e-01
-1.756272315979003906e-01
2.063619941473007202e-01
-1.317204162478446960e-02
8.781361393630504608e-03
-1.975806355476379395e-01
-7.025089114904403687e-02
7.025089114904403687e-02
-4.390680696815252304e-03
-1.229390576481819153e-01
-4.390680789947509766e-02
-2.063619941473007202e-01
-5.268816649913787842e-02
8.781361393630504608e-03
-4.390680789947509766e-02
-5.268816649913787842e-02
-2.634408324956893921e-02
5.707884952425956726e-02
-1.668458729982376099e-01
-1.229390576481819153e-01
-5.707884952425956726e-02
-3.073476441204547882e-02
-1.141576990485191345e-01
-1.317204236984252930e-01
1.492831408977508545e-01
1.931899487972259521e-01
1.800179034471511841e-01
0.000000000000000000e+00
-9.659497439861297607e-02
-1.492831408977508545e-01
6.586021184921264648e-02
-8.342293649911880493e-02
9.659497439861297607e-02
-8.781361393630504608e-03
-2.634408324956893921e-02
1.624551862478256226e-01
-1.448924690485000610e-01
2.195340394973754883e-02
-1.273297369480133057e-01
-6.146952882409095764e-02
-1.185483783483505249e-01
-1.229390576481819153e-01
-1.185483783483505249e-01
4.390680789947509766e-02
1.185483783483505249e-01
7.025089114904403687e-02
1.141576990485191345e-01
