9.471621364355087280e-02
-2.773832082748413086e-01
-5.818281769752502441e-01
-2.706177532672882080e-02
-1.014816612005233765e-01
1.894324272871017456e-01
0.000000000000000000e+00
-1.150125414133071899e-01
-1.623706519603729248e-01
-3.991611897945404053e-01
-2.909140884876251221e-01
6.021245121955871582e-01
-9.471621364355087280e-02
-3.518030643463134766e-01
1.894324272871017456e-01
-6.224208474159240723e-01
-6.765443831682205200e-02
7.441988587379455566e-02
8.795076608657836914e-02
3.247413039207458496e-01
-2.097287625074386597e-01
1.623706519603729248e-01
-8.118532598018646240e-02
9.471621364355087280e-02
-1.488397717475891113e-01
-2.706177532672882080e-01
5.277045965194702148e-01
-2.367905378341674805e-01
-2.164942026138305664e-01
-3.856303095817565918e-01
-2.367905378341674805e-01
-1.759015321731567383e-01
-3.112104237079620361e-01
3.382721915841102600e-02
6.088899448513984680e-02
-5.412355065345764160e-02
-4.262229502201080322e-01
-1.353088766336441040e-02
-3.315067589282989502e-01
6.765443831682205200e-03
2.909140884876251221e-01
-4.059266299009323120e-02
-4.059266299009323120e-02
1.623706519603729248e-01
-5.412355065345764160e-02
1.353088766336441040e-01
-2.097287625074386597e-01
1.285434365272521973e-01
2.029633149504661560e-02
1.082471013069152832e-01
1.623706519603729248e-01
-8.795076608657836914e-02
2.909140884876251221e-01
-1.691360920667648315e-01
1.014816612005233765e-01
-1.488397717475891113e-01
3.247413039207458496e-01
-1.353088766336441040e-01
-1.082471013069152832e-01
-2.706177532672882080e-01
-4.059266299009323120e-02
7.441988587379455566e-02
-1.014816612005233765e-01
-2.232596427202224731e-01
-3.247413039207458496e-01
-2.503214180469512939e-01
-1.150125414133071899e-01
-1.150125414133071899e-01
-6.765443831682205200e-03
0.000000000000000000e+00
3.382721915841102600e-02
-1.961978673934936523e-01
-4.735810682177543640e-02
-3.382721915841102600e-02
2.706177532672882080e-02
-3.382721915841102600e-02
1.082471013069152832e-01
-3.585685193538665771e-01
2.164942026138305664e-01
1.894324272871017456e-01
-1.556052118539810181e-01
-1.623706519603729248e-01
1.014816612005233765e-01
-1.488397717475891113e-01
-2.097287625074386597e-01
1.217779889702796936e-01
-1.623706519603729248e-01
-1.691360920667648315e-01
3.720993995666503906e-01
1.014816612005233765e-01
1.353088766336441040e-01
-4.735810682177543640e-02
1.217779889702796936e-01
1.285434365272521973e-01
2.097287625074386597e-01
2.097287625074386597e-01
1.014816612005233765e-01
-3.788648545742034912e-01
2.164942026138305664e-01
-4.059266299009323120e-02
-1.150125414133071899e-01
-1.014816612005233765e-01
3.315067589282989502e-01
2.164942026138305664e-01
3.382721841335296631e-01
4.329884052276611328e-01
-3.923957347869873047e-01
8.795076608657836914e-02
2.503214180469512939e-01
-2.300250828266143799e-01
-2.029633149504661560e-02
-1.353088766336441040e-02
-6.765443831682205200e-03
1.353088766336441040e-02
4.735810682177543640e-02
6.088899448513984680e-02
-2.503214180469512939e-01
9.471621364355087280e-02
2.029633149504661560e-02
1.150125414133071899e-01
-1.623706519603729248e-01
-1.826669871807098389e-01
-8.118532598018646240e-02
-1.217779889702796936e-01
0.000000000000000000e+00
5.412355065345764160e-02
4.059266299009323120e-02
1.285434365272521973e-01
2.706177532672882080e-01
1.353088766336441040e-02
2.706177532672882080e-02
8.118532598018646240e-02
-6.765443831682205200e-02
1.014816612005233765e-01
2.029633224010467529e-01
3.653339743614196777e-01
-2.570868730545043945e-01
-1.150125414133071899e-01
-1.420743167400360107e-01
-4.532847404479980469e-01
1.217779889702796936e-01
4.735810682177543640e-02
-6.088899448513984680e-02
3.720993995666503906e-01
-2.097287625074386597e-01
-2.570868730545043945e-01
1.691360920667648315e-01
-1.353088766336441040e-02
-4.194575250148773193e-01
-7.441988587379455566e-02
2.773832082748413086e-01
2.300250828266143799e-01
2.706177532672882080e-02
1.217779889702796936e-01
-1.082471013069152832e-01
1.353088766336441040e-01
1.150125414133071899e-01
-1.353088766336441040e-01
3.382721915841102600e-02
-1.961978673934936523e-01
6.765443831682205200e-02
1.556052118539810181e-01
-2.029633224010467529e-01
-1.285434365272521973e-01
6.765443831682205200e-02
1.353088766336441040e-02
-9.471621364355087280e-02
-2.029633149504661560e-02
9.471621364355087280e-02
-3.179758489131927490e-01
4.735810682177543640e-02
-2.706177532672882080e-02
-3.518030643463134766e-01
-1.826669871807098389e-01
-3.179758489131927490e-01
2.367905378341674805e-01
1.623706519603729248e-01
3.856303095817565918e-01
1.420743167400360107e-01
-3.315067589282989502e-01
3.315067589282989502e-01
2.097287625074386597e-01
1.285434365272521973e-01
-1.353088766336441040e-02
-2.367905378341674805e-01
1.353088766336441040e-01
2.841486334800720215e-01
-6.088899448513984680e-02
2.029633149504661560e-02
1.691360920667648315e-01
4.803465008735656738e-01
-1.759015321731567383e-01
4.735810682177543640e-02
0.000000000000000000e+00
-2.570868730545043945e-01
6.765443831682205200e-03
-8.118532598018646240e-02
2.029633149504661560e-02
1.556052118539810181e-01
-1.353088766336441040e-02
1.623706519603729248e-01
8.795076608657836914e-02
3.382721841335296631e-01
-6.088899448513984680e-02
1.082471013069152832e-01
-5.412355065345764160e-02
-6.765443831682205200e-03
-1.285434365272521973e-01
-1.353088766336441040e-01
1.894324272871017456e-01
1.217779889702796936e-01
-1.488397717475891113e-01
-2.164942026138305664e-01
2.435559779405593872e-01
1.759015321731567383e-01
-2.706177532672882080e-01
4.059266299009323120e-02
4.735810682177543640e-02
-1.217779889702796936e-01
-2.097287625074386597e-01
1.623706519603729248e-01
-2.164942026138305664e-01
1.759015321731567383e-01
-9.471621364355087280e-02
1.420743167400360107e-01
-1.353088766336441040e-02
2.232596427202224731e-01
-1.488397717475891113e-01
-6.088899448513984680e-02
1.353088766336441040e-02
-2.841486334800720215e-01
6.765443831682205200e-02
-2.300250828266143799e-01
-4.059266299009323120e-02
1.623706519603729248e-01
-3.315067589282989502e-01
1.420743167400360107e-01
-5.412355065345764160e-02
1.488397717475891113e-01
2.300250828266143799e-01
-1.150125414133071899e-01
-1.082471013069152832e-01
1.556052118539810181e-01
-2.976795434951782227e-01
3.315067589282989502e-01
9.471621364355087280e-02
7.441988587379455566e-02
-1.420743167400360107e-01
1.420743167400360107e-01
1.556052118539810181e-01
4.735810682177543640e-02
2.706177532672882080e-02
2.029633149504661560e-02
1.961978673934936523e-01
1.353088766336441040e-01
-3.112104237079620361e-01
1.353088766336441040e-01
-3.450376391410827637e-01
1.556052118539810181e-01
-2.706177532672882080e-02
-7.441988587379455566e-02
9.471621364355087280e-02
1.014816612005233765e-01
-3.382721915841102600e-02
-1.014816612005233765e-01
3.315067589282989502e-01
-2.029633149504661560e-02
-8.795076608657836914e-02
1.759015321731567383e-01
-3.923957347869873047e-01
-7.441988587379455566e-02
2.706177532672882080e-01
1.285434365272521973e-01
-3.112104237079620361e-01
-2.097287625074386597e-01
-1.961978673934936523e-01
-1.488397717475891113e-01
-1.488397717475891113e-01
2.164942026138305664e-01
1.691360920667648315e-01
-2.570868730545043945e-01
-5.412355065345764160e-02
-4.194575250148773193e-01
3.382721915841102600e-02
3.788648545742034912e-01
6.765443831682205200e-02
-1.691360920667648315e-01
9.471621364355087280e-02
-6.765443831682205200e-02
2.232596427202224731e-01
-1.961978673934936523e-01
-1.894324272871017456e-01
-1.961978673934936523e-01
-3.653339743614196777e-01
1.353088766336441040e-01
-8.118532598018646240e-02
-6.088899448513984680e-02
-6.765443831682205200e-03
-8.795076608657836914e-02
-1.217779889702796936e-01
-3.112104237079620361e-01
-4.532847404479980469e-01
5.412355065345764160e-02
-1.826669871807098389e-01
4.735810682177543640e-02
5.412355065345764160e-02
6.765443831682205200e-03
1.082471013069152832e-01
-2.164942026138305664e-01
-1.420743167400360107e-01
2.706177532672882080e-02
1.894324272871017456e-01
-1.285434365272521973e-01
-1.014816612005233765e-01
-2.435559779405593872e-01
0.000000000000000000e+00
-6.765443831682205200e-02
-6.088899448513984680e-02
7.441988587379455566e-02
-1.353088766336441040e-02
-2.097287625074386597e-01
1.894324272871017456e-01
5.615318417549133301e-01
6.021245121955871582e-01
-1.014816612005233765e-01
1.353088766336441040e-02
1.961978673934936523e-01
2.638522982597351074e-01
1.014816612005233765e-01
4.059266299009323120e-02
-1.556052118539810181e-01
3.179758489131927490e-01
3.518030643463134766e-01
8.795076608657836914e-02
-1.488397717475891113e-01
2.232596427202224731e-01
3.179758489131927490e-01
-2.570868730545043945e-01
-7.441988587379455566e-02
-8.795076608657836914e-02
-2.097287625074386597e-01
-1.691360920667648315e-01
-1.150125414133071899e-01
2.706177532672882080e-02
-2.638522982597351074e-01
4.735810682177543640e-02
-2.029633149504661560e-02
-2.909140884876251221e-01
6.765443831682205200e-03
-2.367905378341674805e-01
3.112104237079620361e-01
-4.735810682177543640e-02
-6.088899448513984680e-02
-1.285434365272521973e-01
-2.773832082748413086e-01
1.556052118539810181e-01
1.420743167400360107e-01
-2.097287625074386597e-01
2.706177532672882080e-02
3.856303095817565918e-01
-8.118532598018646240e-02
1.082471013069152832e-01
-5.412355065345764160e-02
-7.441988587379455566e-02
5.615318417549133301e-01
-4.532847404479980469e-01
1.894324272871017456e-01
1.217779889702796936e-01
1.826669871807098389e-01
-4.059266448020935059e-01
-2.097287625074386597e-01
1.691360920667648315e-01
-1.285434365272521973e-01
0.000000000000000000e+00
4.329884052276611328e-01
-2.706177532672882080e-01
-2.232596427202224731e-01
-6.021245121955871582e-01
1.353088766336441040e-01
6.765443831682205200e-03
0.000000000000000000e+00
-1.353088766336441040e-01
-2.435559779405593872e-01
-1.488397717475891113e-01
1.759015321731567383e-01
1.353088766336441040e-01
-4.059266299009323120e-02
5.412355065345764160e-02
-4.059266299009323120e-02
3.382721915841102600e-02
6.765443831682205200e-03
-1.353088766336441040e-01
6.088899448513984680e-02
-5.412355065345764160e-02
1.353088766336441040e-01
2.435559779405593872e-01
1.285434365272521973e-01
4.059266299009323120e-02
-1.691360920667648315e-01
2.570868730545043945e-01
-9.471621364355087280e-02
-1.285434365272521973e-01
-7.441988587379455566e-02
-8.795076608657836914e-02
1.894324272871017456e-01
-4.735810682177543640e-02
-2.097287625074386597e-01
-9.471621364355087280e-02
-2.164942026138305664e-01
-8.118532598018646240e-02
4.735810682177543640e-02
1.353088766336441040e-01
-2.773832082748413086e-01
0.000000000000000000e+00
9.471621364355087280e-02
6.765443831682205200e-03
3.585685193538665771e-01
-1.285434365272521973e-01
-6.088899448513984680e-02
-2.841486334800720215e-01
-8.795076608657836914e-02
1.420743167400360107e-01
3.382721915841102600e-02
-1.556052118539810181e-01
1.556052118539810181e-01
1.217779889702796936e-01
4.735810682177543640e-02
1.556052118539810181e-01
-3.382721915841102600e-02
3.653339743614196777e-01
-1.691360920667648315e-01
7.441988587379455566e-02
-2.300250828266143799e-01
2.503214180469512939e-01
-4.059266299009323120e-02
1.353088766336441040e-01
-2.029633224010467529e-01
2.029633224010467529e-01
1.759015321731567383e-01
-1.353088766336441040e-01
2.164942026138305664e-01
-1.082471013069152832e-01
-2.029633149504661560e-02
-1.488397717475891113e-01
-3.382721841335296631e-01
2.029633149504661560e-02
-1.353088766336441040e-02
-9.471621364355087280e-02
1.150125414133071899e-01
-1.217779889702796936e-01
-4.735810682177543640e-02
-9.471621364355087280e-02
-3.044449687004089355e-01
6.765443831682205200e-02
3.247413039207458496e-01
4.735810682177543640e-02
1.826669871807098389e-01
3.518030643463134766e-01
2.773832082748413086e-01
2.706177532672882080e-02
3.179758489131927490e-01
-4.329884052276611328e-01
1.217779889702796936e-01
2.841486334800720215e-01
1.826669871807098389e-01
6.088899448513984680e-02
1.082471013069152832e-01
0.000000000000000000e+00
2.300250828266143799e-01
6.765443831682205200e-03
-6.088899448513984680e-02
2.841486334800720215e-01
-2.706177532672882080e-02
1.014816612005233765e-01
-3.518030643463134766e-01
-2.367905378341674805e-01
1.420743167400360107e-01
1.894324272871017456e-01
-2.570868730545043945e-01
1.826669871807098389e-01
1.285434365272521973e-01
-1.014816612005233765e-01
2.164942026138305664e-01
7.441988587379455566e-02
-2.029633149504661560e-02
-2.706177532672882080e-01
3.585685193538665771e-01
6.765443831682205200e-03
1.894324272871017456e-01
-1.894324272871017456e-01
-1.353088766336441040e-02
1.691360920667648315e-01
8.118532598018646240e-02
-3.382721841335296631e-01
4.059266299009323120e-02
-2.029633224010467529e-01
-2.029633149504661560e-02
2.029633224010467529e-01
-1.353088766336441040e-01
-6.765443831682205200e-03
1.556052118539810181e-01
-6.765443831682205200e-03
8.118532598018646240e-02
4.735810682177543640e-02
-2.706177532672882080e-02
-1.488397717475891113e-01
1.488397717475891113e-01
-3.315067589282989502e-01
-2.029633149504661560e-02
1.488397717475891113e-01
3.653339743614196777e-01
-3.788648545742034912e-01
-2.435559779405593872e-01
-1.623706519603729248e-01
2.706177532672882080e-02
3.315067589282989502e-01
-1.961978673934936523e-01
-1.759015321731567383e-01
2.706177532672882080e-02
-6.088899448513984680e-02
-1.082471013069152832e-01
-1.826669871807098389e-01
0.000000000000000000e+00
1.353088766336441040e-01
-1.691360920667648315e-01
-2.029633149504661560e-02
1.082471013069152832e-01
-6.765443831682205200e-02
-2.435559779405593872e-01
-2.097287625074386597e-01
1.759015321731567383e-01
-3.315067589282989502e-01
1.217779889702796936e-01
-2.570868730545043945e-01
-4.735810682177543640e-02
-3.991611897945404053e-01
-1.285434365272521973e-01
-3.315067589282989502e-01
-1.826669871807098389e-01
-1.826669871807098389e-01
1.353088766336441040e-01
-1.150125414133071899e-01
1.285434365272521973e-01
-2.367905378341674805e-01
-1.961978673934936523e-01
1.217779889702796936e-01
2.706177532672882080e-01
1.285434365272521973e-01
-1.826669871807098389e-01
-1.488397717475891113e-01
-2.706177532672882080e-01
1.420743167400360107e-01
1.488397717475891113e-01
2.029633149504661560e-02
-1.623706519603729248e-01
2.638522982597351074e-01
1.353088766336441040e-02
-3.044449687004089355e-01
-2.706177532672882080e-02
1.556052118539810181e-01
-2.706177532672882080e-01
7.441988587379455566e-02
2.367905378341674805e-01
8.795076608657836914e-02
2.706177532672882080e-02
-3.382721915841102600e-02
6.765443831682205200e-02
-6.088899448513984680e-02
-2.706177532672882080e-02
1.691360920667648315e-01
-1.082471013069152832e-01
1.014816612005233765e-01
2.706177532672882080e-02
2.841486334800720215e-01
-2.638522982597351074e-01
-1.488397717475891113e-01
2.029633224010467529e-01
-5.412355065345764160e-02
-2.300250828266143799e-01
1.150125414133071899e-01
-1.353088766336441040e-01
-1.082471013069152832e-01
9.471621364355087280e-02
5.412355065345764160e-02
-2.097287625074386597e-01
-9.471621364355087280e-02
-2.503214180469512939e-01
-1.150125414133071899e-01
1.420743167400360107e-01
3.044449687004089355e-01
7.441988587379455566e-02
-1.217779889702796936e-01
-1.826669871807098389e-01
-1.420743167400360107e-01
1.961978673934936523e-01
-8.118532598018646240e-02
4.059266299009323120e-02
2.029633224010467529e-01
-1.353088766336441040e-01
6.088899448513984680e-02
-1.759015321731567383e-01
5.344700813293457031e-01
2.706177532672882080e-02
6.765443831682205200e-02
-4.059266299009323120e-02
-6.765443831682205200e-03
-1.082471013069152832e-01
-2.164942026138305664e-01
4.059266299009323120e-02
-4.059266299009323120e-02
-8.795076608657836914e-02
-1.488397717475891113e-01
1.488397717475891113e-01
1.556052118539810181e-01
-2.638522982597351074e-01
-2.367905378341674805e-01
-5.412355065345764160e-02
-2.435559779405593872e-01
-1.217779889702796936e-01
2.029633149504661560e-02
-6.765443831682205200e-02
9.471621364355087280e-02
7.441988587379455566e-02
-2.909140884876251221e-01
-2.706177532672882080e-01
-2.232596427202224731e-01
-9.471621364355087280e-02
-3.315067589282989502e-01
2.097287625074386597e-01
-1.082471013069152832e-01
0.000000000000000000e+00
-2.164942026138305664e-01
-1.894324272871017456e-01
-2.029633149504661560e-02
2.029633149504661560e-02
2.029633224010467529e-01
6.765443831682205200e-03
2.029633149504661560e-02
3.179758489131927490e-01
-2.097287625074386597e-01
1.082471013069152832e-01
1.691360920667648315e-01
-6.765443831682205200e-03
-5.412355065345764160e-02
2.706177532672882080e-02
9.471621364355087280e-02
-6.765443831682205200e-03
-1.082471013069152832e-01
-8.795076608657836914e-02
-2.300250828266143799e-01
-3.382721915841102600e-02
1.285434365272521973e-01
6.088899448513984680e-02
-1.082471013069152832e-01
3.179758489131927490e-01
-1.014816612005233765e-01
1.894324272871017456e-01
-8.795076608657836914e-02
-7.441988587379455566e-02
-6.765443831682205200e-03
1.691360920667648315e-01
-1.556052118539810181e-01
6.765443831682205200e-02
3.382721915841102600e-02
-3.382721915841102600e-02
8.795076608657836914e-02
1.556052118539810181e-01
7.441988587379455566e-02
-3.382721915841102600e-02
-6.088899448513984680e-02
4.059266299009323120e-02
2.029633149504661560e-02
2.029633149504661560e-02
0.000000000000000000e+00
-1.150125414133071899e-01
4.059266299009323120e-02
2.367905378341674805e-01
1.420743167400360107e-01
-2.029633149504661560e-02
2.638522982597351074e-01
-6.765443831682205200e-03
4.059266299009323120e-02
-3.450376391410827637e-01
0.000000000000000000e+00
6.765443831682205200e-03
1.961978673934936523e-01
3.382721915841102600e-02
4.059266299009323120e-02
-6.765443831682205200e-02
-1.014816612005233765e-01
-4.735810682177543640e-02
7.441988587379455566e-02
-2.909140884876251221e-01
1.420743167400360107e-01
-2.706177532672882080e-02
-6.765443831682205200e-03
4.126920700073242188e-01
1.623706519603729248e-01
1.353088766336441040e-02
-3.247413039207458496e-01
-9.471621364355087280e-02
-6.088899448513984680e-02
-1.150125414133071899e-01
-2.097287625074386597e-01
2.706177532672882080e-01
3.112104237079620361e-01
-1.556052118539810181e-01
-7.441988587379455566e-02
2.841486334800720215e-01
-2.097287625074386597e-01
9.471621364355087280e-02
-2.097287625074386597e-01
1.691360920667648315e-01
-1.217779889702796936e-01
2.570868730545043945e-01
-1.082471013069152832e-01
-3.112104237079620361e-01
-4.735810682177543640e-02
4.532847404479980469e-01
2.300250828266143799e-01
-1.353088766336441040e-01
3.788648545742034912e-01
2.029633149504661560e-02
-1.014816612005233765e-01
-2.300250828266143799e-01
-1.285434365272521973e-01
2.367905378341674805e-01
-2.706177532672882080e-02
1.488397717475891113e-01
-2.367905378341674805e-01
-1.961978673934936523e-01
-1.014816612005233765e-01
2.638522982597351074e-01
-6.088899448513984680e-02
1.556052118539810181e-01
1.014816612005233765e-01
-2.841486334800720215e-01
-2.706177532672882080e-01
1.150125414133071899e-01
1.826669871807098389e-01
9.471621364355087280e-02
1.217779889702796936e-01
3.518030643463134766e-01
2.570868730545043945e-01
-3.247413039207458496e-01
-1.691360920667648315e-01
3.450376391410827637e-01
-6.088899448513984680e-02
-3.382721915841102600e-02
-6.765443831682205200e-02
-4.735810682177543640e-02
-1.556052118539810181e-01
-9.471621364355087280e-02
-3.315067589282989502e-01
1.082471013069152832e-01
2.976795434951782227e-01
-2.029633149504661560e-02
0.000000000000000000e+00
2.841486334800720215e-01
-2.706177532672882080e-02
1.488397717475891113e-01
2.503214180469512939e-01
-1.894324272871017456e-01
-5.412355065345764160e-02
1.285434365272521973e-01
-2.029633149504661560e-02
-1.285434365272521973e-01
-3.315067589282989502e-01
-1.556052118539810181e-01
1.014816612005233765e-01
6.765443831682205200e-03
3.788648545742034912e-01
-1.420743167400360107e-01
-1.285434365272521973e-01
6.765443831682205200e-02
3.653339743614196777e-01
-1.691360920667648315e-01
-2.232596427202224731e-01
-2.367905378341674805e-01
-1.420743167400360107e-01
-2.097287625074386597e-01
-3.044449687004089355e-01
2.503214180469512939e-01
-1.285434365272521973e-01
1.014816612005233765e-01
2.164942026138305664e-01
1.014816612005233765e-01
1.623706519603729248e-01
3.112104237079620361e-01
6.765443831682205200e-02
-1.691360920667648315e-01
2.570868730545043945e-01
7.441988587379455566e-02
8.118532598018646240e-02
6.765443831682205200e-02
-3.450376391410827637e-01
-3.653339743614196777e-01
1.014816612005233765e-01
5.412355065345764160e-02
3.382721915841102600e-02
-9.471621364355087280e-02
-1.961978673934936523e-01
-2.706177532672882080e-02
6.765443831682205200e-03
-1.420743167400360107e-01
-2.706177532672882080e-02
2.435559779405593872e-01
2.300250828266143799e-01
1.691360920667648315e-01
2.638522982597351074e-01
2.029633149504661560e-02
-1.556052118539810181e-01
-8.795076608657836914e-02
-3.247413039207458496e-01
2.029633224010467529e-01
3.112104237079620361e-01
-2.841486334800720215e-01
3.382721841335296631e-01
-8.118532598018646240e-02
1.691360920667648315e-01
2.097287625074386597e-01
1.353088766336441040e-02
1.894324272871017456e-01
-3.044449687004089355e-01
-1.285434365272521973e-01
-2.706177532672882080e-01
1.082471013069152832e-01
1.285434365272521973e-01
-1.082471013069152832e-01
-6.088899448513984680e-02
9.471621364355087280e-02
1.759015321731567383e-01
1.759015321731567383e-01
-1.217779889702796936e-01
6.088899448513984680e-02
-8.118532598018646240e-02
1.353088766336441040e-01
6.765443831682205200e-02
-2.029633224010467529e-01
1.488397717475891113e-01
-1.826669871807098389e-01
-6.088899448513984680e-02
1.150125414133071899e-01
3.382721841335296631e-01
2.706177532672882080e-01
2.841486334800720215e-01
-1.150125414133071899e-01
-1.691360920667648315e-01
6.088899448513984680e-02
2.367905378341674805e-01
-1.420743167400360107e-01
-1.488397717475891113e-01
-2.097287625074386597e-01
-3.112104237079620361e-01
-1.353088766336441040e-01
-7.441988587379455566e-02
1.082471013069152832e-01
-1.556052118539810181e-01
4.532847404479980469e-01
1.150125414133071899e-01
-7.441988587379455566e-02
2.706177532672882080e-02
-4.600501656532287598e-01
-6.765443831682205200e-02
2.706177532672882080e-02
-1.961978673934936523e-01
-1.353088766336441040e-02
8.795076608657836914e-02
-2.706177532672882080e-02
-1.285434365272521973e-01
1.353088766336441040e-02
-4.532847404479980469e-01
3.382721915841102600e-02
-2.029633224010467529e-01
-3.450376391410827637e-01
9.471621364355087280e-02
3.382721915841102600e-02
1.961978673934936523e-01
-1.556052118539810181e-01
2.164942026138305664e-01
1.285434365272521973e-01
-2.638522982597351074e-01
1.691360920667648315e-01
3.112104237079620361e-01
-1.082471013069152832e-01
9.471621364355087280e-02
-2.841486334800720215e-01
-4.735810682177543640e-02
1.014816612005233765e-01
-4.735810682177543640e-02
-2.367905378341674805e-01
-3.788648545742034912e-01
-2.706177532672882080e-01
-3.653339743614196777e-01
-2.029633224010467529e-01
7.441988587379455566e-02
-4.059266299009323120e-02
6.088899448513984680e-02
-2.706177532672882080e-01
8.795076608657836914e-02
-2.976795434951782227e-01
1.826669871807098389e-01
1.556052118539810181e-01
-3.518030643463134766e-01
-4.059266299009323120e-02
4.735810682177543640e-02
1.082471013069152832e-01
-6.765443831682205200e-03
-2.638522982597351074e-01
1.285434365272521973e-01
-2.300250828266143799e-01
-3.923957347869873047e-01
-9.471621364355087280e-02
3.179758489131927490e-01
-1.353088766336441040e-01
-1.488397717475891113e-01
8.118532598018646240e-02
-2.909140884876251221e-01
-2.097287625074386597e-01
-1.556052118539810181e-01
7.441988587379455566e-02
-1.623706519603729248e-01
-1.014816612005233765e-01
1.894324272871017456e-01
8.795076608657836914e-02
-3.788648545742034912e-01
2.638522982597351074e-01
-1.353088766336441040e-02
2.367905378341674805e-01
1.759015321731567383e-01
2.029633149504661560e-02
-2.029633149504661560e-02
-1.353088766336441040e-02
6.088899448513984680e-02
-1.556052118539810181e-01
6.088899448513984680e-02
5.412355065345764160e-02
2.029633224010467529e-01
-6.765443831682205200e-02
-6.765443831682205200e-03
-1.488397717475891113e-01
-1.623706519603729248e-01
6.088899448513984680e-02
2.029633149504661560e-02
-1.488397717475891113e-01
-1.217779889702796936e-01
1.353088766336441040e-01
2.097287625074386597e-01
1.826669871807098389e-01
-1.420743167400360107e-01
1.285434365272521973e-01
2.029633149504661560e-02
7.441988587379455566e-02
6.765443831682205200e-03
-1.285434365272521973e-01
3.382721915841102600e-02
3.856303095817565918e-01
3.450376391410827637e-01
6.088899448513984680e-02
-2.638522982597351074e-01
0.000000000000000000e+00
-7.441988587379455566e-02
6.088899448513984680e-02
-2.232596427202224731e-01
-1.894324272871017456e-01
-1.353088766336441040e-01
1.353088766336441040e-02
1.150125414133071899e-01
5.412355065345764160e-02
2.300250828266143799e-01
6.088899448513984680e-02
-2.976795434951782227e-01
-1.150125414133071899e-01
3.585685193538665771e-01
-2.164942026138305664e-01
5.412355065345764160e-02
4.329884052276611328e-01
2.570868730545043945e-01
3.991611897945404053e-01
-2.638522982597351074e-01
-2.164942026138305664e-01
-7.441988587379455566e-02
-1.623706519603729248e-01
-1.353088766336441040e-02
-6.088899448513984680e-02
1.285434365272521973e-01
-6.765443831682205200e-02
-6.765443831682205200e-02
1.488397717475891113e-01
2.029633149504661560e-02
-1.691360920667648315e-01
1.353088766336441040e-01
2.570868730545043945e-01
8.118532598018646240e-02
1.353088766336441040e-01
-2.706177532672882080e-02
1.488397717475891113e-01
-8.118532598018646240e-02
3.044449687004089355e-01
4.735810682177543640e-02
-4.059266299009323120e-02
-1.353088766336441040e-02
-8.118532598018646240e-02
2.367905378341674805e-01
2.773832082748413086e-01
1.556052118539810181e-01
-2.706177532672882080e-01
1.623706519603729248e-01
1.353088766336441040e-02
5.547664165496826172e-01
4.735810682177543640e-02
1.353088766336441040e-01
1.420743167400360107e-01
-2.029633149504661560e-02
-8.118532598018646240e-02
1.420743167400360107e-01
1.623706519603729248e-01
3.382721915841102600e-02
-3.653339743614196777e-01
-1.488397717475891113e-01
-3.247413039207458496e-01
-1.285434365272521973e-01
8.795076608657836914e-02
-1.556052118539810181e-01
1.488397717475891113e-01
7.441988587379455566e-02
-1.961978673934936523e-01
6.765443831682205200e-03
-1.961978673934936523e-01
3.382721915841102600e-02
-1.623706519603729248e-01
-1.353088766336441040e-02
1.488397717475891113e-01
-3.382721915841102600e-02
-7.441988587379455566e-02
1.961978673934936523e-01
6.765443831682205200e-02
5.412355065345764160e-02
5.412355065345764160e-02
-2.367905378341674805e-01
-2.570868730545043945e-01
-2.300250828266143799e-01
-1.826669871807098389e-01
1.759015321731567383e-01
5.412355065345764160e-02
-4.871119558811187744e-01
-4.059266299009323120e-02
8.795076608657836914e-02
-3.788648545742034912e-01
-5.141737461090087891e-01
1.556052118539810181e-01
1.826669871807098389e-01
4.059266299009323120e-02
2.029633224010467529e-01
-1.217779889702796936e-01
2.029633149504661560e-02
-1.014816612005233765e-01
-8.795076608657836914e-02
7.441988587379455566e-02
-2.909140884876251221e-01
-3.382721915841102600e-02
-4.262229502201080322e-01
-2.706177532672882080e-01
1.488397717475891113e-01
5.412355065345764160e-02
-1.691360920667648315e-01
-2.435559779405593872e-01
-1.014816612005233765e-01
-3.382721915841102600e-02
8.118532598018646240e-02
-1.894324272871017456e-01
6.765443831682205200e-02
-3.450376391410827637e-01
3.247413039207458496e-01
3.112104237079620361e-01
-5.615318417549133301e-01
-2.029633224010467529e-01
1.488397717475891113e-01
-1.082471013069152832e-01
-6.765443831682205200e-03
2.773832082748413086e-01
-2.638522982597351074e-01
-5.277045965194702148e-01
1.353088766336441040e-01
-2.029633149504661560e-02
2.976795434951782227e-01
1.285434365272521973e-01
-2.435559779405593872e-01
1.285434365272521973e-01
6.765443831682205200e-02
-1.014816612005233765e-01
3.044449687004089355e-01
-1.894324272871017456e-01
1.420743167400360107e-01
-3.112104237079620361e-01
-6.765443831682205200e-03
3.179758489131927490e-01
-3.518030643463134766e-01
2.909140884876251221e-01
3.720993995666503906e-01
1.420743167400360107e-01
-8.795076608657836914e-02
7.441988587379455566e-02
-6.765443831682205200e-03
-2.300250828266143799e-01
1.150125414133071899e-01
-1.285434365272521973e-01
9.471621364355087280e-02
1.420743167400360107e-01
2.029633224010467529e-01
2.909140884876251221e-01
-4.059266448020935059e-01
8.118532598018646240e-02
-1.623706519603729248e-01
5.412355065345764160e-02
-3.044449687004089355e-01
-1.623706519603729248e-01
2.367905378341674805e-01
2.841486334800720215e-01
3.247413039207458496e-01
3.382721915841102600e-02
-1.082471013069152832e-01
4.059266299009323120e-02
-8.118532598018646240e-02
4.735810682177543640e-02
6.088899448513984680e-02
-1.691360920667648315e-01
2.570868730545043945e-01
4.059266448020935059e-01
9.471621364355087280e-02
1.556052118539810181e-01
1.217779889702796936e-01
9.471621364355087280e-02
5.412355065345764160e-02
2.503214180469512939e-01
1.556052118539810181e-01
1.488397717475891113e-01
6.765443831682205200e-02
-2.570868730545043945e-01
2.503214180469512939e-01
4.735810682177543640e-02
2.435559779405593872e-01
1.353088766336441040e-01
-1.488397717475891113e-01
-2.029633149504661560e-02
-3.382721841335296631e-01
1.826669871807098389e-01
-3.382721915841102600e-02
-5.412355065345764160e-02
1.150125414133071899e-01
2.232596427202224731e-01
5.412355065345764160e-02
-8.118532598018646240e-02
6.765443831682205200e-02
1.556052118539810181e-01
-2.706177532672882080e-02
-6.765443831682205200e-02
-6.088899448513984680e-02
2.300250828266143799e-01
-1.217779889702796936e-01
-1.623706519603729248e-01
2.367905378341674805e-01
1.420743167400360107e-01
-8.118532598018646240e-02
-8.795076608657836914e-02
1.217779889702796936e-01
2.029633224010467529e-01
-2.097287625074386597e-01
1.353088766336441040e-02
4.126920700073242188e-01
-2.706177532672882080e-02
1.556052118539810181e-01
-6.088899448513984680e-02
1.014816612005233765e-01
-2.029633224010467529e-01
-1.082471013069152832e-01
1.014816612005233765e-01
-1.353088766336441040e-02
1.826669871807098389e-01
-1.353088766336441040e-02
-5.412355065345764160e-02
-1.353088766336441040e-01
1.894324272871017456e-01
8.795076608657836914e-02
1.014816612005233765e-01
1.488397717475891113e-01
-5.412355065345764160e-02
2.706177532672882080e-02
-5.412355065345764160e-02
1.150125414133071899e-01
-3.382721915841102600e-02
-1.014816612005233765e-01
-8.118532598018646240e-02
-1.014816612005233765e-01
-1.150125414133071899e-01
-6.765443831682205200e-02
-1.353088766336441040e-02
1.082471013069152832e-01
1.285434365272521973e-01
-1.217779889702796936e-01
-2.706177532672882080e-02
-1.014816612005233765e-01
-8.118532598018646240e-02
5.412355065345764160e-02
9.471621364355087280e-02
-2.029633224010467529e-01
1.420743167400360107e-01
-1.488397717475891113e-01
-2.706177532672882080e-01
-8.118532598018646240e-02
1.894324272871017456e-01
1.759015321731567383e-01
9.471621364355087280e-02
-8.118532598018646240e-02
-2.503214180469512939e-01
1.623706519603729248e-01
-2.367905378341674805e-01
-1.894324272871017456e-01
2.638522982597351074e-01
2.503214180469512939e-01
2.164942026138305664e-01
6.088899448513984680e-02
1.691360920667648315e-01
6.765443831682205200e-03
1.353088766336441040e-02
-2.097287625074386597e-01
1.285434365272521973e-01
3.247413039207458496e-01
1.014816612005233765e-01
-2.706177532672882080e-02
1.826669871807098389e-01
3.044449687004089355e-01
1.556052118539810181e-01
-1.961978673934936523e-01
6.765443831682205200e-02
-4.397538602352142334e-01
1.353088766336441040e-02
-1.623706519603729248e-01
-3.382721841335296631e-01
-6.765443831682205200e-03
-2.706177532672882080e-01
-2.841486334800720215e-01
9.471621364355087280e-02
-6.765443831682205200e-03
1.014816612005233765e-01
1.217779889702796936e-01
2.029633149504661560e-02
1.623706519603729248e-01
-1.488397717475891113e-01
-4.668156206607818604e-01
-2.435559779405593872e-01
-1.759015321731567383e-01
2.706177532672882080e-02
-1.623706519603729248e-01
-5.412355065345764160e-02
-1.420743167400360107e-01
-1.488397717475891113e-01
3.112104237079620361e-01
-5.277045965194702148e-01
2.976795434951782227e-01
-2.503214180469512939e-01
2.706177532672882080e-01
1.556052118539810181e-01
-2.570868730545043945e-01
2.367905378341674805e-01
-2.164942026138305664e-01
-2.029633224010467529e-01
-9.471621364355087280e-02
-1.691360920667648315e-01
-6.765443831682205200e-02
8.795076608657836914e-02
-2.909140884876251221e-01
2.706177532672882080e-02
-2.232596427202224731e-01
-5.615318417549133301e-01
2.029633224010467529e-01
1.623706519603729248e-01
-2.367905378341674805e-01
-2.638522982597351074e-01
-1.150125414133071899e-01
2.570868730545043945e-01
-2.029633224010467529e-01
1.150125414133071899e-01
2.435559779405593872e-01
1.420743167400360107e-01
1.759015321731567383e-01
1.353088766336441040e-02
1.488397717475891113e-01
-1.353088766336441040e-02
-1.353088766336441040e-01
8.118532598018646240e-02
-1.488397717475891113e-01
1.285434365272521973e-01
1.488397717475891113e-01
-9.471621364355087280e-02
-6.765443831682205200e-03
-2.570868730545043945e-01
-1.285434365272521973e-01
-3.247413039207458496e-01
2.029633149504661560e-02
-3.382721915841102600e-02
-2.367905378341674805e-01
-3.518030643463134766e-01
-2.773832082748413086e-01
-2.773832082748413086e-01
-3.315067589282989502e-01
2.300250828266143799e-01
-3.788648545742034912e-01
1.353088766336441040e-02
5.412355065345764160e-02
-2.300250828266143799e-01
4.059266299009323120e-02
-2.029633149504661560e-02
-1.623706519603729248e-01
-9.471621364355087280e-02
-8.795076608657836914e-02
1.014816612005233765e-01
1.623706519603729248e-01
-4.735810682177543640e-02
3.382721915841102600e-02
-1.691360920667648315e-01
-2.706177532672882080e-02
-2.909140884876251221e-01
2.097287625074386597e-01
-3.112104237079620361e-01
-4.059266299009323120e-02
2.164942026138305664e-01
-1.217779889702796936e-01
8.118532598018646240e-02
4.600501656532287598e-01
-4.735810682177543640e-02
-8.795076608657836914e-02
1.082471013069152832e-01
1.961978673934936523e-01
-1.353088766336441040e-02
-2.503214180469512939e-01
-6.765443831682205200e-02
-3.247413039207458496e-01
-2.029633149504661560e-02
-2.232596427202224731e-01
-6.765443831682205200e-02
9.471621364355087280e-02
-8.795076608657836914e-02
1.623706519603729248e-01
3.720993995666503906e-01
2.232596427202224731e-01
7.441988587379455566e-02
7.441988587379455566e-02
-8.795076608657836914e-02
2.638522982597351074e-01
6.765443831682205200e-02
-2.976795434951782227e-01
-2.029633149504661560e-02
-2.503214180469512939e-01
6.765443831682205200e-03
-2.503214180469512939e-01
6.088899448513984680e-02
1.691360920667648315e-01
6.088899448513984680e-02
8.118532598018646240e-02
6.088899448513984680e-02
-9.471621364355087280e-02
1.217779889702796936e-01
-1.759015321731567383e-01
-1.894324272871017456e-01
2.706177532672882080e-02
-3.923957347869873047e-01
-6.765443831682205200e-03
-3.450376391410827637e-01
-3.044449687004089355e-01
-2.029633149504661560e-02
1.014816612005233765e-01
6.765443831682205200e-03
-1.217779889702796936e-01
1.623706519603729248e-01
-3.720993995666503906e-01
-1.961978673934936523e-01
-8.118532598018646240e-02
-1.691360920667648315e-01
-4.735810756683349609e-01
1.353088766336441040e-02
-3.518030643463134766e-01
3.382721915841102600e-02
-2.367905378341674805e-01
-8.795076608657836914e-02
-2.503214180469512939e-01
-2.570868730545043945e-01
1.014816612005233765e-01
-6.765443831682205200e-02
-6.765443831682205200e-02
2.503214180469512939e-01
-1.014816612005233765e-01
-3.518030643463134766e-01
-6.765443831682205200e-03
1.150125414133071899e-01
3.382721915841102600e-02
8.795076608657836914e-02
-3.044449687004089355e-01
-1.826669871807098389e-01
6.765443831682205200e-02
3.382721915841102600e-02
1.150125414133071899e-01
-4.059266299009323120e-02
-1.014816612005233765e-01
4.059266448020935059e-01
6.088899448513984680e-02
1.894324272871017456e-01
-7.441988587379455566e-02
7.441988587379455566e-02
1.894324272871017456e-01
-2.029633224010467529e-01
-8.118532598018646240e-02
6.088899448513984680e-02
-1.894324272871017456e-01
-1.353088766336441040e-01
3.382721915841102600e-02
-1.285434365272521973e-01
-2.706177532672882080e-02
-8.118532598018646240e-02
3.585685193538665771e-01
4.668156206607818604e-01
2.367905378341674805e-01
2.503214180469512939e-01
1.894324272871017456e-01
3.112104237079620361e-01
-8.795076608657836914e-02
5.412355065345764160e-02
2.570868730545043945e-01
-6.765443831682205200e-02
7.441988587379455566e-02
6.765443831682205200e-02
1.014816612005233765e-01
2.029633149504661560e-02
5.412355065345764160e-02
4.465192854404449463e-01
-2.097287625074386597e-01
-1.014816612005233765e-01
5.412355065345764160e-02
-2.706177532672882080e-02
-3.382721915841102600e-02
9.471621364355087280e-02
-1.961978673934936523e-01
-2.773832082748413086e-01
-3.044449687004089355e-01
3.179758489131927490e-01
2.435559779405593872e-01
2.029633149504661560e-02
3.044449687004089355e-01
-2.029633149504661560e-02
1.691360920667648315e-01
-3.044449687004089355e-01
1.285434365272521973e-01
-4.735810682177543640e-02
-1.014816612005233765e-01
3.315067589282989502e-01
1.691360920667648315e-01
-3.315067589282989502e-01
-1.353088766336441040e-01
-1.759015321731567383e-01
5.953590869903564453e-01
-1.691360920667648315e-01
6.088899448513984680e-02
-4.059266299009323120e-02
-4.735810682177543640e-02
1.285434365272521973e-01
-1.759015321731567383e-01
-1.353088766336441040e-02
-4.735810682177543640e-02
5.412355065345764160e-02
2.164942026138305664e-01
-4.735810682177543640e-02
3.382721915841102600e-02
6.765443831682205200e-03
-8.118532896041870117e-01
-2.097287625074386597e-01
-1.826669871807098389e-01
9.471621364355087280e-02
1.353088766336441040e-02
-4.059266299009323120e-02
-2.097287625074386597e-01
1.556052118539810181e-01
2.638522982597351074e-01
1.691360920667648315e-01
-4.059266448020935059e-01
-4.735810682177543640e-02
3.382721915841102600e-02
-8.795076608657836914e-02
-2.097287625074386597e-01
-8.795076608657836914e-02
1.285434365272521973e-01
-2.029633149504661560e-02
1.691360920667648315e-01
2.706177532672882080e-01
-8.795076608657836914e-02
1.759015321731567383e-01
-2.773832082748413086e-01
-2.029633149504661560e-02
1.217779889702796936e-01
-2.773832082748413086e-01
1.082471013069152832e-01
1.894324272871017456e-01
2.909140884876251221e-01
3.382721915841102600e-02
2.029633149504661560e-02
-1.285434365272521973e-01
-8.795076608657836914e-02
1.082471013069152832e-01
8.118532598018646240e-02
3.382721915841102600e-02
-3.788648545742034912e-01
-6.088899448513984680e-02
-3.179758489131927490e-01
6.088899448513984680e-02
-8.795076608657836914e-02
-1.285434365272521973e-01
-8.795076608657836914e-02
4.059266448020935059e-01
2.773832082748413086e-01
-2.164942026138305664e-01
-3.044449687004089355e-01
-7.441988587379455566e-02
-1.623706519603729248e-01
6.765443831682205200e-03
-1.623706519603729248e-01
6.765443831682205200e-03
0.000000000000000000e+00
-3.315067589282989502e-01
-1.759015321731567383e-01
8.118532598018646240e-02
-1.894324272871017456e-01
-3.044449687004089355e-01
2.570868730545043945e-01
2.029633224010467529e-01
-3.653339743614196777e-01
-8.118532598018646240e-02
1.556052118539810181e-01
1.150125414133071899e-01
1.353088766336441040e-01
-1.623706519603729248e-01
8.795076608657836914e-02
-1.894324272871017456e-01
-9.471621364355087280e-02
-6.765443831682205200e-02
-2.164942026138305664e-01
-8.118532598018646240e-02
7.441988587379455566e-02
-2.503214180469512939e-01
1.826669871807098389e-01
-4.059266299009323120e-02
-1.691360920667648315e-01
9.471621364355087280e-02
-1.826669871807098389e-01
4.059266299009323120e-02
1.691360920667648315e-01
1.285434365272521973e-01
1.150125414133071899e-01
-2.029633224010467529e-01
2.435559779405593872e-01
6.765443831682205200e-02
6.765443831682205200e-03
6.765443831682205200e-02
-4.059266299009323120e-02
-2.300250828266143799e-01
-1.285434365272521973e-01
-1.353088766336441040e-01
-2.232596427202224731e-01
2.097287625074386597e-01
-4.059266299009323120e-02
-9.471621364355087280e-02
-3.991611897945404053e-01
1.217779889702796936e-01
-1.961978673934936523e-01
-1.556052118539810181e-01
-1.420743167400360107e-01
-1.691360920667648315e-01
2.164942026138305664e-01
3.112104237079620361e-01
2.706177532672882080e-01
4.735810682177543640e-02
1.420743167400360107e-01
-1.623706519603729248e-01
-2.706177532672882080e-02
2.232596427202224731e-01
-1.082471013069152832e-01
2.164942026138305664e-01
-1.759015321731567383e-01
-2.300250828266143799e-01
1.150125414133071899e-01
3.112104237079620361e-01
3.788648545742034912e-01
-1.082471013069152832e-01
-2.232596427202224731e-01
1.623706519603729248e-01
-2.503214180469512939e-01
1.082471013069152832e-01
2.773832082748413086e-01
-2.435559779405593872e-01
1.759015321731567383e-01
-2.435559779405593872e-01
1.217779889702796936e-01
4.126920700073242188e-01
1.353088766336441040e-01
-1.488397717475891113e-01
2.841486334800720215e-01
-6.765443831682205200e-02
6.088899448513984680e-02
6.765443831682205200e-03
-1.082471013069152832e-01
1.759015321731567383e-01
1.420743167400360107e-01
1.961978673934936523e-01
-6.765443831682205200e-02
8.118532598018646240e-02
-2.706177532672882080e-02
1.285434365272521973e-01
1.488397717475891113e-01
-2.706177532672882080e-02
-1.082471013069152832e-01
3.382721915841102600e-02
1.285434365272521973e-01
-2.029633149504661560e-02
-2.503214180469512939e-01
-6.088899448513984680e-02
1.150125414133071899e-01
-2.435559779405593872e-01
-2.300250828266143799e-01
-1.420743167400360107e-01
1.353088766336441040e-01
2.706177532672882080e-02
1.623706519603729248e-01
-3.112104237079620361e-01
-1.353088766336441040e-02
7.441988587379455566e-02
2.706177532672882080e-02
-2.773832082748413086e-01
-2.097287625074386597e-01
2.029633149504661560e-02
8.795076608657836914e-02
1.014816612005233765e-01
7.441988587379455566e-02
-1.353088766336441040e-02
-6.765443831682205200e-02
4.735810682177543640e-02
-1.353088766336441040e-01
-2.029633224010467529e-01
1.420743167400360107e-01
-1.691360920667648315e-01
-3.382721915841102600e-02
-3.518030643463134766e-01
-2.029633149504661560e-02
-8.118532598018646240e-02
1.082471013069152832e-01
-2.029633224010467529e-01
1.285434365272521973e-01
2.706177532672882080e-02
1.285434365272521973e-01
2.367905378341674805e-01
-5.412355065345764160e-02
-1.961978673934936523e-01
1.759015321731567383e-01
1.623706519603729248e-01
-2.976795434951782227e-01
-6.765443831682205200e-02
9.471621364355087280e-02
2.909140884876251221e-01
6.088899448513984680e-02
2.706177532672882080e-01
1.488397717475891113e-01
-3.518030643463134766e-01
-1.353088766336441040e-02
1.961978673934936523e-01
-1.285434365272521973e-01
1.420743167400360107e-01
-1.894324272871017456e-01
6.765443831682205200e-02
3.382721841335296631e-01
2.841486334800720215e-01
-2.232596427202224731e-01
1.759015321731567383e-01
-3.382721915841102600e-02
-2.706177532672882080e-02
-8.795076608657836914e-02
-2.029633149504661560e-02
2.029633149504661560e-02
2.300250828266143799e-01
-4.059266299009323120e-02
-5.412355065345764160e-02
4.059266299009323120e-02
-1.353088766336441040e-02
2.164942026138305664e-01
4.126920700073242188e-01
-1.217779889702796936e-01
-4.668156206607818604e-01
2.503214180469512939e-01
3.382721915841102600e-02
-2.232596427202224731e-01
-3.788648545742034912e-01
7.441988587379455566e-02
-2.638522982597351074e-01
6.765443831682205200e-03
1.014816612005233765e-01
-3.315067589282989502e-01
-6.088899448513984680e-02
6.088899448513984680e-02
2.367905378341674805e-01
1.759015321731567383e-01
1.082471013069152832e-01
2.503214180469512939e-01
1.826669871807098389e-01
-3.991611897945404053e-01
-1.556052118539810181e-01
-1.082471013069152832e-01
-2.367905378341674805e-01
2.706177532672882080e-02
1.082471013069152832e-01
2.976795434951782227e-01
-9.471621364355087280e-02
1.759015321731567383e-01
-1.285434365272521973e-01
1.082471013069152832e-01
4.059266299009323120e-02
1.353088766336441040e-02
2.029633149504661560e-02
1.961978673934936523e-01
-8.795076608657836914e-02
-9.471621364355087280e-02
-5.412355065345764160e-02
3.315067589282989502e-01
-8.795076608657836914e-02
-1.420743167400360107e-01
-1.082471013069152832e-01
-1.826669871807098389e-01
-1.420743167400360107e-01
1.759015321731567383e-01
2.232596427202224731e-01
2.029633149504661560e-02
-6.765443831682205200e-02
5.412355065345764160e-02
-2.232596427202224731e-01
5.412355065345764160e-02
-2.909140884876251221e-01
-1.759015321731567383e-01
7.441988587379455566e-02
-2.097287625074386597e-01
1.759015321731567383e-01
4.735810682177543640e-02
6.765443831682205200e-03
3.382721915841102600e-02
1.014816612005233765e-01
4.194575250148773193e-01
-2.300250828266143799e-01
2.706177532672882080e-02
1.556052118539810181e-01
1.014816612005233765e-01
4.735810682177543640e-02
1.488397717475891113e-01
2.164942026138305664e-01
1.082471013069152832e-01
-8.795076608657836914e-02
-1.759015321731567383e-01
2.706177532672882080e-02
1.150125414133071899e-01
4.735810682177543640e-02
3.112104237079620361e-01
-3.382721915841102600e-02
1.285434365272521973e-01
-8.118532598018646240e-02
0.000000000000000000e+00
7.441988587379455566e-02
3.991611897945404053e-01
-7.441988587379455566e-02
1.623706519603729248e-01
-6.088899448513984680e-02
9.471621364355087280e-02
-1.894324272871017456e-01
9.471621364355087280e-02
-4.735810682177543640e-02
-1.353088766336441040e-02
3.179758489131927490e-01
-1.285434365272521973e-01
6.088899448513984680e-02
1.420743167400360107e-01
1.826669871807098389e-01
3.450376391410827637e-01
-2.841486334800720215e-01
-3.382721915841102600e-02
1.150125414133071899e-01
-1.014816612005233765e-01
-2.300250828266143799e-01
-3.044449687004089355e-01
1.150125414133071899e-01
-2.164942026138305664e-01
1.556052118539810181e-01
-1.556052118539810181e-01
-1.488397717475891113e-01
7.441988587379455566e-02
2.435559779405593872e-01
2.503214180469512939e-01
-4.059266299009323120e-02
-1.150125414133071899e-01
-2.706177532672882080e-02
-1.082471013069152832e-01
-3.991611897945404053e-01
2.029633149504661560e-02
3.991611897945404053e-01
-3.856303095817565918e-01
2.435559779405593872e-01
-9.471621364355087280e-02
-8.795076608657836914e-02
-2.841486334800720215e-01
1.082471013069152832e-01
-4.059266299009323120e-02
3.450376391410827637e-01
2.097287625074386597e-01
2.976795434951782227e-01
3.315067589282989502e-01
4.059266299009323120e-02
1.353088766336441040e-01
2.164942026138305664e-01
-1.353088766336441040e-02
1.285434365272521973e-01
-8.118532598018646240e-02
-4.735810682177543640e-02
-1.353088766336441040e-02
1.488397717475891113e-01
1.623706519603729248e-01
-4.938774108886718750e-01
1.353088766336441040e-02
-4.262229502201080322e-01
1.691360920667648315e-01
1.556052118539810181e-01
2.909140884876251221e-01
1.623706519603729248e-01
4.735810682177543640e-02
2.367905378341674805e-01
1.353088766336441040e-02
1.082471013069152832e-01
-3.179758489131927490e-01
2.773832082748413086e-01
2.503214180469512939e-01
2.976795434951782227e-01
3.585685193538665771e-01
8.118532598018646240e-02
-2.976795434951782227e-01
8.795076608657836914e-02
-4.059266299009323120e-02
7.441988587379455566e-02
2.638522982597351074e-01
1.556052118539810181e-01
1.217779889702796936e-01
-9.471621364355087280e-02
-3.112104237079620361e-01
-2.097287625074386597e-01
2.097287625074386597e-01
1.759015321731567383e-01
4.194575250148773193e-01
2.706177532672882080e-02
1.353088766336441040e-01
-3.518030643463134766e-01
5.412355065345764160e-02
-1.353088766336441040e-02
-3.179758489131927490e-01
-8.795076608657836914e-02
6.765443831682205200e-02
-2.300250828266143799e-01
-2.706177532672882080e-02
-2.029633149504661560e-02
-8.118532598018646240e-02
-2.570868730545043945e-01
2.097287625074386597e-01
0.000000000000000000e+00
1.353088766336441040e-02
4.735810756683349609e-01
-3.112104237079620361e-01
3.518030643463134766e-01
-5.074082612991333008e-01
1.420743167400360107e-01
1.082471013069152832e-01
3.382721915841102600e-02
2.300250828266143799e-01
4.668156206607818604e-01
1.488397717475891113e-01
-3.856303095817565918e-01
1.082471013069152832e-01
-3.382721915841102600e-02
-2.909140884876251221e-01
1.961978673934936523e-01
2.029633224010467529e-01
1.353088766336441040e-02
2.706177532672882080e-02
-5.412355065345764160e-02
2.232596427202224731e-01
1.014816612005233765e-01
-1.488397717475891113e-01
-4.329884052276611328e-01
2.638522982597351074e-01
-1.285434365272521973e-01
3.112104237079620361e-01
1.353088766336441040e-02
-1.691360920667648315e-01
7.441988587379455566e-02
5.885936021804809570e-01
5.412355065345764160e-02
6.765443831682205200e-02
-1.420743167400360107e-01
-2.435559779405593872e-01
-1.082471013069152832e-01
2.029633149504661560e-02
-6.765443831682205200e-02
-5.209391713142395020e-01
4.397538602352142334e-01
6.765443831682205200e-03
7.441988587379455566e-02
1.217779889702796936e-01
6.765443831682205200e-02
1.623706519603729248e-01
-4.735810682177543640e-02
-2.097287625074386597e-01
-2.029633224010467529e-01
-8.659768104553222656e-01
-9.471621364355087280e-02
-6.765443831682205200e-02
1.014816612005233765e-01
-8.795076608657836914e-02
-1.150125414133071899e-01
1.961978673934936523e-01
-1.285434365272521973e-01
2.773832082748413086e-01
-1.353088766336441040e-01
2.706177532672882080e-02
6.765443831682205200e-03
-2.097287625074386597e-01
6.765443831682205200e-02
-5.412355065345764160e-02
-1.082471013069152832e-01
1.826669871807098389e-01
2.029633149504661560e-02
-2.097287625074386597e-01
2.773832082748413086e-01
-7.441988587379455566e-02
-1.150125414133071899e-01
2.300250828266143799e-01
-1.353088766336441040e-02
-1.082471013069152832e-01
2.164942026138305664e-01
1.353088766336441040e-02
-1.353088766336441040e-02
-8.795076608657836914e-02
1.826669871807098389e-01
7.441988587379455566e-02
1.826669871807098389e-01
-2.232596427202224731e-01
-5.412355065345764160e-02
6.765443831682205200e-02
-2.097287625074386597e-01
-1.420743167400360107e-01
2.097287625074386597e-01
-4.059266299009323120e-02
1.353088766336441040e-01
2.570868730545043945e-01
-6.765443831682205200e-02
-1.691360920667648315e-01
-1.961978673934936523e-01
3.382721915841102600e-02
-2.706177532672882080e-02
1.285434365272521973e-01
9.471621364355087280e-02
6.765443831682205200e-03
1.691360920667648315e-01
1.285434365272521973e-01
6.088899448513984680e-02
3.247413039207458496e-01
-6.088899448513984680e-02
-9.471621364355087280e-02
1.826669871807098389e-01
2.029633224010467529e-01
-6.088899448513984680e-02
1.353088766336441040e-02
0.000000000000000000e+00
4.735810682177543640e-02
9.471621364355087280e-02
2.706177532672882080e-02
8.795076608657836914e-02
-1.353088766336441040e-01
-1.826669871807098389e-01
-4.735810682177543640e-02
-4.735810682177543640e-02
-4.735810682177543640e-02
1.150125414133071899e-01
2.367905378341674805e-01
-1.556052118539810181e-01
6.765443831682205200e-03
2.300250828266143799e-01
-4.059266299009323120e-02
7.441988587379455566e-02
-2.570868730545043945e-01
-1.420743167400360107e-01
3.585685193538665771e-01
4.059266299009323120e-02
6.765443831682205200e-03
-8.795076608657836914e-02
-1.961978673934936523e-01
-2.029633224010467529e-01
-1.961978673934936523e-01
-3.450376391410827637e-01
-1.623706519603729248e-01
-1.894324272871017456e-01
1.420743167400360107e-01
-3.247413039207458496e-01
3.585685193538665771e-01
-1.420743167400360107e-01
6.765443831682205200e-03
3.315067589282989502e-01
2.029633224010467529e-01
-3.179758489131927490e-01
-1.150125414133071899e-01
2.976795434951782227e-01
-3.382721915841102600e-02
2.232596427202224731e-01
-2.503214180469512939e-01
8.795076608657836914e-02
-2.367905378341674805e-01
3.382721915841102600e-02
-5.412355065345764160e-02
-2.367905378341674805e-01
-3.044449687004089355e-01
-1.894324272871017456e-01
2.232596427202224731e-01
1.014816612005233765e-01
-3.382721915841102600e-02
-1.420743167400360107e-01
-1.894324272871017456e-01
-2.706177532672882080e-01
5.006428360939025879e-01
-2.367905378341674805e-01
5.412355065345764160e-02
-1.014816612005233765e-01
3.382721915841102600e-02
4.735810682177543640e-02
2.909140884876251221e-01
-2.638522982597351074e-01
-4.735810682177543640e-02
-5.412355065345764160e-02
2.367905378341674805e-01
-1.353088766336441040e-02
1.894324272871017456e-01
4.059266448020935059e-01
6.765443831682205200e-03
-1.082471013069152832e-01
1.082471013069152832e-01
1.014816612005233765e-01
-3.450376391410827637e-01
-5.412355065345764160e-02
9.471621364355087280e-02
4.735810682177543640e-02
1.353088766336441040e-02
2.706177532672882080e-01
2.706177532672882080e-01
-7.441988587379455566e-02
-2.232596427202224731e-01
7.441988587379455566e-02
-6.765443831682205200e-02
3.518030643463134766e-01
2.706177532672882080e-02
7.441988587379455566e-02
1.420743167400360107e-01
1.826669871807098389e-01
1.488397717475891113e-01
-1.285434365272521973e-01
0.000000000000000000e+00
-2.300250828266143799e-01
6.765443831682205200e-02
-1.488397717475891113e-01
2.706177532672882080e-02
3.044449687004089355e-01
-1.285434365272521973e-01
4.735810682177543640e-02
3.382721915841102600e-02
1.150125414133071899e-01
1.961978673934936523e-01
1.285434365272521973e-01
8.118532598018646240e-02
-7.441988587379455566e-02
-1.217779889702796936e-01
1.894324272871017456e-01
-1.353088766336441040e-02
-4.735810682177543640e-02
1.217779889702796936e-01
1.150125414133071899e-01
-2.435559779405593872e-01
-2.097287625074386597e-01
-3.382721915841102600e-02
8.118532598018646240e-02
-7.441988587379455566e-02
3.382721915841102600e-02
-3.382721915841102600e-02
1.285434365272521973e-01
2.976795434951782227e-01
-1.285434365272521973e-01
1.691360920667648315e-01
-1.150125414133071899e-01
-1.759015321731567383e-01
7.441988587379455566e-02
1.488397717475891113e-01
5.412355065345764160e-02
-6.765443831682205200e-02
8.795076608657836914e-02
1.285434365272521973e-01
-2.029633149504661560e-02
6.088899448513984680e-02
1.150125414133071899e-01
4.059266299009323120e-02
-1.285434365272521973e-01
2.300250828266143799e-01
-6.765443831682205200e-02
2.367905378341674805e-01
-1.217779889702796936e-01
2.367905378341674805e-01
2.773832082748413086e-01
1.285434365272521973e-01
-3.179758489131927490e-01
2.841486334800720215e-01
1.894324272871017456e-01
-3.450376391410827637e-01
-1.285434365272521973e-01
1.353088766336441040e-02
-6.088899448513984680e-02
2.300250828266143799e-01
5.209391713142395020e-01
2.638522982597351074e-01
1.285434365272521973e-01
-2.773832082748413086e-01
-2.029633149504661560e-02
-2.841486334800720215e-01
-3.856303095817565918e-01
-1.014816612005233765e-01
-1.217779889702796936e-01
1.556052118539810181e-01
2.976795434951782227e-01
5.547664165496826172e-01
3.382721841335296631e-01
-2.367905378341674805e-01
-9.471621364355087280e-02
1.217779889702796936e-01
6.088899448513984680e-02
-2.097287625074386597e-01
-3.247413039207458496e-01
4.735810682177543640e-02
2.570868730545043945e-01
-2.300250828266143799e-01
-2.097287625074386597e-01
-8.118532598018646240e-02
-2.029633149504661560e-02
2.503214180469512939e-01
-1.826669871807098389e-01
-6.765443831682205200e-03
2.638522982597351074e-01
4.871119558811187744e-01
1.623706519603729248e-01
-4.600501656532287598e-01
1.961978673934936523e-01
-3.450376391410827637e-01
1.353088766336441040e-01
7.441988587379455566e-02
2.773832082748413086e-01
-6.088899448513984680e-02
-3.315067589282989502e-01
4.059266299009323120e-02
2.570868730545043945e-01
1.623706519603729248e-01
-1.420743167400360107e-01
-1.894324272871017456e-01
4.194575250148773193e-01
2.029633224010467529e-01
-1.826669871807098389e-01
-2.503214180469512939e-01
1.150125414133071899e-01
3.382721915841102600e-02
1.082471013069152832e-01
-1.150125414133071899e-01
1.150125414133071899e-01
-1.353088766336441040e-01
-2.706177532672882080e-02
2.976795434951782227e-01
1.826669871807098389e-01
1.488397717475891113e-01
2.029633149504661560e-02
-1.353088766336441040e-02
-1.961978673934936523e-01
4.059266299009323120e-02
1.691360920667648315e-01
1.353088766336441040e-02
1.014816612005233765e-01
1.420743167400360107e-01
-1.961978673934936523e-01
-2.706177532672882080e-01
4.938774108886718750e-01
-1.217779889702796936e-01
4.059266299009323120e-02
-1.826669871807098389e-01
1.217779889702796936e-01
6.765443831682205200e-02
-4.735810682177543640e-02
-1.150125414133071899e-01
2.706177532672882080e-02
-2.570868730545043945e-01
2.097287625074386597e-01
1.217779889702796936e-01
6.088899448513984680e-02
1.894324272871017456e-01
0.000000000000000000e+00
-8.795076608657836914e-02
-2.029633149504661560e-02
-2.029633224010467529e-01
-1.623706519603729248e-01
9.471621364355087280e-02
-2.706177532672882080e-01
-1.217779889702796936e-01
-1.353088766336441040e-02
-8.795076608657836914e-02
-2.435559779405593872e-01
1.623706519603729248e-01
2.773832082748413086e-01
-2.029633149504661560e-02
-6.765443831682205200e-03
-2.841486334800720215e-01
-6.088899448513984680e-02
1.014816612005233765e-01
1.217779889702796936e-01
1.420743167400360107e-01
-1.150125414133071899e-01
-1.488397717475891113e-01
1.623706519603729248e-01
-4.059266299009323120e-02
-1.353088766336441040e-01
3.179758489131927490e-01
1.759015321731567383e-01
2.638522982597351074e-01
-1.150125414133071899e-01
1.082471013069152832e-01
6.765443831682205200e-02
-6.765443831682205200e-03
1.420743167400360107e-01
-2.841486334800720215e-01
-3.112104237079620361e-01
1.082471013069152832e-01
6.088899448513984680e-02
1.556052118539810181e-01
2.570868730545043945e-01
-9.471621364355087280e-02
2.841486334800720215e-01
7.441988587379455566e-02
-1.961978673934936523e-01
-1.623706519603729248e-01
6.088899448513984680e-02
5.412355065345764160e-02
-8.795076608657836914e-02
1.285434365272521973e-01
6.088899448513984680e-02
-6.765443831682205200e-02
1.285434365272521973e-01
-2.367905378341674805e-01
-1.014816612005233765e-01
-3.653339743614196777e-01
-8.118532598018646240e-02
-7.441988587379455566e-02
2.029633224010467529e-01
-1.082471013069152832e-01
1.217779889702796936e-01
4.329884052276611328e-01
1.556052118539810181e-01
4.059266299009323120e-02
2.435559779405593872e-01
-5.412355065345764160e-02
2.841486334800720215e-01
-6.088899448513984680e-02
-2.029633149504661560e-02
-2.029633149504661560e-02
1.217779889702796936e-01
-1.353088766336441040e-01
5.412355065345764160e-02
-2.706177532672882080e-01
-3.382721915841102600e-02
-2.029633149504661560e-02
6.765443831682205200e-02
6.765443831682205200e-03
-8.118532598018646240e-02
1.217779889702796936e-01
-6.765443831682205200e-03
1.420743167400360107e-01
1.759015321731567383e-01
1.217779889702796936e-01
-2.029633149504661560e-02
2.029633224010467529e-01
-1.623706519603729248e-01
-1.353088766336441040e-02
2.570868730545043945e-01
-8.795076608657836914e-02
2.029633149504661560e-02
7.441988587379455566e-02
-3.450376391410827637e-01
2.503214180469512939e-01
4.735810682177543640e-02
-6.765443831682205200e-03
6.765443831682205200e-03
6.088899448513984680e-02
3.923957347869873047e-01
1.014816612005233765e-01
-7.441988587379455566e-02
3.856303095817565918e-01
0.000000000000000000e+00
8.795076608657836914e-02
-4.735810682177543640e-02
0.000000000000000000e+00
5.412355065345764160e-02
-5.074082612991333008e-01
1.150125414133071899e-01
-4.735810682177543640e-02
-4.735810682177543640e-02
8.118532598018646240e-02
3.112104237079620361e-01
-1.353088766336441040e-01
-7.103716135025024414e-01
-1.623706519603729248e-01
-1.894324272871017456e-01
-1.691360920667648315e-01
4.059266299009323120e-02
2.232596427202224731e-01
-1.420743167400360107e-01
-3.382721915841102600e-02
-1.961978673934936523e-01
2.841486334800720215e-01
-4.194575250148773193e-01
7.441988587379455566e-02
8.118532598018646240e-02
0.000000000000000000e+00
2.638522982597351074e-01
2.232596427202224731e-01
-4.059266299009323120e-02
-1.961978673934936523e-01
-3.382721915841102600e-02
-1.623706519603729248e-01
8.118532598018646240e-02
-1.691360920667648315e-01
5.412355065345764160e-02
-5.412355065345764160e-01
2.706177532672882080e-02
6.088899448513984680e-02
-1.353088766336441040e-01
2.909140884876251221e-01
-6.765443831682205200e-03
-1.353088766336441040e-01
-2.503214180469512939e-01
3.044449687004089355e-01
1.961978673934936523e-01
-4.735810682177543640e-02
-1.014816612005233765e-01
-2.029633149504661560e-02
1.014816612005233765e-01
5.412355065345764160e-02
2.570868730545043945e-01
-3.653339743614196777e-01
-1.353088766336441040e-02
1.894324272871017456e-01
3.788648545742034912e-01
-3.382721915841102600e-02
2.164942026138305664e-01
2.029633224010467529e-01
-4.059266299009323120e-02
-1.556052118539810181e-01
-5.412355065345764160e-02
-3.315067589282989502e-01
1.217779889702796936e-01
1.826669871807098389e-01
3.382721915841102600e-02
-1.691360920667648315e-01
1.285434365272521973e-01
-1.623706519603729248e-01
2.097287625074386597e-01
-3.585685193538665771e-01
2.706177532672882080e-01
-1.759015321731567383e-01
1.082471013069152832e-01
1.759015321731567383e-01
-3.044449687004089355e-01
-3.991611897945404053e-01
2.909140884876251221e-01
-1.420743167400360107e-01
-3.720993995666503906e-01
2.029633224010467529e-01
-3.044449687004089355e-01
2.232596427202224731e-01
1.488397717475891113e-01
4.126920700073242188e-01
-2.232596427202224731e-01
-1.217779889702796936e-01
-2.300250828266143799e-01
2.638522982597351074e-01
6.765443831682205200e-03
-2.909140884876251221e-01
-3.179758489131927490e-01
-4.735810756683349609e-01
1.353088766336441040e-02
4.735810682177543640e-02
1.556052118539810181e-01
-2.909140884876251221e-01
-2.164942026138305664e-01
-5.547664165496826172e-01
-2.706177532672882080e-02
3.720993995666503906e-01
-2.367905378341674805e-01
-6.088899374008178711e-01
1.961978673934936523e-01
-6.765443831682205200e-03
2.503214180469512939e-01
-2.638522982597351074e-01
-1.488397717475891113e-01
6.765443831682205200e-03
-3.112104237079620361e-01
-2.773832082748413086e-01
3.991611897945404053e-01
2.232596427202224731e-01
-3.179758489131927490e-01
-1.961978673934936523e-01
4.059266299009323120e-02
1.285434365272521973e-01
-2.232596427202224731e-01
4.262229502201080322e-01
-8.795076608657836914e-02
-6.765443831682205200e-02
3.653339743614196777e-01
2.773832082748413086e-01
-1.556052118539810181e-01
2.503214180469512939e-01
1.623706519603729248e-01
4.397538602352142334e-01
8.795076608657836914e-02
-3.923957347869873047e-01
4.735810756683349609e-01
1.217779889702796936e-01
-1.623706519603729248e-01
2.029633224010467529e-01
-1.623706519603729248e-01
2.435559779405593872e-01
-1.285434365272521973e-01
-2.029633149504661560e-02
1.014816612005233765e-01
2.300250828266143799e-01
6.494826078414916992e-01
8.118532598018646240e-02
-1.961978673934936523e-01
-2.976795434951782227e-01
1.894324272871017456e-01
8.795076608657836914e-02
-2.503214180469512939e-01
-2.706177532672882080e-02
-1.623706519603729248e-01
1.894324272871017456e-01
-4.126920700073242188e-01
3.585685193538665771e-01
3.720993995666503906e-01
-1.556052118539810181e-01
2.638522982597351074e-01
2.300250828266143799e-01
-9.471621364355087280e-02
-1.353088766336441040e-02
1.961978673934936523e-01
1.420743167400360107e-01
3.382721915841102600e-02
-8.795076608657836914e-02
-2.029633149504661560e-02
2.706177532672882080e-02
-2.097287625074386597e-01
2.300250828266143799e-01
2.232596427202224731e-01
6.765443831682205200e-02
-2.097287625074386597e-01
1.961978673934936523e-01
-8.118532598018646240e-02
-9.471621364355087280e-02
-2.706177532672882080e-02
-5.412355065345764160e-01
3.382721915841102600e-02
4.059266299009323120e-02
-1.894324272871017456e-01
6.765443831682205200e-03
2.232596427202224731e-01
0.000000000000000000e+00
-1.082471013069152832e-01
-2.367905378341674805e-01
-3.179758489131927490e-01
-1.623706519603729248e-01
3.382721915841102600e-02
1.759015321731567383e-01
-5.074082612991333008e-01
-6.088899374008178711e-01
1.285434365272521973e-01
-3.382721915841102600e-02
1.014816612005233765e-01
-5.412355065345764160e-02
2.706177532672882080e-02
-2.029633149504661560e-02
-6.765443831682205200e-03
8.118532598018646240e-02
-2.097287625074386597e-01
-4.059266299009323120e-02
-3.382721915841102600e-02
-3.382721915841102600e-02
1.217779889702796936e-01
2.638522982597351074e-01
-1.759015321731567383e-01
-1.488397717475891113e-01
-1.961978673934936523e-01
1.759015321731567383e-01
5.412355065345764160e-02
6.088899448513984680e-02
1.961978673934936523e-01
-1.420743167400360107e-01
-1.014816612005233765e-01
-4.735810682177543640e-02
3.382721915841102600e-02
-6.765443831682205200e-03
4.735810682177543640e-02
6.765443831682205200e-03
1.623706519603729248e-01
8.795076608657836914e-02
4.059266299009323120e-02
-1.826669871807098389e-01
-4.735810682177543640e-02
-1.759015321731567383e-01
-1.353088766336441040e-02
-2.029633149504661560e-02
-2.097287625074386597e-01
3.382721915841102600e-02
-8.795076608657836914e-02
-2.367905378341674805e-01
-4.059266299009323120e-02
1.082471013069152832e-01
1.556052118539810181e-01
7.441988587379455566e-02
-2.367905378341674805e-01
1.082471013069152832e-01
2.367905378341674805e-01
-2.706177532672882080e-02
4.059266299009323120e-02
2.706177532672882080e-02
2.029633149504661560e-02
-2.367905378341674805e-01
2.232596427202224731e-01
2.706177532672882080e-01
6.765443831682205200e-03
2.029633149504661560e-02
6.088899448513984680e-02
-1.420743167400360107e-01
-2.029633224010467529e-01
2.503214180469512939e-01
1.353088766336441040e-02
4.059266299009323120e-02
9.471621364355087280e-02
-1.353088766336441040e-01
2.773832082748413086e-01
4.059266299009323120e-02
7.441988587379455566e-02
6.765443831682205200e-03
-5.412355065345764160e-02
-1.894324272871017456e-01
2.570868730545043945e-01
1.556052118539810181e-01
3.112104237079620361e-01
-2.164942026138305664e-01
4.735810682177543640e-02
-4.126920700073242188e-01
1.759015321731567383e-01
9.471621364355087280e-02
7.441988587379455566e-02
6.765443831682205200e-03
4.735810682177543640e-02
2.503214180469512939e-01
-3.044449687004089355e-01
-4.059266299009323120e-02
1.556052118539810181e-01
-3.382721915841102600e-02
-1.420743167400360107e-01
-2.097287625074386597e-01
-1.082471013069152832e-01
-2.029633224010467529e-01
6.765443831682205200e-03
-4.735810682177543640e-02
2.435559779405593872e-01
6.088899448513984680e-02
-1.217779889702796936e-01
2.706177532672882080e-02
1.353088766336441040e-01
0.000000000000000000e+00
-4.059266299009323120e-02
-2.909140884876251221e-01
1.623706519603729248e-01
-1.285434365272521973e-01
0.000000000000000000e+00
-4.735810682177543640e-02
-3.382721915841102600e-02
-2.367905378341674805e-01
9.471621364355087280e-02
-2.029633149504661560e-02
2.638522982597351074e-01
-9.471621364355087280e-02
-3.923957347869873047e-01
1.623706519603729248e-01
6.088899448513984680e-02
1.826669871807098389e-01
1.759015321731567383e-01
3.382721841335296631e-01
1.623706519603729248e-01
1.082471013069152832e-01
-2.841486334800720215e-01
0.000000000000000000e+00
2.097287625074386597e-01
0.000000000000000000e+00
3.315067589282989502e-01
2.300250828266143799e-01
-2.706177532672882080e-01
-8.795076608657836914e-02
0.000000000000000000e+00
6.765443831682205200e-02
-2.706177532672882080e-01
2.503214180469512939e-01
-2.773832082748413086e-01
0.000000000000000000e+00
1.759015321731567383e-01
-4.735810682177543640e-02
-1.420743167400360107e-01
1.556052118539810181e-01
-2.300250828266143799e-01
-1.691360920667648315e-01
0.000000000000000000e+00
3.315067589282989502e-01
2.097287625074386597e-01
2.029633224010467529e-01
3.653339743614196777e-01
5.412355065345764160e-02
-1.488397717475891113e-01
1.014816612005233765e-01
2.570868730545043945e-01
3.382721915841102600e-02
-2.706177532672882080e-02
9.471621364355087280e-02
1.082471013069152832e-01
-9.471621364355087280e-02
-1.082471013069152832e-01
-1.285434365272521973e-01
-6.765443831682205200e-02
6.765443831682205200e-02
2.706177532672882080e-02
-9.471621364355087280e-02
2.706177532672882080e-02
-4.735810682177543640e-02
1.150125414133071899e-01
-2.570868730545043945e-01
1.556052118539810181e-01
3.315067589282989502e-01
1.082471013069152832e-01
8.118532598018646240e-02
3.382721841335296631e-01
-6.088899448513984680e-02
3.179758489131927490e-01
-7.441988587379455566e-02
-1.217779889702796936e-01
9.471621364355087280e-02
-9.471621364355087280e-02
2.232596427202224731e-01
-3.450376391410827637e-01
-6.088899448513984680e-02
-8.795076608657836914e-02
1.217779889702796936e-01
-8.795076608657836914e-02
2.706177532672882080e-02
-8.795076608657836914e-02
2.367905378341674805e-01
-5.412355065345764160e-02
2.232596427202224731e-01
2.638522982597351074e-01
2.435559779405593872e-01
-3.382721841335296631e-01
-6.088899448513984680e-02
1.082471013069152832e-01
0.000000000000000000e+00
4.059266299009323120e-02
-3.044449687004089355e-01
1.488397717475891113e-01
2.029633149504661560e-02
-1.894324272871017456e-01
-6.765443831682205200e-03
-1.488397717475891113e-01
8.795076608657836914e-02
-1.353088766336441040e-01
3.382721915841102600e-02
1.759015321731567383e-01
-6.765443831682205200e-03
2.706177532672882080e-02
-1.217779889702796936e-01
1.217779889702796936e-01
-7.441988587379455566e-02
1.826669871807098389e-01
2.097287625074386597e-01
-4.059266299009323120e-02
-1.488397717475891113e-01
-1.014816612005233765e-01
-7.441988587379455566e-02
1.623706519603729248e-01
-2.706177532672882080e-02
2.706177532672882080e-01
1.623706519603729248e-01
-9.471621364355087280e-02
1.285434365272521973e-01
6.765443831682205200e-02
4.735810682177543640e-02
3.382721915841102600e-02
1.082471013069152832e-01
-1.894324272871017456e-01
6.765443831682205200e-02
-1.285434365272521973e-01
2.773832082748413086e-01
-3.044449687004089355e-01
-7.441988587379455566e-02
1.353088766336441040e-02
-2.164942026138305664e-01
2.029633224010467529e-01
3.720993995666503906e-01
2.029633224010467529e-01
-5.412355065345764160e-02
-2.570868730545043945e-01
1.014816612005233765e-01
1.082471013069152832e-01
-6.765443831682205200e-03
1.623706519603729248e-01
-6.765443831682205200e-02
-6.765443831682205200e-02
-1.014816612005233765e-01
1.961978673934936523e-01
1.691360920667648315e-01
-3.720993995666503906e-01
-9.471621364355087280e-02
-6.088899448513984680e-02
1.894324272871017456e-01
4.735810682177543640e-02
4.059266299009323120e-02
-2.232596427202224731e-01
-2.029633149504661560e-02
-6.765443831682205200e-03
-1.014816612005233765e-01
8.795076608657836914e-02
-6.765443831682205200e-03
1.691360920667648315e-01
-4.262229502201080322e-01
-2.097287625074386597e-01
1.961978673934936523e-01
4.059266299009323120e-02
-3.991611897945404053e-01
-7.441988587379455566e-02
-1.285434365272521973e-01
-8.118532598018646240e-02
-2.300250828266143799e-01
2.909140884876251221e-01
-2.706177532672882080e-01
-2.706177532672882080e-02
-1.353088766336441040e-01
-9.471621364355087280e-02
-1.488397717475891113e-01
1.082471013069152832e-01
1.014816612005233765e-01
1.488397717475891113e-01
2.841486334800720215e-01
-2.706177532672882080e-02
-3.382721915841102600e-02
7.441988587379455566e-02
6.765443831682205200e-02
1.894324272871017456e-01
1.894324272871017456e-01
-2.367905378341674805e-01
4.668156206607818604e-01
-3.382721915841102600e-02
-1.420743167400360107e-01
3.112104237079620361e-01
4.803465008735656738e-01
4.397538602352142334e-01
3.382721915841102600e-02
-6.765443831682205200e-03
-4.059266299009323120e-02
6.088899448513984680e-02
0.000000000000000000e+00
2.841486334800720215e-01
1.556052118539810181e-01
-1.759015321731567383e-01
-5.412355065345764160e-02
9.471621364355087280e-02
1.420743167400360107e-01
-4.059266299009323120e-02
1.082471013069152832e-01
-3.991611897945404053e-01
4.126920700073242188e-01
-1.353088766336441040e-02
-1.014816612005233765e-01
-3.247413039207458496e-01
-6.765443831682205200e-03
-3.923957347869873047e-01
-6.088899448513984680e-02
-9.471621364355087280e-02
-2.503214180469512939e-01
3.720993995666503906e-01
-1.014816612005233765e-01
-1.014816612005233765e-01
2.367905378341674805e-01
-1.285434365272521973e-01
-8.795076608657836914e-02
-4.735810682177543640e-02
-1.759015321731567383e-01
1.217779889702796936e-01
0.000000000000000000e+00
6.765443831682205200e-03
8.118532598018646240e-02
1.894324272871017456e-01
1.420743167400360107e-01
-5.074082612991333008e-01
1.353088766336441040e-02
-1.556052118539810181e-01
-6.088899448513984680e-02
4.735810682177543640e-02
3.653339743614196777e-01
-1.082471013069152832e-01
7.441988587379455566e-02
3.382721915841102600e-02
-2.435559779405593872e-01
-6.765443831682205200e-03
-2.029633149504661560e-02
5.412355065345764160e-02
2.706177532672882080e-01
3.044449687004089355e-01
2.706177532672882080e-01
2.976795434951782227e-01
2.570868730545043945e-01
-1.014816612005233765e-01
4.059266299009323120e-02
6.765443831682205200e-02
-1.082471013069152832e-01
-2.029633224010467529e-01
9.471621364355087280e-02
-4.059266299009323120e-02
3.653339743614196777e-01
3.315067589282989502e-01
-2.706177532672882080e-02
1.150125414133071899e-01
-1.014816612005233765e-01
-1.150125414133071899e-01
-1.353088766336441040e-02
4.735810682177543640e-02
2.029633149504661560e-02
1.623706519603729248e-01
2.503214180469512939e-01
-3.382721915841102600e-02
-6.765443831682205200e-03
-6.765443831682205200e-03
-2.435559779405593872e-01
1.353088766336441040e-01
1.353088766336441040e-01
2.841486334800720215e-01
2.029633149504661560e-02
-1.556052118539810181e-01
3.044449687004089355e-01
1.961978673934936523e-01
1.217779889702796936e-01
1.691360920667648315e-01
-1.217779889702796936e-01
4.735810682177543640e-02
1.826669871807098389e-01
-1.691360920667648315e-01
-1.488397717475891113e-01
-2.232596427202224731e-01
1.488397717475891113e-01
3.382721915841102600e-02
1.894324272871017456e-01
-2.706177532672882080e-02
-2.300250828266143799e-01
0.000000000000000000e+00
-1.961978673934936523e-01
-2.097287625074386597e-01
-4.532847404479980469e-01
2.029633149504661560e-02
7.441988587379455566e-02
-3.585685193538665771e-01
-6.765443831682205200e-02
-1.217779889702796936e-01
-2.706177532672882080e-02
4.194575250148773193e-01
3.179758489131927490e-01
2.300250828266143799e-01
-2.773832082748413086e-01
4.059266299009323120e-02
-2.029633149504661560e-02
6.088899448513984680e-02
1.353088766336441040e-02
-2.841486334800720215e-01
3.382721915841102600e-02
3.382721915841102600e-02
-2.706177532672882080e-02
-1.082471013069152832e-01
-2.029633149504661560e-02
1.285434365272521973e-01
1.353088766336441040e-01
-8.118532598018646240e-02
4.059266299009323120e-02
-1.353088766336441040e-02
6.088899448513984680e-02
2.029633149504661560e-02
1.488397717475891113e-01
-2.029633224010467529e-01
-5.615318417549133301e-01
-1.961978673934936523e-01
-5.682972669601440430e-01
-1.353088766336441040e-02
8.795076608657836914e-02
2.909140884876251221e-01
-7.441988587379455566e-02
-8.795076608657836914e-02
-1.759015321731567383e-01
-1.285434365272521973e-01
-9.471621364355087280e-02
1.285434365272521973e-01
2.300250828266143799e-01
6.765443831682205200e-03
4.465192854404449463e-01
-1.285434365272521973e-01
-4.397538602352142334e-01
-1.285434365272521973e-01
-4.262229502201080322e-01
-2.435559779405593872e-01
-3.382721915841102600e-02
7.712606191635131836e-01
-2.976795434951782227e-01
-1.420743167400360107e-01
9.471621364355087280e-02
-2.503214180469512939e-01
1.623706519603729248e-01
-2.164942026138305664e-01
1.353088766336441040e-02
2.570868730545043945e-01
2.570868730545043945e-01
-1.353088766336441040e-01
6.088899448513984680e-02
-1.217779889702796936e-01
1.961978673934936523e-01
-1.556052118539810181e-01
-2.435559779405593872e-01
-1.420743167400360107e-01
1.014816612005233765e-01
-5.412355065345764160e-02
5.412355065345764160e-02
2.029633224010467529e-01
-2.164942026138305664e-01
2.097287625074386597e-01
1.826669871807098389e-01
-1.285434365272521973e-01
-9.471621364355087280e-02
3.044449687004089355e-01
-9.471621364355087280e-02
1.217779889702796936e-01
-1.082471013069152832e-01
-4.735810682177543640e-02
-2.097287625074386597e-01
-8.795076608657836914e-02
-1.556052118539810181e-01
-2.029633224010467529e-01
8.118532598018646240e-02
0.000000000000000000e+00
3.382721915841102600e-02
-2.909140884876251221e-01
6.088899448513984680e-02
8.795076608657836914e-02
2.435559779405593872e-01
-2.773832082748413086e-01
-3.585685193538665771e-01
-2.029633149504661560e-02
4.735810682177543640e-02
-2.164942026138305664e-01
1.285434365272521973e-01
3.112104237079620361e-01
9.471621364355087280e-02
-2.706177532672882080e-02
1.894324272871017456e-01
-1.014816612005233765e-01
1.353088766336441040e-01
-6.088899448513984680e-02
-1.285434365272521973e-01
-1.285434365272521973e-01
-4.735810682177543640e-02
1.556052118539810181e-01
1.894324272871017456e-01
-2.706177532672882080e-01
-6.088899448513984680e-02
-1.623706519603729248e-01
7.441988587379455566e-02
2.029633224010467529e-01
1.623706519603729248e-01
1.082471013069152832e-01
1.759015321731567383e-01
-6.765443831682205200e-03
-3.382721841335296631e-01
6.088899448513984680e-02
-1.353088766336441040e-02
-1.285434365272521973e-01
6.765443831682205200e-02
1.285434365272521973e-01
2.367905378341674805e-01
-8.795076608657836914e-02
4.735810682177543640e-02
-2.097287625074386597e-01
1.420743167400360107e-01
-1.420743167400360107e-01
-1.014816612005233765e-01
6.765443831682205200e-03
-2.029633149504661560e-02
-3.382721915841102600e-02
1.353088766336441040e-02
-7.441988587379455566e-02
-1.894324272871017456e-01
6.765443831682205200e-03
-1.488397717475891113e-01
-5.412355065345764160e-02
1.285434365272521973e-01
-2.300250828266143799e-01
2.841486334800720215e-01
-9.471621364355087280e-02
-1.353088766336441040e-02
-2.029633149504661560e-02
6.765443831682205200e-02
2.706177532672882080e-01
1.894324272871017456e-01
-2.097287625074386597e-01
-2.435559779405593872e-01
-3.382721915841102600e-02
4.735810682177543640e-02
1.217779889702796936e-01
4.735810682177543640e-02
-4.059266299009323120e-02
-2.300250828266143799e-01
-6.765443831682205200e-03
2.029633149504661560e-02
-1.961978673934936523e-01
-3.382721915841102600e-02
6.765443831682205200e-03
-1.082471013069152832e-01
-6.765443831682205200e-03
2.367905378341674805e-01
6.765443831682205200e-03
-6.088899448513984680e-02
2.232596427202224731e-01
1.894324272871017456e-01
3.720993995666503906e-01
1.488397717475891113e-01
-2.029633149504661560e-02
-4.735810682177543640e-02
-1.556052118539810181e-01
2.232596427202224731e-01
3.044449687004089355e-01
-1.353088766336441040e-02
1.353088766336441040e-02
2.029633149504661560e-02
1.217779889702796936e-01
-1.014816612005233765e-01
2.029633149504661560e-02
1.285434365272521973e-01
1.217779889702796936e-01
6.088899448513984680e-02
6.765443831682205200e-02
-3.382721841335296631e-01
1.894324272871017456e-01
-3.382721915841102600e-02
4.735810682177543640e-02
9.471621364355087280e-02
-2.503214180469512939e-01
-3.179758489131927490e-01
2.638522982597351074e-01
-2.029633224010467529e-01
-1.894324272871017456e-01
3.382721841335296631e-01
6.088899448513984680e-02
2.841486334800720215e-01
-2.976795434951782227e-01
-6.765443831682205200e-03
-1.420743167400360107e-01
-2.706177532672882080e-02
1.217779889702796936e-01
8.118532598018646240e-02
-7.441988587379455566e-02
-1.420743167400360107e-01
1.420743167400360107e-01
7.441988587379455566e-02
-1.150125414133071899e-01
2.706177532672882080e-01
-4.735810682177543640e-02
3.382721915841102600e-02
-8.795076608657836914e-02
-6.765443831682205200e-02
-2.367905378341674805e-01
-9.471621364355087280e-02
1.217779889702796936e-01
1.014816612005233765e-01
1.759015321731567383e-01
1.961978673934936523e-01
-3.788648545742034912e-01
2.164942026138305664e-01
4.059266299009323120e-02
-4.735810682177543640e-02
-1.420743167400360107e-01
1.420743167400360107e-01
1.150125414133071899e-01
-3.382721915841102600e-02
-1.150125414133071899e-01
-8.795076608657836914e-02
2.367905378341674805e-01
-1.285434365272521973e-01
1.826669871807098389e-01
-1.150125414133071899e-01
3.382721915841102600e-02
-6.765443831682205200e-03
2.097287625074386597e-01
1.150125414133071899e-01
1.217779889702796936e-01
-1.082471013069152832e-01
-9.471621364355087280e-02
2.706177532672882080e-02
-2.097287625074386597e-01
8.795076608657836914e-02
4.735810682177543640e-02
-4.735810682177543640e-02
-7.441988587379455566e-02
-6.765443831682205200e-03
-2.706177532672882080e-02
2.367905378341674805e-01
-6.765443831682205200e-02
-6.765443831682205200e-03
-1.353088766336441040e-02
5.412355065345764160e-02
-8.118532598018646240e-02
1.150125414133071899e-01
7.441988587379455566e-02
-1.285434365272521973e-01
6.088899448513984680e-02
4.194575250148773193e-01
1.014816612005233765e-01
-1.353088766336441040e-01
-7.441988587379455566e-02
6.765443831682205200e-03
3.044449687004089355e-01
-1.285434365272521973e-01
1.353088766336441040e-02
-5.412355065345764160e-02
-9.471621364355087280e-02
-2.164942026138305664e-01
-4.059266299009323120e-02
1.488397717475891113e-01
9.471621364355087280e-02
1.894324272871017456e-01
-6.765443831682205200e-03
-7.441988587379455566e-02
7.441988587379455566e-02
-4.735810682177543640e-02
-2.503214180469512939e-01
-1.759015321731567383e-01
-3.382721915841102600e-02
2.029633149504661560e-02
-1.353088766336441040e-02
6.765443831682205200e-03
-6.088899448513984680e-02
2.164942026138305664e-01
-6.765443831682205200e-02
2.570868730545043945e-01
-1.014816612005233765e-01
-6.765443831682205200e-03
2.029633149504661560e-02
1.961978673934936523e-01
-1.556052118539810181e-01
-1.150125414133071899e-01
-6.765443831682205200e-02
1.556052118539810181e-01
6.088899448513984680e-02
-2.164942026138305664e-01
-8.795076608657836914e-02
1.826669871807098389e-01
-2.841486334800720215e-01
2.029633149504661560e-02
1.691360920667648315e-01
3.179758489131927490e-01
2.367905378341674805e-01
-1.285434365272521973e-01
1.353088766336441040e-02
-4.262229502201080322e-01
9.471621364355087280e-02
-5.412355065345764160e-02
-8.118532598018646240e-02
4.059266299009323120e-02
4.668156206607818604e-01
1.759015321731567383e-01
-1.014816612005233765e-01
4.735810682177543640e-02
-9.471621364355087280e-02
9.471621364355087280e-02
-7.441988587379455566e-02
-3.382721915841102600e-02
-3.382721915841102600e-02
4.735810682177543640e-02
-2.232596427202224731e-01
-3.856303095817565918e-01
2.435559779405593872e-01
4.059266299009323120e-02
8.118532598018646240e-02
6.088899448513984680e-02
1.420743167400360107e-01
-2.503214180469512939e-01
0.000000000000000000e+00
-6.765443831682205200e-02
-2.232596427202224731e-01
-5.412355065345764160e-02
0.000000000000000000e+00
-7.441988587379455566e-02
-3.856303095817565918e-01
-4.059266299009323120e-02
-6.088899448513984680e-02
-2.029633224010467529e-01
1.353088766336441040e-01
-1.082471013069152832e-01
-1.623706519603729248e-01
-2.638522982597351074e-01
3.382721915841102600e-02
-6.765443831682205200e-02
1.285434365272521973e-01
4.059266299009323120e-02
-1.353088766336441040e-01
1.691360920667648315e-01
-3.653339743614196777e-01
7.441988587379455566e-02
-2.029633149504661560e-02
-6.088899448513984680e-02
-2.029633149504661560e-02
5.412355065345764160e-02
-3.179758489131927490e-01
-2.029633224010467529e-01
1.961978673934936523e-01
-1.353088766336441040e-02
1.217779889702796936e-01
3.315067589282989502e-01
-1.353088766336441040e-02
-1.556052118539810181e-01
1.488397717475891113e-01
6.765443831682205200e-03
1.014816612005233765e-01
-1.150125414133071899e-01
-2.097287625074386597e-01
-3.247413039207458496e-01
6.765443831682205200e-02
-9.471621364355087280e-02
6.765443831682205200e-03
1.217779889702796936e-01
2.097287625074386597e-01
-1.691360920667648315e-01
5.412355065345764160e-02
-1.420743167400360107e-01
2.435559779405593872e-01
-2.503214180469512939e-01
-1.420743167400360107e-01
1.285434365272521973e-01
1.556052118539810181e-01
-2.029633224010467529e-01
-1.353088766336441040e-01
-6.765443831682205200e-02
-6.765443831682205200e-02
9.471621364355087280e-02
-2.164942026138305664e-01
2.435559779405593872e-01
-1.691360920667648315e-01
-1.826669871807098389e-01
3.382721915841102600e-02
-1.150125414133071899e-01
1.488397717475891113e-01
-8.118532598018646240e-02
2.029633149504661560e-02
-2.638522982597351074e-01
2.164942026138305664e-01
2.164942026138305664e-01
1.353088766336441040e-02
1.082471013069152832e-01
-1.014816612005233765e-01
1.894324272871017456e-01
3.518030643463134766e-01
-2.570868730545043945e-01
1.894324272871017456e-01
-1.826669871807098389e-01
6.088899448513984680e-02
4.059266299009323120e-02
0.000000000000000000e+00
0.000000000000000000e+00
-1.420743167400360107e-01
-1.353088766336441040e-02
-1.759015321731567383e-01
-2.435559779405593872e-01
-3.653339743614196777e-01
1.014816612005233765e-01
-1.353088766336441040e-01
-2.841486334800720215e-01
1.353088766336441040e-01
1.961978673934936523e-01
3.247413039207458496e-01
-2.706177532672882080e-02
2.503214180469512939e-01
-1.826669871807098389e-01
8.118532598018646240e-02
4.059266299009323120e-02
-1.082471013069152832e-01
4.735810682177543640e-02
9.471621364355087280e-02
1.623706519603729248e-01
8.795076608657836914e-02
8.795076608657836914e-02
-8.118532598018646240e-02
1.014816612005233765e-01
1.961978673934936523e-01
-3.382721915841102600e-02
2.164942026138305664e-01
3.382721915841102600e-02
6.088899448513984680e-02
1.150125414133071899e-01
-5.412355065345764160e-02
2.029633149504661560e-02
-1.420743167400360107e-01
-1.217779889702796936e-01
7.441988587379455566e-02
1.285434365272521973e-01
2.232596427202224731e-01
8.118532598018646240e-02
8.118532598018646240e-02
-2.706177532672882080e-02
1.217779889702796936e-01
1.217779889702796936e-01
6.765443831682205200e-02
8.118532598018646240e-02
3.247413039207458496e-01
2.367905378341674805e-01
2.232596427202224731e-01
-1.082471013069152832e-01
1.082471013069152832e-01
-6.088899448513984680e-02
-1.082471013069152832e-01
-7.441988587379455566e-02
-1.014816612005233765e-01
-1.217779889702796936e-01
2.164942026138305664e-01
1.420743167400360107e-01
4.735810682177543640e-02
-4.059266299009323120e-02
7.441988587379455566e-02
-1.961978673934936523e-01
-2.164942026138305664e-01
1.691360920667648315e-01
0.000000000000000000e+00
-7.441988587379455566e-02
-2.232596427202224731e-01
2.300250828266143799e-01
-8.795076608657836914e-02
8.795076608657836914e-02
0.000000000000000000e+00
-1.353088766336441040e-02
1.420743167400360107e-01
2.841486334800720215e-01
-2.976795434951782227e-01
1.691360920667648315e-01
-6.765443831682205200e-02
-2.706177532672882080e-01
3.382721915841102600e-02
-1.691360920667648315e-01
1.894324272871017456e-01
1.961978673934936523e-01
-6.765443831682205200e-02
-1.285434365272521973e-01
1.961978673934936523e-01
-8.118532598018646240e-02
-3.112104237079620361e-01
-6.765443831682205200e-03
-3.382721915841102600e-02
0.000000000000000000e+00
-1.826669871807098389e-01
-1.556052118539810181e-01
7.441988587379455566e-02
-1.691360920667648315e-01
-1.285434365272521973e-01
1.488397717475891113e-01
-3.315067589282989502e-01
-1.556052118539810181e-01
7.441988587379455566e-02
2.976795434951782227e-01
8.795076608657836914e-02
1.082471013069152832e-01
-1.014816612005233765e-01
1.150125414133071899e-01
1.082471013069152832e-01
-9.471621364355087280e-02
-9.471621364355087280e-02
-4.803465008735656738e-01
2.164942026138305664e-01
-2.841486334800720215e-01
-2.773832082748413086e-01
-3.585685193538665771e-01
4.735810682177543640e-02
2.029633149504661560e-02
-8.118532598018646240e-02
1.420743167400360107e-01
1.826669871807098389e-01
1.623706519603729248e-01
1.691360920667648315e-01
-1.961978673934936523e-01
2.164942026138305664e-01
-4.735810682177543640e-02
2.706177532672882080e-02
4.059266299009323120e-02
2.300250828266143799e-01
4.735810682177543640e-02
-1.285434365272521973e-01
8.118532598018646240e-02
-5.412355065345764160e-02
-9.471621364355087280e-02
0.000000000000000000e+00
-1.759015321731567383e-01
3.315067589282989502e-01
8.795076608657836914e-02
2.435559779405593872e-01
-6.088899448513984680e-02
-2.097287625074386597e-01
6.088899448513984680e-02
1.082471013069152832e-01
-1.894324272871017456e-01
4.059266299009323120e-02
-6.765443831682205200e-03
3.518030643463134766e-01
4.735810682177543640e-02
2.909140884876251221e-01
-7.441988587379455566e-02
2.029633149504661560e-02
-8.118532598018646240e-02
-1.014816612005233765e-01
-1.014816612005233765e-01
1.826669871807098389e-01
-1.623706519603729248e-01
2.706177532672882080e-01
3.382721915841102600e-02
-2.841486334800720215e-01
2.232596427202224731e-01
2.638522982597351074e-01
5.412355065345764160e-02
-4.059266299009323120e-02
2.773832082748413086e-01
2.706177532672882080e-02
-1.082471013069152832e-01
2.841486334800720215e-01
-3.450376391410827637e-01
1.353088766336441040e-02
-7.441988587379455566e-02
6.765443831682205200e-03
1.488397717475891113e-01
2.570868730545043945e-01
-2.503214180469512939e-01
7.441988587379455566e-02
-5.412355065345764160e-02
-1.556052118539810181e-01
-4.059266299009323120e-02
-1.961978673934936523e-01
2.706177532672882080e-02
2.029633224010467529e-01
-1.420743167400360107e-01
1.353088766336441040e-02
0.000000000000000000e+00
-1.150125414133071899e-01
3.382721915841102600e-02
1.826669871807098389e-01
-1.150125414133071899e-01
-8.795076608657836914e-02
-2.164942026138305664e-01
-6.765443831682205200e-03
1.420743167400360107e-01
-4.735810682177543640e-02
-6.088899448513984680e-02
7.441988587379455566e-02
-2.841486334800720215e-01
-2.164942026138305664e-01
-9.471621364355087280e-02
1.285434365272521973e-01
3.315067589282989502e-01
2.367905378341674805e-01
-1.826669871807098389e-01
-8.118532598018646240e-02
2.435559779405593872e-01
-1.488397717475891113e-01
1.623706519603729248e-01
1.488397717475891113e-01
7.441988587379455566e-02
-8.795076608657836914e-02
1.420743167400360107e-01
-3.382721841335296631e-01
-2.706177532672882080e-02
5.412355065345764160e-02
-1.488397717475891113e-01
1.961978673934936523e-01
8.795076608657836914e-02
-2.029633224010467529e-01
-1.353088766336441040e-02
3.382721915841102600e-02
-3.044449687004089355e-01
-2.367905378341674805e-01
-1.082471013069152832e-01
-6.765443831682205200e-02
-1.285434365272521973e-01
-2.097287625074386597e-01
3.382721915841102600e-02
1.488397717475891113e-01
-1.150125414133071899e-01
-6.088899448513984680e-02
1.150125414133071899e-01
4.059266299009323120e-02
-2.029633224010467529e-01
-6.765443831682205200e-03
-6.765443831682205200e-02
0.000000000000000000e+00
-6.088899448513984680e-02
2.706177532672882080e-02
-6.765443831682205200e-03
2.029633149504661560e-02
2.300250828266143799e-01
-7.441988587379455566e-02
1.691360920667648315e-01
1.353088766336441040e-02
2.029633149504661560e-02
-2.029633149504661560e-02
-9.471621364355087280e-02
-2.706177532672882080e-02
-1.353088766336441040e-01
-1.150125414133071899e-01
-4.059266299009323120e-02
-2.029633149504661560e-02
1.623706519603729248e-01
-1.556052118539810181e-01
-1.420743167400360107e-01
-6.088899448513984680e-02
5.412355065345764160e-02
3.382721915841102600e-02
-4.059266299009323120e-02
2.029633224010467529e-01
-1.150125414133071899e-01
-3.382721915841102600e-02
-1.894324272871017456e-01
-4.059266299009323120e-02
1.014816612005233765e-01
-2.706177532672882080e-02
7.441988587379455566e-02
8.118532598018646240e-02
-1.353088766336441040e-02
-4.735810682177543640e-02
-7.441988587379455566e-02
1.488397717475891113e-01
-1.826669871807098389e-01
-8.118532598018646240e-02
-2.706177532672882080e-02
-1.826669871807098389e-01
6.088899448513984680e-02
-7.441988587379455566e-02
-1.217779889702796936e-01
1.488397717475891113e-01
1.285434365272521973e-01
-4.735810682177543640e-02
-2.029633149504661560e-02
-5.412355065345764160e-02
-1.082471013069152832e-01
9.471621364355087280e-02
2.164942026138305664e-01
-1.894324272871017456e-01
2.097287625074386597e-01
1.285434365272521973e-01
9.471621364355087280e-02
-2.300250828266143799e-01
-8.118532598018646240e-02
6.765443831682205200e-03
2.164942026138305664e-01
-4.397538602352142334e-01
2.232596427202224731e-01
3.788648545742034912e-01
-7.441988587379455566e-02
1.014816612005233765e-01
2.909140884876251221e-01
3.585685193538665771e-01
-4.803465008735656738e-01
-2.706177532672882080e-01
1.961978673934936523e-01
1.556052118539810181e-01
-2.570868730545043945e-01
3.856303095817565918e-01
2.435559779405593872e-01
-2.097287625074386597e-01
-3.382721841335296631e-01
1.488397717475891113e-01
5.412355065345764160e-02
-4.397538602352142334e-01
-5.412355065345764160e-02
8.118532598018646240e-02
8.118532598018646240e-02
4.600501656532287598e-01
-3.382721915841102600e-02
2.300250828266143799e-01
-4.059266448020935059e-01
-1.961978673934936523e-01
2.503214180469512939e-01
-3.315067589282989502e-01
3.653339743614196777e-01
4.735810682177543640e-02
-1.082471013069152832e-01
2.029633149504661560e-02
2.706177532672882080e-02
-3.923957347869873047e-01
-2.638522982597351074e-01
-6.765443831682205200e-03
5.412355065345764160e-02
8.795076608657836914e-02
1.285434365272521973e-01
0.000000000000000000e+00
1.285434365272521973e-01
-1.759015321731567383e-01
9.471621364355087280e-02
-1.623706519603729248e-01
-1.082471013069152832e-01
2.706177532672882080e-02
2.029633224010467529e-01
6.765443831682205200e-02
-1.217779889702796936e-01
2.773832082748413086e-01
3.382721841335296631e-01
-1.353088766336441040e-01
1.961978673934936523e-01
-8.118532598018646240e-02
-2.841486334800720215e-01
2.976795434951782227e-01
4.059266448020935059e-01
-2.097287625074386597e-01
-2.638522982597351074e-01
4.059266299009323120e-02
3.112104237079620361e-01
2.029633224010467529e-01
-2.976795434951782227e-01
3.112104237079620361e-01
1.894324272871017456e-01
4.059266299009323120e-02
-1.488397717475891113e-01
1.150125414133071899e-01
8.118532598018646240e-02
2.570868730545043945e-01
1.082471013069152832e-01
1.894324272871017456e-01
-1.150125414133071899e-01
-2.367905378341674805e-01
2.435559779405593872e-01
6.088899448513984680e-02
-2.773832082748413086e-01
-2.029633224010467529e-01
2.232596427202224731e-01
-2.029633224010467529e-01
6.088899448513984680e-02
-5.277045965194702148e-01
1.691360920667648315e-01
0.000000000000000000e+00
-1.014816612005233765e-01
-1.691360920667648315e-01
-9.471621364355087280e-02
-1.961978673934936523e-01
-2.976795434951782227e-01
-1.082471013069152832e-01
-4.059266299009323120e-02
-1.826669871807098389e-01
-3.653339743614196777e-01
2.232596427202224731e-01
5.412355065345764160e-02
1.961978673934936523e-01
2.773832082748413086e-01
0.000000000000000000e+00
-8.118532598018646240e-02
-1.353088766336441040e-02
-1.014816612005233765e-01
-2.773832082748413086e-01
1.556052118539810181e-01
2.638522982597351074e-01
3.788648545742034912e-01
-2.773832082748413086e-01
-1.826669871807098389e-01
3.247413039207458496e-01
-5.412355065345764160e-02
2.503214180469512939e-01
4.600501656532287598e-01
-2.706177532672882080e-02
-1.150125414133071899e-01
-1.961978673934936523e-01
1.353088766336441040e-01
-2.503214180469512939e-01
-2.773832082748413086e-01
-2.029633149504661560e-02
-1.014816612005233765e-01
-2.300250828266143799e-01
-3.315067589282989502e-01
-1.353088766336441040e-02
0.000000000000000000e+00
-1.691360920667648315e-01
4.735810682177543640e-02
6.088899448513984680e-02
2.706177532672882080e-02
-7.441988587379455566e-02
-1.353088766336441040e-02
1.961978673934936523e-01
-2.367905378341674805e-01
1.217779889702796936e-01
-9.471621364355087280e-02
4.059266448020935059e-01
-1.623706519603729248e-01
-2.706177532672882080e-02
2.706177532672882080e-02
-4.735810682177543640e-02
-1.556052118539810181e-01
-1.150125414133071899e-01
-6.088899448513984680e-02
2.300250828266143799e-01
-1.217779889702796936e-01
8.118532598018646240e-02
-2.841486334800720215e-01
-2.706177532672882080e-02
-3.382721915841102600e-02
8.118532598018646240e-02
1.826669871807098389e-01
-9.471621364355087280e-02
-1.353088766336441040e-02
-1.420743167400360107e-01
2.570868730545043945e-01
2.029633149504661560e-02
1.961978673934936523e-01
8.795076608657836914e-02
6.765443831682205200e-02
1.894324272871017456e-01
-2.773832082748413086e-01
1.826669871807098389e-01
-1.014816612005233765e-01
3.044449687004089355e-01
2.029633149504661560e-02
6.765443831682205200e-02
-2.232596427202224731e-01
-6.765443831682205200e-02
8.118532598018646240e-02
9.471621364355087280e-02
-5.412355065345764160e-02
-4.465192854404449463e-01
3.382721915841102600e-02
-4.735810682177543640e-02
1.420743167400360107e-01
5.412355065345764160e-02
-8.795076608657836914e-02
1.556052118539810181e-01
-2.367905378341674805e-01
-2.029633224010467529e-01
2.706177532672882080e-02
4.059266448020935059e-01
-1.826669871807098389e-01
-1.961978673934936523e-01
5.412355065345764160e-02
-1.082471013069152832e-01
-5.412355065345764160e-02
-1.353088766336441040e-02
1.082471013069152832e-01
-6.765443831682205200e-02
-4.059266299009323120e-02
-6.765443831682205200e-03
4.059266299009323120e-02
1.826669871807098389e-01
-1.826669871807098389e-01
6.088899448513984680e-02
2.503214180469512939e-01
-5.412355065345764160e-02
2.773832082748413086e-01
2.706177532672882080e-02
2.232596427202224731e-01
-1.217779889702796936e-01
-1.826669871807098389e-01
1.826669871807098389e-01
-2.367905378341674805e-01
4.059266299009323120e-02
1.353088766336441040e-02
2.232596427202224731e-01
4.397538602352142334e-01
-1.150125414133071899e-01
-2.706177532672882080e-01
2.503214180469512939e-01
-1.826669871807098389e-01
4.938774108886718750e-01
1.014816612005233765e-01
1.150125414133071899e-01
3.179758489131927490e-01
-1.353088766336441040e-01
-7.441988587379455566e-02
-1.759015321731567383e-01
-1.353088766336441040e-01
2.097287625074386597e-01
-1.420743167400360107e-01
1.082471013069152832e-01
2.570868730545043945e-01
-3.247413039207458496e-01
2.909140884876251221e-01
-1.353088766336441040e-02
1.420743167400360107e-01
-6.765443831682205200e-03
-5.412355065345764160e-02
2.367905378341674805e-01
-1.759015321731567383e-01
3.382721915841102600e-02
2.706177532672882080e-02
-8.118532598018646240e-02
3.856303095817565918e-01
1.556052118539810181e-01
-6.765443831682205200e-03
-3.247413039207458496e-01
-3.720993995666503906e-01
-7.441988587379455566e-02
1.217779889702796936e-01
1.285434365272521973e-01
-2.773832082748413086e-01
2.300250828266143799e-01
-4.938774108886718750e-01
2.706177532672882080e-02
8.795076608657836914e-02
-1.623706519603729248e-01
-2.706177532672882080e-01
-2.164942026138305664e-01
-5.412355065345764160e-02
-1.353088766336441040e-02
-1.691360920667648315e-01
-2.097287625074386597e-01
8.795076608657836914e-02
2.029633224010467529e-01
2.029633149504661560e-02
-2.570868730545043945e-01
-4.735810682177543640e-02
-1.826669871807098389e-01
-3.382721915841102600e-02
1.014816612005233765e-01
3.044449687004089355e-01
0.000000000000000000e+00
-2.976795434951782227e-01
-8.795076608657836914e-02
-5.412355065345764160e-02
6.088899448513984680e-02
-2.164942026138305664e-01
6.765443831682205200e-02
2.570868730545043945e-01
1.556052118539810181e-01
2.097287625074386597e-01
2.435559779405593872e-01
1.217779889702796936e-01
-1.150125414133071899e-01
3.382721915841102600e-02
4.735810682177543640e-02
2.029633149504661560e-02
-9.471621364355087280e-02
9.471621364355087280e-02
-2.976795434951782227e-01
1.217779889702796936e-01
-1.556052118539810181e-01
-1.826669871807098389e-01
-6.765443831682205200e-03
-6.765443831682205200e-02
-1.353088766336441040e-02
0.000000000000000000e+00
1.691360920667648315e-01
6.765443831682205200e-02
-4.735810682177543640e-02
6.765443831682205200e-03
1.150125414133071899e-01
1.759015321731567383e-01
-6.765443831682205200e-03
-8.118532598018646240e-02
5.412355065345764160e-02
1.217779889702796936e-01
-6.088899448513984680e-02
1.623706519603729248e-01
6.765443831682205200e-02
1.082471013069152832e-01
2.367905378341674805e-01
2.503214180469512939e-01
-8.118532598018646240e-02
1.082471013069152832e-01
6.765443831682205200e-03
-1.488397717475891113e-01
0.000000000000000000e+00
-2.435559779405593872e-01
1.082471013069152832e-01
-3.382721841335296631e-01
1.420743167400360107e-01
-1.420743167400360107e-01
-6.088899448513984680e-02
1.420743167400360107e-01
-1.353088766336441040e-02
-2.638522982597351074e-01
-2.503214180469512939e-01
-4.735810682177543640e-02
1.014816612005233765e-01
-2.435559779405593872e-01
1.014816612005233765e-01
-2.638522982597351074e-01
2.638522982597351074e-01
2.976795434951782227e-01
-1.150125414133071899e-01
-1.826669871807098389e-01
-3.382721915841102600e-02
-2.164942026138305664e-01
-1.691360920667648315e-01
6.765443831682205200e-02
